SVM-light Version V6.02
0 # kernel type
3 # kernel parameter -d 
1 # kernel parameter -g 
1 # kernel parameter -s 
1 # kernel parameter -r 
empty# kernel parameter -u 
44 # highest feature index 
9061 # number of training documents 
9062 # number of support vectors plus 1 
0 # threshold b, each following line is a SV (starting with alpha*y)
-0.00040000000000000001916869440954372 1:0.001688 2:0.0057939999 3:0.00031900001 4:0.00026599999 5:0.000106 6:1e-06 7:0 8:0 9:0 10:0 11:0 12:0 13:0.001604 14:0 15:-0.00049100001 16:0.00065499998 17:-0.000455 18:-0.000462 19:-0.000474 20:0.000109 21:-0.00045200001 22:-0.00045600001 23:-0.00044100001 24:0.00034100001 25:-0.00044 26:-0.00044100001 27:0.001605 28:0.00042500001 29:5.3e-05 30:5.3e-05 31:0 32:0 33:0 34:0 35:0 36:0 37:0 38:0 39:0 40:0 41:0 42:0.001788 43:0.001754 44:0.0015829999 #
-0.00040000000000000001916869440954372 1:0.0019680001 2:0.007156 3:0.001789 4:0.00018800001 5:0.00018800001 6:3.0000001e-06 7:0 8:0 9:0 10:0 11:0 12:0 13:0.001892 14:0 15:-0.001426 16:7.0000001e-06 17:-0.001212 18:-0.000963 19:-0.00083999999 20:0.00019399999 21:-0.00080099999 22:-0.00080799998 23:-0.00082299998 24:0.000239 25:-0.00080500002 26:-0.00081699999 27:0.001896 28:0.00018800001 29:0 30:0 31:0 32:0 33:0 34:0 35:0 36:0 37:0 38:0 39:0 40:0 41:0 42:0.0019779999 43:0.002173 44:0.0033829999 #
-0.00040000000000000001916869440954372 1:0.0062850001 2:0.01125 3:0.001089 4:0.001814 5:0.001089 6:0 7:0 8:0 9:0 10:0 11:0 12:0 13:0.005686 14:0 15:-0.0054950002 16:2.7e-05 17:-0.0046709999 18:-0.0037100001 19:-0.003238 20:0.00074699998 21:-0.003088 22:-0.003115 23:-0.0031729999 24:0.00091900001 25:-0.0031039999 26:-0.003149 27:0.005686 28:0 29:0 30:0 31:0 32:0 33:0 34:0 35:0 36:0 37:0 38:0 39:0 40:0 41:0 42:0 43:0 44:0 #
-0.00040000000000000001916869440954372 1:0 2:0 3:4.0999999e-05 4:0 5:0 6:0 7:0 8:0 9:0 10:0 11:0 12:0 13:0 14:0 15:-0 16:0 17:-0 18:-0 19:-0 20:0 21:-0 22:-0 23:-0 24:0 25:-0 26:-0 27:0 28:0 29:0 30:0 31:0 32:0 33:0 34:0 35:0 36:0 37:0 38:0 39:0 40:0 41:0 42:0 43:0 44:0 #
-0.00040000000000000001916869440954372 1:0.000143 2:0.0026789999 3:0.00011 4:6.6000001e-05 5:4.4e-05 6:0 7:0 8:0 9:0 10:0 11:0 12:0 13:0.00012899999 14:0 15:-6.7000001e-05 16:0.000101 17:-6.0999999e-05 18:-6.0999999e-05 19:-5.7000001e-05 20:5.5e-05 21:-5.6000001e-05 22:-5.7000001e-05 23:-5.8000001e-05 24:4.6000001e-05 25:-5.7000001e-05 26:-5.8000001e-05 27:0.00012899999 28:5.8000001e-05 29:7.0000001e-06 30:7.0000001e-06 31:0 32:0 33:0 34:0 35:0 36:0 37:0 38:0 39:0 40:0 41:0 42:0 43:0 44:0 #
-0.00040000000000000001916869440954372 1:0.000186 2:0.003247 3:1.1e-05 4:3.2e-05 5:3.2e-05 6:0 7:0 8:0 9:0 10:0 11:0 12:0 13:0.00016700001 14:0 15:-0.000163 16:1e-06 17:-0.000138 18:-0.00011 19:-9.6000003e-05 20:2.2e-05 21:-9.1000002e-05 22:-9.2000002e-05 23:-9.4000003e-05 24:2.7e-05 25:-9.2000002e-05 26:-9.3000002e-05 27:0.00016700001 28:7.5000004e-05 29:0 30:0 31:0 32:0 33:0 34:0 35:0 36:0 37:0 38:0 39:0 40:0 41:0 42:0 43:0 44:0 #
-0.00040000000000000001916869440954372 1:4.9999999e-05 2:0.001712 3:2.1e-05 4:1.8000001e-05 5:1.2e-05 6:0 7:0 8:0 9:0 10:0 11:0 12:0 13:4.5000001e-05 14:0 15:-4.5000001e-05 16:1e-06 17:-3.7999998e-05 18:-2.9999999e-05 19:-2.6e-05 20:6.0000002e-06 21:-2.4999999e-05 22:-2.4999999e-05 23:-2.4999999e-05 24:1.7e-05 25:-2.4999999e-05 26:-2.4999999e-05 27:4.5000001e-05 28:5.3e-05 29:3.0000001e-06 30:3.0000001e-06 31:0 32:0 33:0 34:0 35:0 36:0 37:0 38:0 39:0 40:0 41:0 42:5.0999999e-05 43:5.0999999e-05 44:4.2e-05 #
-0.00040000000000000001916869440954372 1:6.7000001e-05 2:0.001795 3:1.3e-05 4:9.9999997e-06 5:2.3000001e-05 6:0 7:0 8:0 9:0 10:0 11:0 12:0 13:5.9999998e-05 14:0 15:-4.8999998e-05 16:0 17:-4.2e-05 18:-3.3e-05 19:-2.9000001e-05 20:7.0000001e-06 21:-2.8e-05 22:-2.8e-05 23:-2.8e-05 24:8e-06 25:-2.8e-05 26:-2.8e-05 27:5.9999998e-05 28:2.6e-05 29:0 30:0 31:0 32:0 33:0 34:0 35:0 36:0 37:0 38:0 39:0 40:0 41:0 42:0 43:0 44:0 #
-0.00040000000000000001916869440954372 1:3.3e-05 2:0.001266 3:3.0000001e-06 4:6.0000002e-06 5:4.9999999e-06 6:0 7:0 8:0 9:0 10:0 11:0 12:0 13:2.9000001e-05 14:0 15:-2.4000001e-05 16:0 17:-2.1e-05 18:-1.6e-05 19:-1.4e-05 20:3.0000001e-06 21:-1.4e-05 22:-1.4e-05 23:-1.4e-05 24:4e-06 25:-1.4e-05 26:-1.4e-05 27:2.9000001e-05 28:3.4000001e-05 29:0 30:0 31:0 32:0 33:0 34:0 35:0 36:0 37:0 38:0 39:0 40:0 41:0 42:3.3e-05 43:3.2e-05 44:4.3e-05 #
-0.00040000000000000001916869440954372 1:0.0064039999 2:0.011062 3:0.00036899999 4:0.00073700002 5:0.001844 6:0 7:0 8:0 9:0 10:0 11:0 12:0 13:0.0059210001 14:0 15:-0.0055840001 16:2.8e-05 17:-0.0047459998 18:-0.0037690001 19:-0.0032899999 20:0.00076000002 21:-0.0031379999 22:-0.0031649999 23:-0.0032240001 24:0.00093400001 25:-0.003154 26:-0.0031989999 27:0.0059210001 28:0.00073700002 29:0 30:0 31:0 32:0 33:0 34:0 35:0 36:0 37:0 38:0 39:0 40:0 41:0 42:0 43:0 44:0 #
-0.00040000000000000001916869440954372 1:0.00021 2:0.002841 3:0 4:3.4000001e-05 5:2.4999999e-05 6:0 7:0 8:0 9:0 10:0 11:0 12:0 13:0.000189 14:0 15:-0.00012700001 16:1e-06 17:-0.000108 18:-8.6e-05 19:-7.5000004e-05 20:1.7e-05 21:-7.1000002e-05 22:-7.2000003e-05 23:-6.9000002e-05 24:5.9000002e-05 25:-6.9000002e-05 26:-6.9000002e-05 27:0.000189 28:9.2000002e-05 29:0 30:8e-06 31:0 32:0 33:0 34:0 35:0 36:0 37:0 38:0 39:0 40:0 41:0 42:0.000206 43:0.00020900001 44:0.00016900001 #
-0.00040000000000000001916869440954372 1:0.002422 2:0.0055709998 3:0.0087130005 4:0.00057099998 5:0.00071400002 6:0 7:0 8:0 9:0 10:0 11:0 12:0 13:0.0021800001 14:0 15:-0.0021629999 16:1.1e-05 17:-0.001838 18:-0.0014600001 19:-0.001274 20:0.000294 21:-0.0012150001 22:-0.001226 23:-0.001249 24:0.00036199999 25:-0.001222 26:-0.001239 27:0.0021800001 28:0.00028599999 29:0 30:0 31:0 32:0 33:0 34:0 35:0 36:0 37:0 38:0 39:0 40:0 41:0 42:0 43:0 44:0 #
-0.00040000000000000001916869440954372 1:4.2e-05 2:0.001587 3:4.9999999e-06 4:9.9999997e-06 5:1.3e-05 6:0 7:0 8:0 9:0 10:0 11:0 12:0 13:3.7999998e-05 14:0 15:-3.7999998e-05 16:0 17:-3.3e-05 18:-2.6e-05 19:-2.3000001e-05 20:4.9999999e-06 21:-2.2e-05 22:-2.2e-05 23:-2.2e-05 24:6.0000002e-06 25:-2.2e-05 26:-2.2e-05 27:3.7999998e-05 28:4.3e-05 29:0 30:0 31:0 32:0 33:0 34:0 35:0 36:0 37:0 38:0 39:0 40:0 41:0 42:0 43:0 44:0 #
-0.00040000000000000001916869440954372 1:6.1999999e-05 2:0.0018429999 3:7.0000001e-06 4:2.4000001e-05 5:1.4e-05 6:0 7:0 8:0 9:0 10:0 11:0 12:0 13:5.5e-05 14:0 15:-5.1999999e-05 16:0 17:-4.4e-05 18:-3.5000001e-05 19:-3.1e-05 20:7.0000001e-06 21:-2.9000001e-05 22:-2.9000001e-05 23:-2.9999999e-05 24:9.0000003e-06 25:-2.9000001e-05 26:-2.9999999e-05 27:5.5e-05 28:3.7999998e-05 29:0 30:0 31:0 32:0 33:0 34:0 35:0 36:0 37:0 38:0 39:0 40:0 41:0 42:0 43:0 44:0 #
-0.00040000000000000001916869440954372 1:0.00050899998 2:0.0049620001 3:0.00031199999 4:0.00013 5:0.00015599999 6:0 7:0 8:0 9:0 10:0 11:0 12:0 13:0.00045799999 14:0 15:-0.00023200001 16:0.00027300001 17:-0.00021499999 18:-0.000218 19:-0.00023200001 20:5.4e-05 21:-0.00022099999 22:-0.000223 23:-0.000227 24:6.6000001e-05 25:-0.000222 26:-0.000225 27:0.00045799999 28:7.7999997e-05 29:2.6e-05 30:0 31:0 32:0 33:0 34:0 35:0 36:0 37:0 38:0 39:0 40:0 41:0 42:0 43:0 44:0 #
-0.00040000000000000001916869440954372 1:0 2:0 3:7.2000003e-05 4:0 5:0 6:0 7:0 8:0 9:0 10:0 11:0 12:0 13:0 14:0 15:-0 16:0 17:-0 18:-0 19:-0 20:0 21:-0 22:-0 23:-0 24:0 25:-0 26:-0 27:0 28:0 29:0 30:0 31:0 32:0 33:0 34:0 35:0 36:0 37:0 38:0 39:0 40:0 41:0 42:0 43:0 44:0 #
-0.00040000000000000001916869440954372 1:0.001134 2:0.0071049999 3:0.00028899999 4:0.000231 5:0.00028899999 6:0 7:0 8:0 9:0 10:0 11:0 12:0 13:0.001113 14:0 15:-0.00087500003 16:4e-06 17:-0.00074400002 18:-0.00059100002 19:-0.00051500002 20:0.000119 21:-0.00049200002 22:-0.00049599999 23:-0.000505 24:0.00014600001 25:-0.00049399998 26:-0.00050099997 27:0.001117 28:0.00028899999 29:0 30:0 31:0 32:0 33:0 34:0 35:0 36:0 37:0 38:0 39:0 40:0 41:0 42:0 43:0 44:0 #
-0.00040000000000000001916869440954372 1:5.0999999e-05 2:0.001518 3:4.9999999e-06 4:4.9999999e-06 5:9.0000003e-06 6:0 7:0 8:0 9:0 10:0 11:0 12:0 13:4.6000001e-05 14:0 15:-3.5000001e-05 16:0 17:-2.9999999e-05 18:-2.4000001e-05 19:-2.1e-05 20:4.9999999e-06 21:-1.9999999e-05 22:-1.9999999e-05 23:-1.9999999e-05 24:6.0000002e-06 25:-1.9999999e-05 26:-1.9999999e-05 27:4.6000001e-05 28:2.8e-05 29:0 30:0 31:0 32:0 33:0 34:0 35:0 36:0 37:0 38:0 39:0 40:0 41:0 42:0 43:0 44:0 #
-0.00040000000000000001916869440954372 1:0.000421 2:0.0034399999 3:0 4:7.7999997e-05 5:3.8999999e-05 6:0 7:0 8:0 9:0 10:0 11:0 12:0 13:0.000379 14:0 15:-0.00019799999 16:1e-06 17:-0.000168 18:-0.000134 19:-0.000117 20:2.7e-05 21:-0.000111 22:-0.000112 23:-0.000109 24:7.6999997e-05 25:-0.000108 26:-0.000109 27:0.000379 28:0.000379 29:0 30:1.3e-05 31:0 32:0 33:0 34:0 35:0 36:0 37:0 38:0 39:0 40:0 41:0 42:0.00041099999 43:0.000424 44:0.00034100001 #
-0.00040000000000000001916869440954372 1:0.000206 2:0.003241 3:1.1e-05 4:1.1e-05 5:4.3e-05 6:0 7:0 8:0 9:0 10:0 11:0 12:0 13:0.000185 14:0 15:-0.000109 16:0.000195 17:-8.2999999e-05 18:-8.3999999e-05 19:-9.6000003e-05 20:2.2e-05 21:-9.2000002e-05 22:-9.2000002e-05 23:-7.8999998e-05 24:0.000137 25:-8.2999999e-05 26:-7.8999998e-05 27:0.000185 28:0.000151 29:1.1e-05 30:1.1e-05 31:1.1e-05 32:0 33:0 34:0 35:0 36:0 37:0 38:0 39:0 40:0 41:0 42:0 43:0 44:0 #
-0.00040000000000000001916869440954372 1:7.5999997e-05 2:0.001917 3:4e-06 4:1.1e-05 5:1.1e-05 6:0 7:0 8:0 9:0 10:0 11:0 12:0 13:6.8000001e-05 14:0 15:-5.6000001e-05 16:0 17:-4.8000002e-05 18:-3.7999998e-05 19:-3.3e-05 20:8e-06 21:-3.2e-05 22:-3.2e-05 23:-3.3e-05 24:9.0000003e-06 25:-3.2e-05 26:-3.2e-05 27:6.8000001e-05 28:4.5000001e-05 29:0 30:0 31:0 32:0 33:0 34:0 35:0 36:0 37:0 38:0 39:0 40:0 41:0 42:7.5999997e-05 43:7.6999997e-05 44:0.000108 #
-0.00040000000000000001916869440954372 1:0.0060680001 2:0.0053810002 3:0.002354 4:0.001345 5:0.001681 6:6.0000002e-06 7:0 8:0 9:0 10:0 11:0 12:0 13:0.0054609999 14:0 15:-0.0050920001 16:2.4999999e-05 17:-0.0043279999 18:-0.0034380001 19:-0.003001 20:0.00069299998 21:-0.0028609999 22:-0.0028860001 23:-0.00294 24:0.00085200003 25:-0.002877 26:-0.0029180001 27:0.0054609999 28:0 29:0 30:0 31:0 32:0 33:0 34:0 35:0 36:0 37:0 38:0 39:0 40:0 41:0 42:0.0060919998 43:0.0059890002 44:0.0043660002 #
-0.00040000000000000001916869440954372 1:0.001024 2:0.00593 3:3.9999999e-05 4:0.000119 5:0.000158 6:0 7:0 8:0 9:0 10:0 11:0 12:0 13:0.00092199998 14:0 15:-0.00059900002 16:3.0000001e-06 17:-0.00050899998 18:-0.00040399999 19:-0.00035300001 20:8.0999998e-05 21:-0.000336 22:-0.00033899999 23:-0.00034599999 24:9.9999997e-05 25:-0.00033800001 26:-0.00034299999 27:0.00092199998 28:0.00027700001 29:0 30:0 31:0 32:0 33:0 34:0 35:0 36:0 37:0 38:0 39:0 40:0 41:0 42:0 43:0 44:0 #
-0.00040000000000000001916869440954372 1:0.00044500001 2:0.0044430001 3:0.000149 4:0.000128 5:0.000128 6:0 7:0 8:0 9:0 10:0 11:0 12:0 13:0.00039999999 14:0 15:-0.00032200001 16:2e-06 17:-0.00027399999 18:-0.00021699999 19:-0.00019000001 20:4.4e-05 21:-0.000181 22:-0.000182 23:-0.000186 24:5.4e-05 25:-0.000182 26:-0.000184 27:0.00039999999 28:0.000128 29:0 30:0 31:0 32:0 33:0 34:0 35:0 36:0 37:0 38:0 39:0 40:0 41:0 42:0.00045600001 43:0.000428 44:0.000321 #
-0.00040000000000000001916869440954372 1:0.000163 2:0.003026 3:0.00033000001 4:3.7999998e-05 5:3.7999998e-05 6:0 7:0 8:0 9:0 10:0 11:0 12:0 13:0.00014800001 14:0 15:-0.000143 16:1e-06 17:-0.000121 18:-9.6000003e-05 19:-8.3999999e-05 20:1.8999999e-05 21:-7.9999998e-05 22:-8.0999998e-05 23:-8.1999999e-05 24:2.4000001e-05 25:-8.0999998e-05 26:-8.1999999e-05 27:0.00014800001 28:5.7000001e-05 29:0 30:0 31:0 32:0 33:0 34:0 35:0 36:0 37:0 38:0 39:0 40:0 41:0 42:0 43:0 44:0 #
-0.00040000000000000001916869440954372 1:0.001315 2:0.006976 3:0.00016900001 4:0.00028099999 5:0.00033800001 6:0 7:0 8:0 9:0 10:0 11:0 12:0 13:0.001183 14:0 15:-0.000486 16:0.00059900002 17:-0.000489 18:-0.000486 19:-0.00050199998 20:0.000116 21:-0.00047900001 22:-0.00048300001 23:-0.00046700001 24:0.00036100001 25:-0.00046499999 26:-0.00046700001 27:0.001183 28:0.00050600001 29:5.6000001e-05 30:5.6000001e-05 31:0 32:0 33:0 34:0 35:0 36:0 37:0 38:0 39:0 40:0 41:0 42:0 43:0 44:0 #
-0.00040000000000000001916869440954372 1:0.00055200001 2:0.0051480001 3:0.000424 4:2.8e-05 5:0.000113 6:0 7:0 8:0 9:0 10:0 11:0 12:0 13:0.000497 14:0 15:-0.000428 16:2e-06 17:-0.00036400001 18:-0.00028899999 19:-0.000252 20:5.8000001e-05 21:-0.000241 22:-0.000243 23:-0.00024699999 24:7.2000003e-05 25:-0.00024199999 26:-0.000245 27:0.000497 28:0.000141 29:0 30:0 31:0 32:0 33:0 34:0 35:0 36:0 37:0 38:0 39:0 40:0 41:0 42:0 43:0 44:0 #
-0.00040000000000000001916869440954372 1:0.00025400001 2:0.0037799999 3:1.5e-05 4:4.5000001e-05 5:4.5000001e-05 6:0 7:0 8:0 9:0 10:0 11:0 12:0 13:0.000229 14:0 15:-0.000228 16:1e-06 17:-0.00019399999 18:-0.00015399999 19:-0.000134 20:3.1e-05 21:-0.000128 22:-0.00012899999 23:-0.000132 24:3.7999998e-05 25:-0.00012899999 26:-0.00013099999 27:0.000229 28:2.9999999e-05 29:0 30:0 31:0 32:0 33:0 34:0 35:0 36:0 37:0 38:0 39:0 40:0 41:0 42:0.000256 43:0.000279 44:0.00048399999 #
-0.00040000000000000001916869440954372 1:0.0017969999 2:0.0073759998 3:0.000203 4:0.00033800001 5:0.000271 6:0 7:0 8:0 9:0 10:0 11:0 12:0 13:0.001618 14:0 15:-0.001025 16:4.9999999e-06 17:-0.000871 18:-0.00069199997 19:-0.000604 20:0.000139 21:-0.00057600002 22:-0.000581 23:-0.00059200003 24:0.00017100001 25:-0.00057899999 26:-0.00058699999 27:0.001618 28:0.00040600001 29:0 30:0 31:6.8000001e-05 32:0 33:0 34:0 35:0 36:0 37:0 38:0 39:0 40:0 41:0 42:0 43:0 44:0 #
-0.00040000000000000001916869440954372 1:0.00021 2:0.00263 3:7.0000001e-06 4:2.1e-05 5:2.1e-05 6:0 7:0 8:0 9:0 10:0 11:0 12:0 13:0.000189 14:0 15:-7.2000003e-05 16:0.00012899999 17:-5.5e-05 18:-5.6000001e-05 19:-5.1999999e-05 20:9.1000002e-05 21:-5.4e-05 22:-5.1999999e-05 23:-5.5e-05 24:7.2000003e-05 25:-5.5e-05 26:-5.5e-05 27:0.000189 28:0.00023600001 29:7.0000001e-06 30:7.0000001e-06 31:7.0000001e-06 32:0 33:0 34:0 35:0 36:0 37:0 38:0 39:0 40:0 41:0 42:0 43:0 44:0 #
-0.00040000000000000001916869440954372 1:1.2e-05 2:0.00070999999 3:1e-06 4:1e-06 5:2e-06 6:0 7:0 8:0 9:0 10:0 11:0 12:0 13:1.1e-05 14:0 15:-8e-06 16:0 17:-6.0000002e-06 18:-4.9999999e-06 19:-4.9999999e-06 20:1e-06 21:-4e-06 22:-4e-06 23:-4e-06 24:1e-06 25:-4e-06 26:-4e-06 27:1.1e-05 28:1.8999999e-05 29:0 30:0 31:0 32:0 33:0 34:0 35:0 36:0 37:0 38:0 39:0 40:0 41:0 42:0 43:0 44:0 #
-0.00040000000000000001916869440954372 1:0.001435 2:0.0082679996 3:0.00060299999 4:0.000344 5:0.000344 6:1e-06 7:0 8:0 9:0 10:0 11:0 12:0 13:0.0012919999 14:0 15:-0.001304 16:6.0000002e-06 17:-0.0011080001 18:-0.00088000001 19:-0.00076800003 20:0.00017699999 21:-0.00073299999 22:-0.00073899998 23:-0.00075299997 24:0.000218 25:-0.00073700002 26:-0.00074699998 27:0.0012919999 28:0.00025799999 29:0 30:0 31:0 32:0 33:0 34:0 35:0 36:0 37:0 38:0 39:0 40:0 41:0 42:0.0013839999 43:0.001355 44:0.00090799999 #
-0.00040000000000000001916869440954372 1:0.003552 2:0.011511 3:0.00086899998 4:0.00152 5:0.001303 6:0 7:0 8:0 9:0 10:0 11:0 12:0 13:0.0033130001 14:0 15:-0.0032889999 16:1.6e-05 17:-0.0027950001 18:-0.0022199999 19:-0.001938 20:0.000447 21:-0.001848 22:-0.001864 23:-0.001899 24:0.00055 25:-0.0018579999 26:-0.001884 27:0.0033189999 28:0 29:0 30:0 31:0 32:0 33:0 34:0 35:0 36:0 37:0 38:0 39:0 40:0 41:0 42:0 43:0 44:0 #
-0.00040000000000000001916869440954372 1:0.00067199999 2:0.0050889999 3:0.000141 4:5.7000001e-05 5:8.5e-05 6:0 7:0 8:0 9:0 10:0 11:0 12:0 13:0.000642 14:0 15:-0.00027799999 16:0.00048300001 17:-0.000225 18:-0.000226 19:-0.00021100001 20:0.000321 21:-0.00021499999 22:-0.00021100001 23:-0.00024699999 24:7.2000003e-05 25:-0.00024199999 26:-0.000245 27:0.000642 28:0.000481 29:5.7000001e-05 30:0 31:0 32:0 33:0 34:0 35:0 36:0 37:0 38:0 39:0 40:0 41:0 42:0 43:0 44:0 #
-0.00040000000000000001916869440954372 1:0.0035069999 2:0.002571 3:0 4:0.00049399998 5:0.00029699999 6:7.5000004e-05 7:1e-06 8:0 9:0 10:0 11:0 12:0 13:0.0033150001 14:0 15:-0.001497 16:7.0000001e-06 17:-0.001273 18:-0.001011 19:-0.00088200002 20:0.000204 21:-0.000841 22:-0.000849 23:-0.00081 24:0.00088000001 25:-0.00080099999 26:-0.000803 27:0.0033160001 28:0.00019799999 29:0 30:0.00019799999 31:0 32:0 33:0 34:0 35:0 36:0 37:1.3e-05 38:0 39:1e-06 40:0 41:0 42:0.0045500002 43:0.0039360002 44:0.003393 #
-0.00040000000000000001916869440954372 1:0.000386 2:0.0044749998 3:2.2e-05 4:6.5e-05 5:6.5e-05 6:0 7:0 8:0 9:0 10:0 11:0 12:0 13:0.00034699999 14:0 15:-0.000329 16:2e-06 17:-0.00028000001 18:-0.000222 19:-0.00019399999 20:4.5000001e-05 21:-0.000185 22:-0.000186 23:-0.00019000001 24:5.5e-05 25:-0.000186 26:-0.00018800001 27:0.00034699999 28:4.3e-05 29:0 30:0 31:0 32:0 33:0 34:0 35:0 36:0 37:0 38:0 39:0 40:0 41:0 42:0.00038799999 43:0.00042299999 44:0.00071699999 #
-0.00040000000000000001916869440954372 1:0.0027409999 2:0.010264 3:0.000147 4:0.000147 5:0.00058599998 6:0 7:0 8:0 9:0 10:0 11:0 12:0 13:0.0025229999 14:0 15:-0.0022199999 16:1.1e-05 17:-0.001887 18:-0.001499 19:-0.0013079999 20:0.000302 21:-0.001248 22:-0.001258 23:-0.001282 24:0.000371 25:-0.001254 26:-0.001272 27:0.0025229999 28:0 29:0 30:0 31:0 32:0 33:0 34:0 35:0 36:0 37:0 38:0 39:0 40:0 41:0 42:0 43:0 44:0 #
-0.00040000000000000001916869440954372 1:9.9999997e-06 2:0.00076600001 3:2e-06 4:2e-06 5:2e-06 6:0 7:0 8:0 9:0 10:0 11:0 12:0 13:9.0000003e-06 14:0 15:-9.0000003e-06 16:0 17:-8e-06 18:-6.0000002e-06 19:-4.9999999e-06 20:1e-06 21:-4.9999999e-06 22:-4.9999999e-06 23:-4.9999999e-06 24:1e-06 25:-4.9999999e-06 26:-4.9999999e-06 27:9.0000003e-06 28:1.6e-05 29:0 30:0 31:0 32:0 33:0 34:0 35:0 36:0 37:0 38:0 39:0 40:0 41:0 42:0 43:0 44:0 #
-0.00040000000000000001916869440954372 1:1.8000001e-05 2:0.001004 3:2e-06 4:4.9999999e-06 5:4e-06 6:0 7:0 8:0 9:0 10:0 11:0 12:0 13:1.6e-05 14:0 15:-1.5e-05 16:0 17:-1.3e-05 18:-9.9999997e-06 19:-9.0000003e-06 20:2e-06 21:-9.0000003e-06 22:-9.0000003e-06 23:-8e-06 24:6.0000002e-06 25:-8e-06 26:-8e-06 27:1.6e-05 28:2.7e-05 29:0 30:1e-06 31:0 32:0 33:0 34:0 35:0 36:0 37:0 38:0 39:0 40:0 41:0 42:1.8000001e-05 43:1.8000001e-05 44:1.4e-05 #
-0.00040000000000000001916869440954372 1:0.00060799997 2:0.005719 3:0.00020900001 4:0.000139 5:0.000139 6:0 7:0 8:0 9:0 10:0 11:0 12:0 13:0.00054799998 14:0 15:-0.000333 16:0.000443 17:-0.00029699999 18:-0.000302 19:-0.00031100001 20:7.2000003e-05 21:-0.00029699999 22:-0.00029900001 23:-0.000287 24:0.000245 25:-0.00028800001 26:-0.000287 27:0.00054799998 28:0.000174 29:7.0000002e-05 30:3.5000001e-05 31:0 32:0 33:0 34:0 35:0 36:0 37:0 38:0 39:0 40:0 41:0 42:0 43:0 44:0 #
-0.00040000000000000001916869440954372 1:9.0000003e-06 2:0.00064799999 3:3.0000001e-06 4:2e-06 5:2e-06 6:0 7:0 8:0 9:0 10:0 11:0 12:0 13:8e-06 14:0 15:-6.0000002e-06 16:0 17:-4.9999999e-06 18:-4e-06 19:-4e-06 20:1e-06 21:-4e-06 22:-4e-06 23:-4e-06 24:1e-06 25:-4e-06 26:-4e-06 27:8e-06 28:1.3e-05 29:0 30:0 31:0 32:0 33:0 34:0 35:0 36:0 37:0 38:0 39:0 40:0 41:0 42:9.0000003e-06 43:9.0000003e-06 44:7.0000001e-06 #
-0.00040000000000000001916869440954372 1:0.0042670001 2:0.011788 3:0.001794 4:0.001281 5:0.001281 6:0 7:0 8:0 9:0 10:0 11:0 12:0 13:0.0038409999 14:0 15:-0.003881 16:1.8999999e-05 17:-0.003298 18:-0.0026199999 19:-0.002287 20:0.000528 21:-0.0021810001 22:-0.0022 23:-0.0022400001 24:0.00064899999 25:-0.0021919999 26:-0.0022239999 27:0.0038409999 28:0 29:0 30:0 31:0 32:0 33:0 34:0 35:0 36:0 37:0 38:0 39:0 40:0 41:0 42:0 43:0 44:0 #
-0.00040000000000000001916869440954372 1:5.8000001e-05 2:0.001696 3:3.0000001e-06 4:3.0000001e-06 5:1.2e-05 6:0 7:0 8:0 9:0 10:0 11:0 12:0 13:5.1999999e-05 14:0 15:-4.4e-05 16:0 17:-3.7000002e-05 18:-2.9999999e-05 19:-2.6e-05 20:6.0000002e-06 21:-2.4999999e-05 22:-2.4999999e-05 23:-2.4999999e-05 24:7.0000001e-06 25:-2.4999999e-05 26:-2.4999999e-05 27:5.1999999e-05 28:3.5000001e-05 29:0 30:0 31:0 32:0 33:0 34:0 35:0 36:0 37:0 38:0 39:0 40:0 41:0 42:0 43:0 44:0 #
-0.00040000000000000001916869440954372 1:0.00053999998 2:0.0049359999 3:0.000107 4:0.00023999999 5:0.00013299999 6:0 7:0 8:0 9:0 10:0 11:0 12:0 13:0.000486 14:0 15:-0.00040399999 16:2e-06 17:-0.00034299999 18:-0.00027300001 19:-0.000218 20:0.000161 21:-0.000216 22:-0.000218 23:-0.000228 24:0.000128 25:-0.000223 26:-0.000225 27:0.000486 28:0.00023999999 29:0 30:2.7e-05 31:0 32:0 33:0 34:0 35:0 36:0 37:0 38:0 39:0 40:0 41:0 42:0.00053000002 43:0.00052300002 44:0.00040200001 #
-0.00040000000000000001916869440954372 1:0.000186 2:0.003247 3:0 4:3.2e-05 5:3.2e-05 6:0 7:0 8:0 9:0 10:0 11:0 12:0 13:0.00016700001 14:0 15:-0.000163 16:1e-06 17:-0.000138 18:-0.00011 19:-9.6000003e-05 20:2.2e-05 21:-9.1000002e-05 22:-9.2000002e-05 23:-9.4000003e-05 24:2.7e-05 25:-9.2000002e-05 26:-9.3000002e-05 27:0.00016700001 28:7.5000004e-05 29:0 30:0 31:0 32:0 33:0 34:0 35:0 36:0 37:0 38:0 39:0 40:0 41:0 42:0 43:0 44:0 #
-0.00040000000000000001916869440954372 1:0.000703 2:0.0056750001 3:0.00078 4:0.00028400001 5:0.00017699999 6:0 7:0 8:0 9:0 10:0 11:0 12:0 13:0.00063999998 14:0 15:-0.00053700001 16:3.0000001e-06 17:-0.00045699999 18:-0.000363 19:-0.00031599999 20:7.3000003e-05 21:-0.000302 22:-0.00030399999 23:-0.00031 24:9.0000001e-05 25:-0.00030300001 26:-0.00030799999 27:0.00063999998 28:0.000142 29:0 30:0 31:0 32:0 33:0 34:0 35:0 36:0 37:0 38:0 39:0 40:0 41:0 42:0 43:0 44:0 #
-0.00040000000000000001916869440954372 1:0.004158 2:0.0048190001 3:0 4:0.000741 5:0.000741 6:0 7:0 8:0 9:0 10:0 11:0 12:0 13:0.0037420001 14:0 15:-0.0028059999 16:1.4e-05 17:-0.002385 18:-0.001895 19:-0.001654 20:0.000382 21:-0.001577 22:-0.001591 23:-0.00162 24:0.00047 25:-0.001585 26:-0.001608 27:0.0037420001 28:0.000371 29:0 30:0 31:0 32:0 33:0 34:0 35:0 36:0 37:0 38:0 39:0 40:0 41:1e-06 42:0.0040739998 43:0.004251 44:0.0069229999 #
-0.00040000000000000001916869440954372 1:2.8e-05 2:0.001177 3:8e-06 4:1e-06 5:6.0000002e-06 6:0 7:0 8:0 9:0 10:0 11:0 12:0 13:2.4999999e-05 14:0 15:-2.1e-05 16:0 17:-1.8000001e-05 18:-1.4e-05 19:-1.2e-05 20:3.0000001e-06 21:-1.2e-05 22:-1.2e-05 23:-1.2e-05 24:4e-06 25:-1.2e-05 26:-1.2e-05 27:2.4999999e-05 28:2.9000001e-05 29:0 30:0 31:0 32:0 33:0 34:0 35:0 36:0 37:0 38:0 39:0 40:0 41:0 42:0 43:0 44:0 #
-0.00040000000000000001916869440954372 1:0.000128 2:0.0026720001 3:1.5e-05 4:2.2e-05 5:2.9000001e-05 6:0 7:0 8:0 9:0 10:0 11:0 12:0 13:0.000115 14:0 15:-0.00011 16:1e-06 17:-9.4000003e-05 18:-7.4000003e-05 19:-6.5e-05 20:1.5e-05 21:-6.1999999e-05 22:-6.1999999e-05 23:-6.4e-05 24:1.8000001e-05 25:-6.1999999e-05 26:-6.2999999e-05 27:0.000115 28:7.9999998e-05 29:0 30:0 31:0 32:0 33:0 34:0 35:0 36:0 37:0 38:0 39:0 40:0 41:0 42:0.000132 43:0.000122 44:8.7e-05 #
-0.00040000000000000001916869440954372 1:0.0066030002 2:0.010997 3:0 4:0.001517 5:0.001896 6:0 7:0 8:0 9:0 10:0 11:0 12:0 13:0.0059429999 14:0 15:-0.005742 16:2.8e-05 17:-0.0048810001 18:-0.0038759999 19:-0.0033839999 20:0.00078100001 21:-0.0032269999 22:-0.0032550001 23:-0.0033150001 24:0.00096099998 25:-0.003244 26:-0.0032899999 27:0.0059429999 28:0 29:0 30:0 31:0 32:0 33:0 34:0 35:0 36:0 37:0 38:0 39:0 40:0 41:0 42:0 43:0 44:0 #
-0.00040000000000000001916869440954372 1:0.001412 2:0.0077780001 3:0.000283 4:0.000141 5:0.000283 6:0 7:0 8:0 9:0 10:0 11:0 12:0 13:0.001271 14:0 15:-0.001071 16:4.9999999e-06 17:-0.00091 18:-0.00072299998 19:-0.00063099997 20:0.00014600001 21:-0.00060199999 22:-0.00060700002 23:-0.00061799999 24:0.000179 25:-0.00060500001 26:-0.00061400002 27:0.001271 28:7.1000002e-05 29:0 30:0 31:0 32:0 33:0 34:0 35:0 36:0 37:0 38:0 39:0 40:0 41:0 42:0 43:0 44:0 #
-0.00040000000000000001916869440954372 1:0.00041800001 2:0.0046219998 3:2.3000001e-05 4:7.0000002e-05 5:7.0000002e-05 6:1e-06 7:0 8:0 9:0 10:0 11:0 12:0 13:0.00037600001 14:0 15:-0.00035300001 16:2e-06 17:-0.00030000001 18:-0.000239 19:-0.000208 20:4.8000002e-05 21:-0.000199 22:-0.00019999999 23:-0.000204 24:5.9000002e-05 25:-0.00019999999 26:-0.000203 27:0.00037600001 28:4.7000001e-05 29:0 30:0 31:0 32:0 33:0 34:0 35:0 36:0 37:0 38:0 39:0 40:0 41:0 42:0.00042 43:0.000459 44:0.00077400001 #
-0.00040000000000000001916869440954372 1:0.000184 2:0.0027739999 3:8e-06 4:2.4000001e-05 5:2.4000001e-05 6:0 7:0 8:0 9:0 10:0 11:0 12:0 13:0.000166 14:0 15:-8.5e-05 16:0.000116 17:-6.6000001e-05 18:-6.7000001e-05 19:-6.1999999e-05 20:8.1999999e-05 21:-6.4e-05 22:-6.1999999e-05 23:-6.6000001e-05 24:6.1999999e-05 25:-6.6000001e-05 26:-6.6000001e-05 27:0.000166 28:0.000241 29:8e-06 30:8e-06 31:8e-06 32:0 33:0 34:0 35:0 36:0 37:0 38:0 39:0 40:0 41:0 42:0.000184 43:0.000187 44:0.00025000001 #
-0.00040000000000000001916869440954372 1:0 2:1e-06 3:9.4000003e-05 4:0 5:0 6:0 7:0 8:0 9:0 10:0 11:0 12:0 13:0 14:0 15:-0 16:0 17:-0 18:-0 19:-0 20:0 21:-0 22:-0 23:-0 24:0 25:-0 26:-0 27:0 28:0 29:0 30:0 31:0 32:0 33:0 34:0 35:0 36:0 37:0 38:0 39:0 40:0 41:0 42:0 43:0 44:0 #
-0.00040000000000000001916869440954372 1:0.00048700001 2:0.0045449999 3:0.000113 4:0.000136 5:6.8000001e-05 6:2e-06 7:0 8:0 9:0 10:0 11:0 12:0 13:0.000466 14:0 15:-0.00019799999 16:0.000227 17:-0.000197 18:-0.00019799999 19:-0.000202 20:4.7000001e-05 21:-0.00019200001 22:-0.00019399999 23:-0.000189 24:0.000134 25:-0.000187 26:-0.000189 27:0.00047 28:0.000271 29:2.3000001e-05 30:2.3000001e-05 31:0 32:0 33:0 34:0 35:0 36:0 37:0 38:0 39:0 40:0 41:0 42:0.00055499998 43:0.000535 44:0.00040600001 #
-0.00040000000000000001916869440954372 1:9.2000002e-05 2:0.002328 3:6.0000002e-06 4:1.7e-05 5:1.7e-05 6:0 7:0 8:0 9:0 10:0 11:0 12:0 13:8.2999999e-05 14:0 15:-8.3999999e-05 16:0 17:-7.1000002e-05 18:-5.6000001e-05 19:-4.8999998e-05 20:1.1e-05 21:-4.7000001e-05 22:-4.7000001e-05 23:-4.8000002e-05 24:1.4e-05 25:-4.7000001e-05 26:-4.8000002e-05 27:8.2999999e-05 28:2.2e-05 29:0 30:0 31:0 32:0 33:0 34:0 35:0 36:0 37:0 38:0 39:0 40:0 41:0 42:9.3000002e-05 43:9.7999997e-05 44:0.000164 #
-0.00040000000000000001916869440954372 1:0.001632 2:0.0085939998 3:0.00017699999 4:0.00017699999 5:0.00035399999 6:0 7:0 8:0 9:0 10:0 11:0 12:0 13:0.001469 14:0 15:-0.001342 16:7.0000001e-06 17:-0.0011399999 18:-0.00090599997 19:-0.00079100003 20:0.000183 21:-0.00075399998 22:-0.00076000002 23:-0.00077500002 24:0.000224 25:-0.00075800001 26:-0.00076899998 27:0.001469 28:0.00017699999 29:0 30:0 31:0 32:0 33:0 34:0 35:0 36:0 37:0 38:0 39:0 40:0 41:0 42:0 43:0 44:0 #
-0.00040000000000000001916869440954372 1:8.3999999e-05 2:0.002196 3:4.9999999e-06 4:1.5e-05 5:1.9999999e-05 6:0 7:0 8:0 9:0 10:0 11:0 12:0 13:7.5999997e-05 14:0 15:-7.4000003e-05 16:0 17:-6.2999999e-05 18:-4.9999999e-05 19:-4.4e-05 20:9.9999997e-06 21:-4.2e-05 22:-4.2e-05 23:-3.9999999e-05 24:3.7999998e-05 25:-3.9999999e-05 26:-3.9999999e-05 27:7.5999997e-05 28:6.8000001e-05 29:0 30:4.9999999e-06 31:0 32:0 33:0 34:0 35:0 36:0 37:0 38:0 39:0 40:0 41:0 42:8.6e-05 43:8.8000001e-05 44:7.4000003e-05 #
-0.00040000000000000001916869440954372 1:0.000199 2:0.003151 3:8.1999999e-05 4:9.9999997e-06 5:6.1999999e-05 6:0 7:0 8:0 9:0 10:0 11:0 12:0 13:0.000179 14:0 15:-3.1e-05 16:0.00039 17:-3.9999999e-05 18:-3.2e-05 19:-7.7999997e-05 20:0.000106 21:-7.7999997e-05 22:-7.7999997e-05 23:-7.5999997e-05 24:0.00013099999 25:-7.8999998e-05 26:-7.5999997e-05 27:0.000179 28:2.1e-05 29:3.1e-05 30:9.9999997e-06 31:9.9999997e-06 32:0 33:0 34:0 35:0 36:0 37:0 38:0 39:0 40:0 41:0 42:0 43:0 44:0 #
-0.00040000000000000001916869440954372 1:6.0999999e-05 2:0.001867 3:1.4e-05 4:1.1e-05 5:2.4999999e-05 6:0 7:0 8:0 9:0 10:0 11:0 12:0 13:5.5e-05 14:0 15:-5.3e-05 16:0 17:-4.5000001e-05 18:-3.6000001e-05 19:-3.1e-05 20:7.0000001e-06 21:-2.9999999e-05 22:-2.9999999e-05 23:-3.1e-05 24:9.0000003e-06 25:-2.9999999e-05 26:-2.9999999e-05 27:5.5e-05 28:4.2e-05 29:0 30:0 31:0 32:0 33:0 34:0 35:0 36:0 37:0 38:0 39:0 40:0 41:0 42:0 43:0 44:0 #
-0.00040000000000000001916869440954372 1:0.00051899999 2:0.0040259999 3:5.7000001e-05 4:7.5999997e-05 5:7.5999997e-05 6:0 7:0 8:0 9:0 10:0 11:0 12:0 13:0.00049900002 14:0 15:-0.00028599999 16:1e-06 17:-0.000243 18:-0.000193 19:-0.00016900001 20:3.8999999e-05 21:-0.000161 22:-0.000162 23:-0.000165 24:4.8000002e-05 25:-0.000162 26:-0.000164 27:0.00049900002 28:0.000227 29:0 30:0 31:0 32:0 33:0 34:0 35:0 36:0 37:0 38:0 39:0 40:0 41:0 42:0.000505 43:0.000833 44:0.00075299997 #
-0.00040000000000000001916869440954372 1:0.000249 2:0.0034080001 3:9.5000003e-05 4:1.2e-05 5:4.8000002e-05 6:0 7:0 8:0 9:0 10:0 11:0 12:0 13:0.000224 14:0 15:-0.000142 16:4.9999999e-05 17:-0.00012 18:-0.000112 19:-0.000106 20:2.4999999e-05 21:-0.000101 22:-0.000102 23:-0.000104 24:2.9999999e-05 25:-0.000102 26:-0.000103 27:0.000224 28:0.000107 29:2.4000001e-05 30:0 31:0 32:0 33:0 34:0 35:0 36:0 37:0 38:0 39:0 40:0 41:0 42:0 43:0 44:0 #
-0.00040000000000000001916869440954372 1:5.3e-05 2:0.001608 3:2.6e-05 4:8e-06 5:9.9999997e-06 6:0 7:0 8:0 9:0 10:0 11:0 12:0 13:4.7000001e-05 14:0 15:-3.8999999e-05 16:0 17:-3.3e-05 18:-2.7e-05 19:-2.3000001e-05 20:4.9999999e-06 21:-2.2e-05 22:-2.2e-05 23:-2.3000001e-05 24:7.0000001e-06 25:-2.2e-05 26:-2.3000001e-05 27:4.7000001e-05 28:4.4e-05 29:0 30:0 31:0 32:0 33:0 34:0 35:0 36:0 37:0 38:0 39:0 40:0 41:0 42:0 43:0 44:0 #
-0.00040000000000000001916869440954372 1:0.000333 2:0.0042190002 3:3.7999998e-05 4:7.5999997e-05 5:5.7000001e-05 6:0 7:0 8:0 9:0 10:0 11:0 12:0 13:0.00030000001 14:0 15:-0.00028899999 16:1e-06 17:-0.00024600001 18:-0.000195 19:-0.00017 20:3.8999999e-05 21:-0.000162 22:-0.000164 23:-0.00016700001 24:4.8000002e-05 25:-0.000163 26:-0.000166 27:0.00030000001 28:3.7999998e-05 29:0 30:0 31:0 32:0 33:0 34:0 35:0 36:0 37:0 38:0 39:0 40:0 41:0 42:0.00033499999 43:0.00036599999 44:0.00062399998 #
-0.00040000000000000001916869440954372 1:0.00092399999 2:0.0062580002 3:8.7e-05 4:0.000174 5:0.00026100001 6:0 7:0 8:0 9:0 10:0 11:0 12:0 13:0.00088100001 14:0 15:-0.00034599999 16:0.00059700001 17:-0.000352 18:-0.00034599999 19:-0.00038799999 20:9.0000001e-05 21:-0.00036999999 22:-0.00037299999 23:-0.000336 24:0.00039900001 25:-0.000336 26:-0.000336 27:0.00088299997 28:0.000348 29:4.3e-05 30:4.3e-05 31:4.3e-05 32:0 33:0 34:0 35:0 36:0 37:0 38:0 39:0 40:0 41:0 42:0 43:0 44:0 #
-0.00040000000000000001916869440954372 1:0.0019700001 2:0.0080709998 3:9.5000003e-05 4:0.00019000001 5:0.00038000001 6:1e-06 7:0 8:0 9:0 10:0 11:0 12:0 13:0.001773 14:0 15:-0.001438 16:7.0000001e-06 17:-0.001222 18:-0.000971 19:-0.00084699999 20:0.00019599999 21:-0.00080799998 22:-0.00081499998 23:-0.00082999998 24:0.000241 25:-0.00081200001 26:-0.00082399999 27:0.001773 28:0.00095000002 29:0 30:0 31:9.5000003e-05 32:0 33:0 34:0 35:0 36:0 37:0 38:0 39:0 40:0 41:0 42:0.001989 43:0.001922 44:0.001495 #
-0.00040000000000000001916869440954372 1:0.00019599999 2:0.003297 3:6.7000001e-05 4:4.4e-05 5:4.4e-05 6:0 7:0 8:0 9:0 10:0 11:0 12:0 13:0.000176 14:0 15:-0.000168 16:1e-06 17:-0.000143 18:-0.000113 19:-9.8999997e-05 20:2.3000001e-05 21:-9.4000003e-05 22:-9.5000003e-05 23:-9.6999996e-05 24:2.8e-05 25:-9.5000003e-05 26:-9.6000003e-05 27:0.000176 28:6.7000001e-05 29:0 30:0 31:0 32:0 33:0 34:0 35:0 36:0 37:0 38:0 39:0 40:0 41:0 42:0 43:0 44:0 #
-0.00040000000000000001916869440954372 1:0.00031500001 2:0.003828 3:0.000106 4:9.1000002e-05 5:0.000122 6:0 7:0 8:0 9:0 10:0 11:0 12:0 13:0.00028400001 14:0 15:-0.00023000001 16:1e-06 17:-0.00019599999 18:-0.000155 19:-0.000136 20:3.1e-05 21:-0.00012899999 22:-0.00013 23:-0.00013299999 24:3.7999998e-05 25:-0.00013 26:-0.000132 27:0.00028400001 28:0.000137 29:0 30:0 31:0 32:0 33:0 34:0 35:0 36:0 37:0 38:0 39:0 40:0 41:0 42:0 43:0 44:0 #
-0.00040000000000000001916869440954372 1:0.000268 2:0.0037469999 3:1.5e-05 4:2.9999999e-05 5:5.9000002e-05 6:0 7:0 8:0 9:0 10:0 11:0 12:0 13:0.000241 14:0 15:-0.000223 16:1e-06 17:-0.00019000001 18:-0.000151 19:-0.000132 20:2.9999999e-05 21:-0.000126 22:-0.00012700001 23:-0.00012899999 24:3.7000002e-05 25:-0.000126 26:-0.000128 27:0.000241 28:0.00036899999 29:0 30:0 31:1.5e-05 32:0 33:0 34:0 35:0 36:0 37:0 38:0 39:0 40:0 41:0 42:0.00026100001 43:0.00025400001 44:0.000203 #
-0.00040000000000000001916869440954372 1:6.0999999e-05 2:0.001913 3:3.3e-05 4:3.3e-05 5:1.5e-05 6:0 7:0 8:0 9:0 10:0 11:0 12:0 13:5.5e-05 14:0 15:-5.6000001e-05 16:0 17:-4.7000001e-05 18:-3.7999998e-05 19:-3.3e-05 20:8e-06 21:-3.1e-05 22:-3.2e-05 23:-3.2e-05 24:9.0000003e-06 25:-3.2e-05 26:-3.2e-05 27:5.5e-05 28:3.3e-05 29:0 30:0 31:0 32:0 33:0 34:0 35:0 36:0 37:0 38:0 39:0 40:0 41:0 42:0 43:0 44:0 #
-0.00040000000000000001916869440954372 1:0.001757 2:0.0058780001 3:0 4:0.000111 5:0.000222 6:0 7:0 8:0 9:0 10:0 11:0 12:0 13:0.001581 14:0 15:-0.00083999999 16:4e-06 17:-0.00071400002 18:-0.00056700001 19:-0.00049499999 20:0.000114 21:-0.00047200001 22:-0.00047599999 23:-0.000485 24:0.00014 25:-0.000474 26:-0.000481 27:0.001581 28:0.00060999999 29:0 30:0 31:5.5e-05 32:0 33:0 34:0 35:0 36:0 37:0 38:0 39:0 40:0 41:0 42:0.001707 43:0.001799 44:0.00181 #
-0.00040000000000000001916869440954372 1:2.4999999e-05 2:0.001098 3:4e-06 4:4e-06 5:8e-06 6:0 7:0 8:0 9:0 10:0 11:0 12:0 13:2.2e-05 14:0 15:-9.9999997e-06 16:1.3e-05 17:-1.1e-05 18:-9.9999997e-06 19:-9.9999997e-06 20:9.9999997e-06 21:-9.9999997e-06 22:-9.9999997e-06 23:-9.9999997e-06 24:9.0000003e-06 25:-9.9999997e-06 26:-9.9999997e-06 27:2.2e-05 28:2.9999999e-05 29:1e-06 30:1e-06 31:0 32:0 33:0 34:0 35:0 36:0 37:0 38:0 39:0 40:0 41:0 42:0 43:0 44:0 #
-0.00040000000000000001916869440954372 1:0.0031979999 2:0.0088250004 3:0.002139 4:0.000267 5:0.00066899997 6:0 7:0 8:0 9:0 10:0 11:0 12:0 13:0.002878 14:0 15:-0.00088100001 16:0.0033730001 17:-0.00089700002 18:-0.000879 19:-0.001193 20:0.000275 21:-0.0011380001 22:-0.001148 23:-0.001056 24:0.001302 25:-0.001096 26:-0.001056 27:0.002878 28:0.000535 29:0.000802 30:0.000134 31:0.000134 32:0 33:1e-06 34:0 35:0 36:0 37:0 38:0 39:0 40:0 41:0 42:0 43:0 44:0 #
-0.00040000000000000001916869440954372 1:0.00021699999 2:0.003278 3:5.6000001e-05 4:3.3e-05 5:6.7000001e-05 6:0 7:0 8:0 9:0 10:0 11:0 12:0 13:0.000195 14:0 15:-0.000113 16:0.000143 17:-9.6000003e-05 18:-9.6999996e-05 19:-9.8999997e-05 20:2.3000001e-05 21:-9.5000003e-05 22:-9.6000003e-05 23:-9.1000002e-05 24:8.6e-05 25:-9.2000002e-05 26:-9.1000002e-05 27:0.000195 28:0.00019000001 29:1.1e-05 30:1.1e-05 31:0 32:0 33:0 34:0 35:0 36:0 37:0 38:0 39:0 40:0 41:0 42:0.00021499999 43:0.00022099999 44:0.000166 #
-0.00040000000000000001916869440954372 1:0.00063000002 2:0.0049390001 3:0.000166 4:0.000139 5:0.000139 6:0 7:0 8:0 9:0 10:0 11:0 12:0 13:0.00061599998 14:0 15:-0.000267 16:0.00031100001 17:-0.000241 18:-0.000244 19:-0.000223 20:0.00021 21:-0.000224 22:-0.000223 23:-0.000229 24:0.000195 25:-0.000229 26:-0.000229 27:0.00061599998 28:0.00058300002 29:5.5e-05 30:2.8e-05 31:2.8e-05 32:0 33:0 34:0 35:0 36:0 37:0 38:0 39:0 40:0 41:0 42:0.00063600001 43:0.00062599999 44:0.00056399999 #
-0.00040000000000000001916869440954372 1:7.6999997e-05 2:0.0020039999 3:2.8e-05 4:1.2e-05 5:2.4000001e-05 6:0 7:0 8:0 9:0 10:0 11:0 12:0 13:6.9000002e-05 14:0 15:-6.1999999e-05 16:0 17:-5.1999999e-05 18:-4.2e-05 19:-3.6000001e-05 20:8e-06 21:-3.5000001e-05 22:-3.5000001e-05 23:-3.6000001e-05 24:9.9999997e-06 25:-3.5000001e-05 26:-3.5000001e-05 27:6.9000002e-05 28:4.8999998e-05 29:0 30:0 31:0 32:0 33:0 34:0 35:0 36:0 37:0 38:0 39:0 40:0 41:0 42:7.6999997e-05 43:7.5000004e-05 44:4.8999998e-05 #
-0.00040000000000000001916869440954372 1:0.0010010001 2:0.0058619999 3:0.00025300001 4:0.00021100001 5:0.00021100001 6:0 7:0 8:0 9:0 10:0 11:0 12:0 13:0.00089999998 14:0 15:-0.000325 16:0.00073000003 17:-0.00030700001 18:-0.00030000001 19:-0.00025899999 20:0.00056900003 21:-0.00027700001 22:-0.00025899999 23:-0.00025499999 24:0.00068300002 25:-0.00028199999 26:-0.00025499999 27:0.00089999998 28:0.00046400001 29:8.3999999e-05 30:8.3999999e-05 31:4.2e-05 32:0 33:0 34:0 35:0 36:0 37:0 38:0 39:0 40:0 41:0 42:0.00098999997 43:0.000994 44:0.00089700002 #
-0.00040000000000000001916869440954372 1:0.000176 2:0.0029539999 3:1.8000001e-05 4:7.9999998e-05 5:5.3e-05 6:0 7:0 8:0 9:0 10:0 11:0 12:0 13:0.000158 14:0 15:-0.00013499999 16:1e-06 17:-0.000115 18:-9.1000002e-05 19:-6.9000002e-05 20:6.6000001e-05 21:-6.8000001e-05 22:-6.9000002e-05 23:-7.1000002e-05 24:5.6000001e-05 25:-7.0000002e-05 26:-7.1000002e-05 27:0.000158 28:7.1000002e-05 29:0 30:9.0000003e-06 31:0 32:0 33:0 34:0 35:0 36:0 37:0 38:0 39:0 40:0 41:0 42:0 43:0 44:0 #
-0.00040000000000000001916869440954372 1:0.00030799999 2:0.004102 3:0.000195 4:7.1000002e-05 5:7.1000002e-05 6:0 7:0 8:0 9:0 10:0 11:0 12:0 13:0.00029500001 14:0 15:-0.000162 16:0.00021300001 17:-0.00015199999 18:-0.000155 19:-0.00014600001 20:9.9999997e-05 21:-0.00014400001 22:-0.00014600001 23:-0.000147 24:0.000114 25:-0.000147 26:-0.000147 27:0.00029500001 28:0.000178 29:5.3e-05 30:1.8000001e-05 31:0 32:0 33:0 34:0 35:0 36:0 37:0 38:0 39:0 40:0 41:0 42:0.00030000001 43:0.00031999999 44:0.000344 #
-0.00040000000000000001916869440954372 1:0.0027350001 2:0.0055220001 3:0.000208 4:0.000208 5:0.00052100001 6:3.0000001e-06 7:0 8:0 9:0 10:0 11:0 12:0 13:0.0024610001 14:0 15:-0.00029200001 16:0.0040509999 17:-0.00047500001 18:-0.00029200001 19:-0.00092999998 20:0.00021499999 21:-0.000887 22:-0.000894 23:-0.00091100001 24:0.000264 25:-0.00089099997 26:-0.00090400001 27:0.0024610001 28:0.00072900002 29:0.000208 30:0 31:0.000104 32:0 33:0 34:0 35:0 36:0 37:1e-06 38:0 39:0 40:0 41:0 42:0.0027379999 43:0.003368 44:0.0035349999 #
-0.00040000000000000001916869440954372 1:0.001023 2:0.00642 3:0.00032299999 4:0.00027700001 5:0.00036899999 6:0 7:0 8:0 9:0 10:0 11:0 12:0 13:0.00092100003 14:0 15:-0.000382 16:0.00055 17:-0.000379 18:-0.000382 19:-0.00035700001 20:0.00036999999 21:-0.000355 22:-0.00035700001 23:-0.00036100001 24:0.00035700001 25:-0.000359 26:-0.00036100001 27:0.00092100003 28:0.00036899999 29:4.6000001e-05 30:4.6000001e-05 31:0 32:0 33:0 34:0 35:0 36:0 37:0 38:0 39:0 40:0 41:0 42:0 43:0 44:0 #
-0.00040000000000000001916869440954372 1:0.000226 2:0.0032619999 3:0.00025300001 4:8.8000001e-05 5:7.6999997e-05 6:0 7:0 8:0 9:0 10:0 11:0 12:0 13:0.00020900001 14:0 15:-0.000166 16:1e-06 17:-0.000141 18:-0.000112 19:-9.7999997e-05 20:2.3000001e-05 21:-9.3000002e-05 22:-9.4000003e-05 23:-9.6000003e-05 24:2.8e-05 25:-9.4000003e-05 26:-9.5000003e-05 27:0.00020900001 28:0.00011 29:0 30:0 31:0 32:0 33:0 34:0 35:0 36:0 37:0 38:0 39:0 40:0 41:0 42:0 43:0 44:0 #
-0.00040000000000000001916869440954372 1:0.002564 2:0.0086479997 3:0.00025099999 4:0.00025099999 5:0.00050099997 6:2e-06 7:0 8:0 9:0 10:0 11:0 12:0 13:0.0023080001 14:0 15:-0.001898 16:9.0000003e-06 17:-0.0016129999 18:-0.001281 19:-0.001118 20:0.00025799999 21:-0.001066 22:-0.001076 23:-0.001096 24:0.00031800001 25:-0.001072 26:-0.001088 27:0.0023080001 28:0.000627 29:0 30:0 31:0.00012500001 32:0 33:0 34:0 35:0 36:0 37:0 38:0 39:0 40:0 41:0 42:0.002749 43:0.0025160001 44:0.001886 #
-0.00040000000000000001916869440954372 1:0.0025559999 2:0.010371 3:0.00058400002 4:0.00014600001 5:0.00073000003 6:0 7:0 8:0 9:0 10:0 11:0 12:0 13:0.0023010001 14:0 15:-0.0022120001 16:1.1e-05 17:-0.00188 18:-0.001493 19:-0.001303 20:0.00030099999 21:-0.001243 22:-0.001254 23:-0.0012769999 24:0.00036999999 25:-0.001249 26:-0.001267 27:0.0023010001 28:0 29:0 30:0 31:0 32:0 33:0 34:0 35:0 36:0 37:0 38:0 39:0 40:0 41:0 42:0 43:0 44:0 #
-0.00040000000000000001916869440954372 1:0.00036500001 2:0.0043429998 3:0.000223 4:0.000101 5:0.000122 6:1e-06 7:0 8:0 9:0 10:0 11:0 12:0 13:0.00036500001 14:0 15:-0.000199 16:0.000264 17:-0.000174 18:-0.000176 19:-0.000163 20:0.00015399999 21:-0.000163 22:-0.000163 23:-0.000168 24:0.00013 25:-0.000168 26:-0.000168 27:0.00036500001 28:0.00042600001 29:6.0999999e-05 30:1.9999999e-05 31:1.9999999e-05 32:0 33:0 34:0 35:0 36:0 37:0 38:0 39:0 40:0 41:0 42:0.00036599999 43:0.000371 44:0.000351 #
-0.00040000000000000001916869440954372 1:0.000116 2:0.0024019999 3:0 4:1.2e-05 5:4.0999999e-05 6:0 7:0 8:0 9:0 10:0 11:0 12:0 13:0.000104 14:0 15:-8.9000001e-05 16:0 17:-7.5000004e-05 18:-5.9999998e-05 19:-4.4e-05 20:5.9999998e-05 21:-4.5000001e-05 22:-4.4e-05 23:-4.5000001e-05 24:5.9000002e-05 25:-4.5000001e-05 26:-4.5000001e-05 27:0.000104 28:2.9000001e-05 29:0 30:6.0000002e-06 31:0 32:0 33:0 34:0 35:0 36:0 37:0 38:0 39:0 40:0 41:0 42:0 43:0 44:0 #
-0.00040000000000000001916869440954372 1:5.1999999e-05 2:0.001755 3:2.8e-05 4:2.2e-05 5:1.2e-05 6:0 7:0 8:0 9:0 10:0 11:0 12:0 13:4.7000001e-05 14:0 15:-4.7000001e-05 16:0 17:-3.9999999e-05 18:-3.2e-05 19:-2.8e-05 20:6.0000002e-06 21:-2.6e-05 22:-2.7e-05 23:-2.6e-05 24:1.7e-05 25:-2.6e-05 26:-2.6e-05 27:4.7000001e-05 28:5.3e-05 29:0 30:3.0000001e-06 31:0 32:0 33:0 34:0 35:0 36:0 37:0 38:0 39:0 40:0 41:0 42:0 43:0 44:0 #
-0.00040000000000000001916869440954372 1:0.00045200001 2:0.0050860001 3:0.000218 4:0.000136 5:0.000109 6:0 7:0 8:0 9:0 10:0 11:0 12:0 13:0.00040700001 14:0 15:-0.00041199999 16:2e-06 17:-0.00034999999 18:-0.00027799999 19:-0.000243 20:5.6000001e-05 21:-0.000231 22:-0.000233 23:-0.00023799999 24:6.9000002e-05 25:-0.000233 26:-0.00023600001 27:0.00040700001 28:8.1999999e-05 29:0 30:0 31:0 32:0 33:0 34:0 35:0 36:0 37:0 38:0 39:0 40:0 41:0 42:0 43:0 44:0 #
-0.00040000000000000001916869440954372 1:0.0075659999 2:0.0098310001 3:0 4:0 5:0.002137 6:0 7:0 8:0 9:0 10:0 11:0 12:0 13:0.0068089999 14:0 15:-0.0064730002 16:3.2e-05 17:-0.005502 18:-0.0043700002 19:-0.0038139999 20:0.00088000001 21:-0.003637 22:-0.003669 23:-0.0037370001 24:0.001083 25:-0.0036569999 26:-0.0037090001 27:0.0068089999 28:0.00085499999 29:0 30:0 31:0 32:0 33:0 34:0 35:0 36:0 37:0 38:0 39:0 40:0 41:0 42:0 43:0 44:0 #
-0.00040000000000000001916869440954372 1:0.00067400001 2:0.0059039998 3:7.5000004e-05 4:0.00018800001 5:0.00015000001 6:0 7:0 8:0 9:0 10:0 11:0 12:0 13:0.00060600002 14:0 15:-0.00056900003 16:3.0000001e-06 17:-0.00048399999 18:-0.00038400001 19:-0.000336 20:7.6999997e-05 21:-0.00031999999 22:-0.00032299999 23:-0.00031199999 24:0.000241 25:-0.00031100001 26:-0.00031199999 27:0.00060600002 28:0.00033800001 29:0 30:3.7999998e-05 31:0 32:0 33:0 34:0 35:0 36:0 37:0 38:0 39:0 40:0 41:0 42:0 43:0 44:0 #
-0.00040000000000000001916869440954372 1:0.00049000001 2:0.0043680002 3:0.000105 4:0.000168 5:0.000147 6:0 7:0 8:0 9:0 10:0 11:0 12:0 13:0.00044100001 14:0 15:-0.00031800001 16:2e-06 17:-0.00026999999 18:-0.00021499999 19:-0.000187 20:4.3e-05 21:-0.000179 22:-0.00018 23:-0.00017699999 24:0.000107 25:-0.00017499999 26:-0.00017699999 27:0.00044100001 28:0.000378 29:0 30:2.1e-05 31:2.1e-05 32:0 33:0 34:0 35:0 36:0 37:0 38:0 39:0 40:0 41:0 42:0.00048799999 43:0.00048300001 44:0.00043399999 #
-0.00040000000000000001916869440954372 1:0.00063000002 2:0.0047940002 3:4.9999999e-05 4:0.00027799999 5:0.00017699999 6:0 7:0 8:0 9:0 10:0 11:0 12:0 13:0.00060199999 14:0 15:-0.000382 16:2e-06 17:-0.000325 18:-0.00025799999 19:-0.000204 20:0.000176 21:-0.000204 22:-0.000204 23:-0.00021499999 24:0.000101 25:-0.000212 26:-0.00021499999 27:0.00060199999 28:0.00063099997 29:0 30:2.4999999e-05 31:0 32:0 33:0 34:0 35:0 36:0 37:0 38:0 39:0 40:0 41:0 42:0 43:0 44:0 #
-0.00040000000000000001916869440954372 1:0.000121 2:0.002452 3:6.7000001e-05 4:1.8000001e-05 5:4.8999998e-05 6:0 7:0 8:0 9:0 10:0 11:0 12:0 13:0.000109 14:0 15:-9.2000002e-05 16:0 17:-7.8999998e-05 18:-6.1999999e-05 19:-5.4e-05 20:1.3e-05 21:-5.1999999e-05 22:-5.1999999e-05 23:-5.3e-05 24:1.5e-05 25:-5.1999999e-05 26:-5.3e-05 27:0.000109 28:7.8999998e-05 29:0 30:0 31:0 32:0 33:0 34:0 35:0 36:0 37:0 38:0 39:0 40:0 41:0 42:0 43:0 44:0 #
-0.00040000000000000001916869440954372 1:0.00063299999 2:0.0056030001 3:0.00026999999 4:0.00023600001 5:0.00026999999 6:0 7:0 8:0 9:0 10:0 11:0 12:0 13:0.00056999997 14:0 15:-0.00051099999 16:3.0000001e-06 17:-0.00043399999 18:-0.00034500001 19:-0.00030099999 20:7.0000002e-05 21:-0.000287 22:-0.00029 23:-0.00029500001 24:8.6e-05 25:-0.00028899999 26:-0.00029299999 27:0.00056999997 28:0.000101 29:0 30:0 31:0 32:0 33:0 34:0 35:0 36:0 37:0 38:0 39:0 40:0 41:0 42:0 43:0 44:0 #
-0.00040000000000000001916869440954372 1:0 2:0.000138 3:0 4:0 5:0 6:0 7:0 8:0 9:0 10:0 11:0 12:0 13:0 14:0 15:-0 16:0 17:-0 18:-0 19:-0 20:0 21:-0 22:-0 23:-0 24:0 25:-0 26:-0 27:0 28:8e-06 29:0 30:0 31:0 32:0 33:0 34:0 35:0 36:0 37:0 38:0 39:0 40:0 41:0 42:0 43:0 44:0 #
-0.00040000000000000001916869440954372 1:0.0034700001 2:0.010055 3:0 4:0.00062800001 5:0.001257 6:0 7:0 8:0 9:0 10:0 11:0 12:0 13:0.003584 14:0 15:-0.0031719999 16:1.6e-05 17:-0.002696 18:-0.002141 19:-0.001869 20:0.00043099999 21:-0.0017819999 22:-0.001798 23:-0.001831 24:0.00053100003 25:-0.001792 26:-0.001818 27:0.003584 28:0.00020900001 29:0 30:0 31:0.00020900001 32:0 33:0 34:0 35:0 36:0 37:0 38:0 39:0 40:0 41:0 42:0.003332 43:0.00327 44:0.0021520001 #
-0.00040000000000000001916869440954372 1:0.00049599999 2:0.0049330001 3:5.0999999e-05 4:0.000206 5:0.000128 6:0 7:0 8:0 9:0 10:0 11:0 12:0 13:0.00044599999 14:0 15:-0.00038899999 16:2e-06 17:-0.00033099999 18:-0.00026299999 19:-0.000229 20:5.3e-05 21:-0.00021899999 22:-0.00022099999 23:-0.000225 24:6.5e-05 25:-0.00022 26:-0.000223 27:0.00044599999 28:0.000128 29:0 30:0 31:0 32:0 33:0 34:0 35:0 36:0 37:0 38:0 39:0 40:0 41:0 42:0 43:0 44:0 #
-0.00040000000000000001916869440954372 1:0.0075019998 2:0.0080289999 3:0 4:0.0022479999 5:0.001927 6:0 7:0 8:0 9:0 10:0 11:0 12:0 13:0.0067520002 14:0 15:-0.004863 16:2.4000001e-05 17:-0.0041339998 18:-0.0032830001 19:-0.0028659999 20:0.00066199998 21:-0.0027330001 22:-0.002757 23:-0.002692 24:0.001761 25:-0.0026680001 26:-0.002692 27:0.0067520002 28:0.000642 29:0 30:0.000321 31:0 32:0 33:0 34:0 35:0 36:0 37:0 38:0 39:0 40:0 41:0 42:0 43:0 44:0 #
-0.00040000000000000001916869440954372 1:0.001303 2:0.0077030002 3:0.000138 4:0.000481 5:0.000344 6:0 7:0 8:0 9:0 10:0 11:0 12:0 13:0.001173 14:0 15:-0.001041 16:4.9999999e-06 17:-0.00088499999 18:-0.000703 19:-0.00061400002 20:0.000142 21:-0.00058499997 22:-0.00059000001 23:-0.00060099998 24:0.000174 25:-0.000588 26:-0.00059700001 27:0.001173 28:0.000275 29:0 30:0 31:0 32:0 33:0 34:0 35:0 36:0 37:0 38:0 39:0 40:0 41:0 42:0 43:0 44:0 #
-0.00040000000000000001916869440954372 1:0.00037699999 2:0.0045989999 3:0 4:2.2e-05 5:6.6000001e-05 6:0 7:0 8:0 9:0 10:0 11:0 12:0 13:0.00034 14:0 15:-0.000333 16:2e-06 17:-0.000283 18:-0.000225 19:-0.00019599999 20:4.5000001e-05 21:-0.000187 22:-0.000189 23:-0.00019200001 24:5.6000001e-05 25:-0.00018800001 26:-0.000191 27:0.00034 28:0.00011 29:0 30:0 31:0 32:0 33:0 34:0 35:0 36:0 37:0 38:0 39:0 40:0 41:0 42:0 43:0 44:0 #
-0.00040000000000000001916869440954372 1:6.4e-05 2:0.0019700001 3:1.9999999e-05 4:8e-06 5:1.2e-05 6:0 7:0 8:0 9:0 10:0 11:0 12:0 13:5.8000001e-05 14:0 15:-5.9000002e-05 16:0 17:-4.9999999e-05 18:-3.9999999e-05 19:-3.5000001e-05 20:8e-06 21:-3.3e-05 22:-3.4000001e-05 23:-3.4000001e-05 24:9.9999997e-06 25:-3.3e-05 26:-3.4000001e-05 27:5.8000001e-05 28:3.1e-05 29:0 30:0 31:0 32:0 33:0 34:0 35:0 36:0 37:0 38:0 39:0 40:0 41:0 42:0 43:0 44:0 #
-0.00040000000000000001916869440954372 1:0.0038940001 2:0.011089 3:0.000205 4:0.00061599998 5:0.001027 6:0 7:0 8:0 9:0 10:0 11:0 12:0 13:0.0035039999 14:0 15:-0.0031099999 16:1.5e-05 17:-0.0026430001 18:-0.0020989999 19:-0.001832 20:0.00042299999 21:-0.001747 22:-0.001763 23:-0.001795 24:0.00052 25:-0.001757 26:-0.0017819999 27:0.0035039999 28:0.00082100002 29:0 30:0 31:0 32:0 33:0 34:0 35:0 36:0 37:0 38:0 39:0 40:0 41:0 42:0 43:0 44:0 #
-0.00040000000000000001916869440954372 1:0.00036999999 2:0.0037710001 3:0.00034599999 4:0.000165 5:7.5000004e-05 6:0 7:0 8:0 9:0 10:0 11:0 12:0 13:0.000333 14:0 15:-0.000111 16:0.00024600001 17:-0.000109 18:-0.000109 19:-0.000134 20:3.1e-05 21:-0.000128 22:-0.00012899999 23:-0.00013099999 24:3.7999998e-05 25:-0.00012899999 26:-0.00013 27:0.000333 28:0.00030000001 29:4.5000001e-05 30:0 31:0 32:0 33:0 34:0 35:0 36:0 37:0 38:0 39:0 40:0 41:0 42:0 43:0 44:0 #
-0.00040000000000000001916869440954372 1:3.0000001e-06 2:0.000432 3:1e-06 4:1e-06 5:1e-06 6:0 7:0 8:0 9:0 10:0 11:0 12:0 13:3.0000001e-06 14:0 15:-2e-06 16:2e-06 17:-2e-06 18:-2e-06 19:-2e-06 20:1e-06 21:-2e-06 22:-2e-06 23:-2e-06 24:1e-06 25:-2e-06 26:-2e-06 27:3.0000001e-06 28:3.4000001e-05 29:0 30:0 31:0 32:0 33:0 34:0 35:0 36:0 37:0 38:0 39:0 40:0 41:0 42:0 43:0 44:0 #
-0.00040000000000000001916869440954372 1:0.000375 2:0.004683 3:2.3000001e-05 4:9.1000002e-05 5:9.1000002e-05 6:0 7:0 8:0 9:0 10:0 11:0 12:0 13:0.000337 14:0 15:-0.00034599999 16:2e-06 17:-0.000294 18:-0.00023400001 19:-0.000204 20:4.7000001e-05 21:-0.00019399999 22:-0.00019599999 23:-0.00019999999 24:5.8000001e-05 25:-0.000195 26:-0.00019799999 27:0.000337 28:0.00016 29:0 30:0 31:0 32:0 33:0 34:0 35:0 36:0 37:0 38:0 39:0 40:0 41:0 42:0 43:0 44:0 #
-0.00040000000000000001916869440954372 1:1.6e-05 2:0.00096400001 3:2.3000001e-05 4:7.0000001e-06 5:4.9999999e-06 6:0 7:0 8:0 9:0 10:0 11:0 12:0 13:1.5e-05 14:0 15:-9.9999997e-06 16:9.0000003e-06 17:-9.0000003e-06 18:-8e-06 19:-8e-06 20:7.0000001e-06 21:-8e-06 22:-8e-06 23:-8e-06 24:4.9999999e-06 25:-8e-06 26:-8e-06 27:1.5e-05 28:4.6000001e-05 29:6.0000002e-06 30:1e-06 31:0 32:0 33:0 34:0 35:0 36:0 37:0 38:0 39:0 40:0 41:0 42:0 43:0 44:0 #
-0.00040000000000000001916869440954372 1:0.00021100001 2:0.0032510001 3:4.3e-05 4:4.3e-05 5:5.4e-05 6:0 7:0 8:0 9:0 10:0 11:0 12:0 13:0.00019000001 14:0 15:-8.9000001e-05 16:0.000136 17:-8.8000001e-05 18:-8.9000001e-05 19:-8.2999999e-05 20:9.4000003e-05 21:-8.2999999e-05 22:-8.2999999e-05 23:-8.3999999e-05 24:9.1000002e-05 25:-8.3999999e-05 26:-8.3999999e-05 27:0.00019000001 28:0.000206 29:1.1e-05 30:1.1e-05 31:0 32:0 33:0 34:0 35:0 36:0 37:0 38:0 39:0 40:0 41:0 42:0 43:0 44:0 #
-0.00040000000000000001916869440954372 1:3.3e-05 2:0.001302 3:4.8999998e-05 4:1.2e-05 5:7.0000001e-06 6:0 7:0 8:0 9:0 10:0 11:0 12:0 13:2.9000001e-05 14:0 15:-2.6e-05 16:0 17:-2.2e-05 18:-1.7e-05 19:-1.5e-05 20:4e-06 21:-1.5e-05 22:-1.5e-05 23:-1.5e-05 24:4e-06 25:-1.5e-05 26:-1.5e-05 27:2.9000001e-05 28:1.7e-05 29:0 30:0 31:0 32:0 33:0 34:0 35:0 36:0 37:0 38:0 39:0 40:0 41:0 42:3.1e-05 43:3.4000001e-05 44:2.1e-05 #
-0.00040000000000000001916869440954372 1:0.001044 2:0.0069789998 3:0.000111 4:0.000222 5:0.000332 6:0 7:0 8:0 9:0 10:0 11:0 12:0 13:0.00097699999 14:0 15:-0.00083899999 16:4e-06 17:-0.00071300002 18:-0.000566 19:-0.00045200001 20:0.00041499999 21:-0.000443 22:-0.00044900001 23:-0.00046000001 24:0.000356 25:-0.00045799999 26:-0.00046000001 27:0.00097699999 28:0.000665 29:0 30:5.5e-05 31:0 32:0 33:0 34:0 35:0 36:0 37:0 38:0 39:0 40:0 41:0 42:0 43:0 44:0 #
-0.00040000000000000001916869440954372 1:2.9000001e-05 2:0.001325 3:1.6e-05 4:1.1e-05 5:1.1e-05 6:0 7:0 8:0 9:0 10:0 11:0 12:0 13:2.7e-05 14:0 15:-2.7e-05 16:0 17:-2.3000001e-05 18:-1.8000001e-05 19:-1.4e-05 20:1.1e-05 21:-1.4e-05 22:-1.4e-05 23:-1.5e-05 24:4e-06 25:-1.5e-05 26:-1.5e-05 27:2.7e-05 28:5.9999998e-05 29:0 30:0 31:0 32:0 33:0 34:0 35:0 36:0 37:0 38:0 39:0 40:0 41:0 42:2.8e-05 43:2.9000001e-05 44:2.1e-05 #
-0.00040000000000000001916869440954372 1:3.8999999e-05 2:0.001301 3:4.9999999e-06 4:7.0000001e-06 5:4.9999999e-06 6:0 7:0 8:0 9:0 10:0 11:0 12:0 13:3.5000001e-05 14:0 15:-2.6e-05 16:0 17:-2.2e-05 18:-1.7e-05 19:-1.5e-05 20:4e-06 21:-1.4e-05 22:-1.5e-05 23:-1.5e-05 24:4e-06 25:-1.5e-05 26:-1.5e-05 27:3.5000001e-05 28:6.2999999e-05 29:0 30:0 31:0 32:0 33:0 34:0 35:0 36:0 37:0 38:0 39:0 40:0 41:0 42:0 43:0 44:0 #
-0.00040000000000000001916869440954372 1:0.00066700001 2:0.0057560001 3:0.00026 4:0.000186 5:0.000186 6:2e-06 7:0 8:0 9:0 10:0 11:0 12:0 13:0.00060000003 14:0 15:-0.00056199997 16:3.0000001e-06 17:-0.000478 18:-0.00038000001 19:-0.00033099999 20:7.5999997e-05 21:-0.00031599999 22:-0.00031900001 23:-0.000325 24:9.4000003e-05 25:-0.00031800001 26:-0.00032200001 27:0.00060000003 28:0.000371 29:0 30:0 31:0 32:0 33:0 34:0 35:0 36:0 37:0 38:0 39:0 40:0 41:0 42:0.00076199998 43:0.00064699998 44:0.00049100001 #
-0.00040000000000000001916869440954372 1:0.00032799999 2:0.00382 3:7.5999997e-05 4:4.5000001e-05 5:7.5999997e-05 6:0 7:0 8:0 9:0 10:0 11:0 12:0 13:0.00029500001 14:0 15:-0.000122 16:0.00023000001 17:-0.000121 18:-0.000121 19:-0.000115 20:0.00015599999 21:-0.000116 22:-0.000115 23:-0.000116 24:0.000153 25:-0.000117 26:-0.000116 27:0.00029500001 28:0.000212 29:2.9999999e-05 30:1.5e-05 31:1.5e-05 32:0 33:0 34:0 35:0 36:0 37:0 38:0 39:0 40:0 41:0 42:0 43:0 44:0 #
-0.00040000000000000001916869440954372 1:0.001037 2:0.0054139998 3:7.2000003e-05 4:0.000108 5:0.00018 6:0 7:0 8:0 9:0 10:0 11:0 12:0 13:0.000933 14:0 15:-0.00054699997 16:3.0000001e-06 17:-0.00046499999 18:-0.00036899999 19:-0.00032200001 20:7.4000003e-05 21:-0.00030700001 22:-0.00031 23:-0.00031599999 24:9.1000002e-05 25:-0.000309 26:-0.000313 27:0.000933 28:0.00028899999 29:0 30:0 31:0 32:0 33:0 34:0 35:0 36:0 37:0 38:0 39:0 40:0 41:0 42:0.0010019999 43:0.0010310001 44:0.00071599998 #
-0.00040000000000000001916869440954372 1:0.002482 2:0.0081390003 3:0.00089199998 4:0.00066899997 5:0.00044599999 6:1e-06 7:0 8:0 9:0 10:0 11:0 12:0 13:0.002234 14:0 15:-0.001167 16:0.001421 17:-0.00097200001 18:-0.000971 19:-0.00089700002 20:0.00084499997 21:-0.00089800003 22:-0.00089700002 23:-0.000925 24:0.00071599998 25:-0.00092199998 26:-0.000925 27:0.002234 28:0.00066899997 29:0.000223 30:0.000111 31:0 32:0 33:0 34:0 35:0 36:0 37:0 38:0 39:0 40:0 41:0 42:0.00244 43:0.0024349999 44:0.001951 #
-0.00040000000000000001916869440954372 1:0.00084699999 2:0.006085 3:0.00017299999 4:0.000216 5:0.00017299999 6:0 7:0 8:0 9:0 10:0 11:0 12:0 13:0.00076199998 14:0 15:-0.000398 16:0.00043399999 17:-0.000359 18:-0.00036400001 19:-0.00038499999 20:8.9000001e-05 21:-0.000367 22:-0.00036999999 23:-0.00026599999 24:0.00063899998 25:-0.00029 26:-0.00026599999 27:0.00076199998 28:4.3e-05 29:4.3e-05 30:8.6e-05 31:4.3e-05 32:0 33:0 34:0 35:0 36:0 37:0 38:0 39:0 40:0 41:0 42:0.00082800002 43:0.00097200001 44:0.00091 #
-0.00040000000000000001916869440954372 1:1e-06 2:0.000202 3:0 4:0 5:0 6:0 7:0 8:0 9:0 10:0 11:0 12:0 13:1e-06 14:0 15:-1e-06 16:0 17:-1e-06 18:-0 19:-0 20:0 21:-0 22:-0 23:-0 24:0 25:-0 26:-0 27:1e-06 28:2e-06 29:0 30:0 31:0 32:0 33:0 34:0 35:0 36:0 37:0 38:0 39:0 40:0 41:0 42:0 43:0 44:0 #
-0.00040000000000000001916869440954372 1:0.00032299999 2:0.0042790002 3:3.7999998e-05 4:9.5000003e-05 5:7.5999997e-05 6:0 7:0 8:0 9:0 10:0 11:0 12:0 13:0.00031 14:0 15:-0.00028800001 16:1e-06 17:-0.000245 18:-0.00019399999 19:-0.00017 20:3.8999999e-05 21:-0.000162 22:-0.000163 23:-0.000158 24:0.000122 25:-0.000157 26:-0.000158 27:0.00031 28:0.00020900001 29:0 30:1.8999999e-05 31:0 32:0 33:0 34:0 35:0 36:0 37:0 38:0 39:0 40:0 41:0 42:0 43:0 44:0 #
-0.00040000000000000001916869440954372 1:0.00028400001 2:0.0036530001 3:9.6000003e-05 4:5.5e-05 5:8.2999999e-05 6:0 7:0 8:0 9:0 10:0 11:0 12:0 13:0.00025499999 14:0 15:-0.00020900001 16:1e-06 17:-0.00017699999 18:-0.000141 19:-0.00012300001 20:2.8e-05 21:-0.000117 22:-0.000118 23:-0.000121 24:3.5000001e-05 25:-0.000118 26:-0.00012 27:0.00025499999 28:0.000165 29:0 30:0 31:0 32:0 33:0 34:0 35:0 36:0 37:0 38:0 39:0 40:0 41:0 42:0 43:0 44:0 #
-0.00040000000000000001916869440954372 1:0.000116 2:0.0025299999 3:1.3e-05 4:3.2e-05 5:2.6e-05 6:0 7:0 8:0 9:0 10:0 11:0 12:0 13:0.000104 14:0 15:-9.7999997e-05 16:0 17:-8.2999999e-05 18:-6.6000001e-05 19:-5.8000001e-05 20:1.3e-05 21:-5.5e-05 22:-5.6000001e-05 23:-5.4e-05 24:4.2e-05 25:-5.4e-05 26:-5.4e-05 27:0.000104 28:9.1000002e-05 29:0 30:6.0000002e-06 31:0 32:0 33:0 34:0 35:0 36:0 37:0 38:0 39:0 40:0 41:0 42:0 43:0 44:0 #
-0.00040000000000000001916869440954372 1:0.001717 2:0.0084960004 3:0.000619 4:0.00053100003 5:0.00053100003 6:0 7:0 8:0 9:0 10:0 11:0 12:0 13:0.001545 14:0 15:-0.00134 16:7.0000001e-06 17:-0.0011390001 18:-0.00090500002 19:-0.00079000002 20:0.000182 21:-0.00075299997 22:-0.00076000002 23:-0.00077400001 24:0.000224 25:-0.000757 26:-0.00076800003 27:0.001545 28:0.00035399999 29:0 30:0 31:0 32:0 33:0 34:0 35:0 36:0 37:0 38:0 39:0 40:0 41:0 42:0 43:0 44:0 #
-0.00040000000000000001916869440954372 1:6.4e-05 2:0.001912 3:4.0999999e-05 4:1.5e-05 5:1.1e-05 6:0 7:0 8:0 9:0 10:0 11:0 12:0 13:6.0999999e-05 14:0 15:-5.6000001e-05 16:0 17:-4.7000001e-05 18:-3.7999998e-05 19:-3.3e-05 20:8e-06 21:-3.1e-05 22:-3.2e-05 23:-3.2e-05 24:9.0000003e-06 25:-3.2e-05 26:-3.2e-05 27:6.0999999e-05 28:3.3e-05 29:0 30:0 31:0 32:0 33:0 34:0 35:0 36:0 37:0 38:0 39:0 40:0 41:0 42:0 43:0 44:0 #
-0.00040000000000000001916869440954372 1:8.6e-05 2:0.0022460001 3:2.4999999e-05 4:2.4999999e-05 5:3.6000001e-05 6:0 7:0 8:0 9:0 10:0 11:0 12:0 13:7.6999997e-05 14:0 15:-7.6999997e-05 16:0 17:-6.6000001e-05 18:-5.1999999e-05 19:-4.5000001e-05 20:9.9999997e-06 21:-4.3e-05 22:-4.4e-05 23:-4.5000001e-05 24:1.3e-05 25:-4.4e-05 26:-4.4e-05 27:7.6999997e-05 28:3.6000001e-05 29:0 30:0 31:0 32:0 33:0 34:0 35:0 36:0 37:0 38:0 39:0 40:0 41:0 42:0 43:0 44:0 #
-0.00040000000000000001916869440954372 1:0.005258 2:0.0081449999 3:0.001358 4:0.00067899999 5:0.001358 6:0 7:0 8:0 9:0 10:0 11:0 12:0 13:0.0047320002 14:0 15:-0.001587 16:0.006453 17:-0.001457 18:-0.0014449999 19:-0.002019 20:0.000466 21:-0.001925 22:-0.001942 23:-0.0013379999 24:0.0040389998 25:-0.001511 26:-0.0013379999 27:0.0047320002 28:0 29:0.00090500002 30:0.00045299999 31:0 32:0 33:1e-06 34:0 35:0 36:0 37:0 38:0 39:0 40:0 41:0 42:0 43:0 44:0 #
-0.00040000000000000001916869440954372 1:7.5000004e-05 2:0.001893 3:1.1e-05 4:1.8000001e-05 5:1.1e-05 6:0 7:0 8:0 9:0 10:0 11:0 12:0 13:6.8000001e-05 14:0 15:-5.5e-05 16:0 17:-4.6000001e-05 18:-3.7000002e-05 19:-3.2e-05 20:7.0000001e-06 21:-3.1e-05 22:-3.1e-05 23:-3.2e-05 24:9.0000003e-06 25:-3.1e-05 26:-3.1e-05 27:6.8000001e-05 28:4.3e-05 29:0 30:0 31:0 32:0 33:0 34:0 35:0 36:0 37:0 38:0 39:0 40:0 41:0 42:0 43:0 44:0 #
-0.00040000000000000001916869440954372 1:0.000226 2:0.0032939999 3:5.6000001e-05 4:3.4000001e-05 5:4.5000001e-05 6:0 7:0 8:0 9:0 10:0 11:0 12:0 13:0.00021300001 14:0 15:-0.00017100001 16:1e-06 17:-0.000145 18:-0.000115 19:-0.000101 20:2.3000001e-05 21:-9.6000003e-05 22:-9.6999996e-05 23:-9.8999997e-05 24:2.9000001e-05 25:-9.6000003e-05 26:-9.7999997e-05 27:0.00021300001 28:6.8000001e-05 29:0 30:0 31:0 32:0 33:0 34:0 35:0 36:0 37:0 38:0 39:0 40:0 41:0 42:0.000239 43:0.00025300001 44:0.000187 #
-0.00040000000000000001916869440954372 1:0.000132 2:0.0025220001 3:2.6e-05 4:3.2e-05 5:4.5000001e-05 6:0 7:0 8:0 9:0 10:0 11:0 12:0 13:0.000119 14:0 15:-9.7999997e-05 16:0 17:-8.2999999e-05 18:-6.6000001e-05 19:-5.8000001e-05 20:1.3e-05 21:-5.5e-05 22:-5.5e-05 23:-5.6000001e-05 24:1.6e-05 25:-5.5e-05 26:-5.6000001e-05 27:0.000119 28:3.2e-05 29:0 30:0 31:0 32:0 33:0 34:0 35:0 36:0 37:0 38:0 39:0 40:0 41:0 42:0 43:0 44:0 #
-0.00040000000000000001916869440954372 1:0.00049300003 2:0.0051930002 3:8.6e-05 4:8.6e-05 5:0.00025700001 6:0 7:0 8:0 9:0 10:0 11:0 12:0 13:0.000444 14:0 15:-0.000432 16:2e-06 17:-0.000367 18:-0.00029200001 19:-0.00025499999 20:5.9000002e-05 21:-0.000243 22:-0.000245 23:-0.000249 24:7.2000003e-05 25:-0.000244 26:-0.000248 27:0.000444 28:0.00025700001 29:0 30:0 31:0 32:0 33:0 34:0 35:0 36:0 37:0 38:0 39:0 40:0 41:0 42:0 43:0 44:0 #
-0.00040000000000000001916869440954372 1:2e-06 2:0.000352 3:1e-06 4:0 5:1e-06 6:0 7:0 8:0 9:0 10:0 11:0 12:0 13:2e-06 14:0 15:-2e-06 16:0 17:-2e-06 18:-1e-06 19:-1e-06 20:0 21:-1e-06 22:-1e-06 23:-1e-06 24:0 25:-1e-06 26:-1e-06 27:2e-06 28:4.9999999e-06 29:0 30:0 31:0 32:0 33:0 34:0 35:0 36:0 37:0 38:0 39:0 40:0 41:0 42:0 43:0 44:0 #
-0.00040000000000000001916869440954372 1:0.00035399999 2:0.0043330002 3:3.8999999e-05 4:7.7999997e-05 5:0.000117 6:0 7:0 8:0 9:0 10:0 11:0 12:0 13:0.000329 14:0 15:-0.00029600001 16:1e-06 17:-0.00025099999 18:-0.00019999999 19:-0.000174 20:3.9999999e-05 21:-0.000166 22:-0.000168 23:-0.00017100001 24:4.8999998e-05 25:-0.00016700001 26:-0.00016900001 27:0.000329 28:0.000117 29:0 30:0 31:0 32:0 33:0 34:0 35:0 36:0 37:0 38:0 39:0 40:0 41:0 42:0 43:0 44:0 #
-0.00040000000000000001916869440954372 1:2.4999999e-05 2:0.001128 3:3.0000001e-06 4:1.1e-05 5:9.0000003e-06 6:0 7:0 8:0 9:0 10:0 11:0 12:0 13:2.2e-05 14:0 15:-1.8999999e-05 16:0 17:-1.6e-05 18:-1.3e-05 19:-1.1e-05 20:3.0000001e-06 21:-1.1e-05 22:-1.1e-05 23:-1.1e-05 24:3.0000001e-06 25:-1.1e-05 26:-1.1e-05 27:2.2e-05 28:2.6e-05 29:0 30:0 31:0 32:0 33:0 34:0 35:0 36:0 37:0 38:0 39:0 40:0 41:0 42:0 43:0 44:0 #
-0.00040000000000000001916869440954372 1:0.0026400001 2:0.0096000005 3:0.000505 4:0.00075800001 5:0.000505 6:0 7:0 8:0 9:0 10:0 11:0 12:0 13:0.0025470001 14:0 15:-0.0011 16:0.0013070001 17:-0.001101 18:-0.0011 19:-0.001127 20:0.00026 21:-0.001075 22:-0.001084 23:-0.0010479999 24:0.00081100001 25:-0.001045 26:-0.0010479999 27:0.0025470001 28:0.000379 29:0.000126 30:0.000126 31:0 32:0 33:0 34:0 35:0 36:0 37:0 38:0 39:0 40:0 41:0 42:0 43:0 44:0 #
-0.00040000000000000001916869440954372 1:3.0000001e-06 2:0.00032299999 3:1e-06 4:1e-06 5:0 6:0 7:0 8:0 9:0 10:0 11:0 12:0 13:2e-06 14:0 15:-2e-06 16:0 17:-1e-06 18:-1e-06 19:-1e-06 20:0 21:-1e-06 22:-1e-06 23:-1e-06 24:0 25:-1e-06 26:-1e-06 27:2e-06 28:1.7e-05 29:0 30:0 31:0 32:0 33:0 34:0 35:0 36:0 37:0 38:0 39:0 40:0 41:0 42:0 43:0 44:0 #
-0.00040000000000000001916869440954372 1:4.9999999e-06 2:0.000512 3:2e-06 4:1e-06 5:1e-06 6:0 7:0 8:0 9:0 10:0 11:0 12:0 13:4.9999999e-06 14:0 15:-4e-06 16:0 17:-3.0000001e-06 18:-3.0000001e-06 19:-2e-06 20:1e-06 21:-2e-06 22:-2e-06 23:-2e-06 24:1e-06 25:-2e-06 26:-2e-06 27:4.9999999e-06 28:2.3000001e-05 29:0 30:0 31:0 32:0 33:0 34:0 35:0 36:0 37:0 38:0 39:0 40:0 41:0 42:4.9999999e-06 43:4.9999999e-06 44:4e-06 #
-0.00040000000000000001916869440954372 1:4.7000001e-05 2:0.001669 3:6.0000002e-06 4:1.7e-05 5:1.9999999e-05 6:0 7:0 8:0 9:0 10:0 11:0 12:0 13:4.2e-05 14:0 15:-4.2e-05 16:0 17:-3.6000001e-05 18:-2.9000001e-05 19:-2.4999999e-05 20:6.0000002e-06 21:-2.4000001e-05 22:-2.4000001e-05 23:-2.4000001e-05 24:7.0000001e-06 25:-2.4000001e-05 26:-2.4000001e-05 27:4.2e-05 28:2.4999999e-05 29:0 30:0 31:0 32:0 33:0 34:0 35:0 36:0 37:0 38:0 39:0 40:0 41:0 42:0 43:0 44:0 #
-0.00040000000000000001916869440954372 1:0.00067899999 2:0.0059710001 3:7.6999997e-05 4:7.6999997e-05 5:0.000193 6:0 7:0 8:0 9:0 10:0 11:0 12:0 13:0.00064699998 14:0 15:-0.00058300002 16:3.0000001e-06 17:-0.00049599999 18:-0.000394 19:-0.000344 20:7.8999998e-05 21:-0.00032799999 22:-0.00033099999 23:-0.000337 24:9.7999997e-05 25:-0.00033000001 26:-0.00033400001 27:0.00064699998 28:0.00030799999 29:0 30:0 31:0 32:0 33:0 34:0 35:0 36:0 37:0 38:0 39:0 40:0 41:0 42:0 43:0 44:0 #
-0.00040000000000000001916869440954372 1:0.001596 2:0.0088569997 3:0.00028599999 4:0.00095199997 5:0.00057099998 6:0 7:0 8:0 9:0 10:0 11:0 12:0 13:0.001437 14:0 15:-0.001442 16:7.0000001e-06 17:-0.001226 18:-0.00097400002 19:-0.00085000001 20:0.00019599999 21:-0.00081 22:-0.00081699999 23:-0.000833 24:0.000241 25:-0.00081499998 26:-0.000826 27:0.001437 28:0.00028599999 29:0 30:0 31:0 32:0 33:0 34:0 35:0 36:0 37:0 38:0 39:0 40:0 41:0 42:0 43:0 44:0 #
-0.00040000000000000001916869440954372 1:8.3999999e-05 2:0.0019980001 3:0.000106 4:1.9999999e-05 5:1.9999999e-05 6:0 7:0 8:0 9:0 10:0 11:0 12:0 13:7.5000004e-05 14:0 15:-6.0999999e-05 16:0 17:-5.1999999e-05 18:-4.2e-05 19:-3.6000001e-05 20:8e-06 21:-3.5000001e-05 22:-3.5000001e-05 23:-3.6000001e-05 24:9.9999997e-06 25:-3.5000001e-05 26:-3.5000001e-05 27:7.5000004e-05 28:4.0999999e-05 29:0 30:0 31:0 32:0 33:0 34:0 35:0 36:0 37:0 38:0 39:0 40:0 41:0 42:8.0999998e-05 43:9.2000002e-05 44:7.6999997e-05 #
-0.00040000000000000001916869440954372 1:0.001799 2:0.0062489999 3:0.00014400001 4:0.000287 5:0.00050299999 6:2e-06 7:0 8:0 9:0 10:0 11:0 12:0 13:0.001619 14:0 15:-0.001088 16:4.9999999e-06 17:-0.00092399999 18:-0.000734 19:-0.00064099999 20:0.00014800001 21:-0.000611 22:-0.00061599998 23:-0.00062800001 24:0.000182 25:-0.00061400002 26:-0.00062300003 27:0.001619 28:0.00021499999 29:0 30:0 31:0 32:0 33:0 34:0 35:0 36:0 37:0 38:0 39:0 40:0 41:1e-06 42:0.0021470001 43:0.001874 44:0.0032899999 #
-0.00040000000000000001916869440954372 1:4.2e-05 2:0.001434 3:1.4e-05 4:8e-06 5:9.9999997e-06 6:0 7:0 8:0 9:0 10:0 11:0 12:0 13:3.7000002e-05 14:0 15:-3.1e-05 16:0 17:-2.7e-05 18:-2.1e-05 19:-1.8000001e-05 20:4e-06 21:-1.8000001e-05 22:-1.8000001e-05 23:-1.8000001e-05 24:4.9999999e-06 25:-1.8000001e-05 26:-1.8000001e-05 27:3.7000002e-05 28:1.8999999e-05 29:0 30:0 31:0 32:0 33:0 34:0 35:0 36:0 37:0 38:0 39:0 40:0 41:0 42:0 43:0 44:0 #
-0.00040000000000000001916869440954372 1:0.000122 2:0.0025589999 3:1.4e-05 4:1.9999999e-05 5:4.7000001e-05 6:0 7:0 8:0 9:0 10:0 11:0 12:0 13:0.000109 14:0 15:-0.000102 16:1e-06 17:-8.7e-05 18:-6.9000002e-05 19:-5.9999998e-05 20:1.4e-05 21:-5.7000001e-05 22:-5.8000001e-05 23:-5.9000002e-05 24:1.7e-05 25:-5.8000001e-05 26:-5.9000002e-05 27:0.000109 28:3.4000001e-05 29:0 30:0 31:0 32:0 33:0 34:0 35:0 36:0 37:0 38:0 39:0 40:0 41:0 42:0.000122 43:0.000119 44:0.000298 #
-0.00040000000000000001916869440954372 1:0.00069900003 2:0.0052769999 3:0.000256 4:0.00016 5:0.00016 6:0 7:0 8:0 9:0 10:0 11:0 12:0 13:0.00062900002 14:0 15:-0.00048399999 16:2e-06 17:-0.00041199999 18:-0.00032699999 19:-0.00028499999 20:6.6000001e-05 21:-0.000272 22:-0.000275 23:-0.00028000001 24:8.0999998e-05 25:-0.00027399999 26:-0.00027799999 27:0.00062900002 28:0.00019200001 29:0 30:0 31:0 32:0 33:0 34:0 35:0 36:0 37:0 38:0 39:0 40:0 41:0 42:0.00067600003 43:0.00083600002 44:0.00075000001 #
-0.00040000000000000001916869440954372 1:0.0064249998 2:0.0092519997 3:0.0020560001 4:0.00077099999 5:0.0023129999 6:0 7:0 8:0 9:0 10:0 11:0 12:0 13:0.005783 14:0 15:-0.002134 16:0.0029839999 17:-0.002112 18:-0.002134 19:-0.002019 20:0.001591 21:-0.001991 22:-0.002019 23:-0.0022470001 24:0.00065100001 25:-0.002198 26:-0.00223 27:0.005783 28:0.00077099999 29:0.00025700001 30:0 31:0 32:0 33:0 34:0 35:0 36:0 37:0 38:0 39:0 40:0 41:0 42:0 43:0 44:0 #
-0.00040000000000000001916869440954372 1:0.0025790001 2:0.010119 3:0.00028099999 4:0.00028099999 5:0.0011239999 6:0 7:0 8:0 9:0 10:0 11:0 12:0 13:0.002321 14:0 15:-0.0021279999 16:9.9999997e-06 17:-0.001809 18:-0.001437 19:-0.001254 20:0.00028899999 21:-0.001196 22:-0.001206 23:-0.001229 24:0.000356 25:-0.001202 26:-0.00122 27:0.002321 28:0.00056199997 29:0 30:0 31:0 32:0 33:0 34:0 35:0 36:0 37:0 38:0 39:0 40:0 41:0 42:0 43:0 44:0 #
-0.00040000000000000001916869440954372 1:2.1e-05 2:0.001006 3:4.9999999e-06 4:3.0000001e-06 5:3.0000001e-06 6:0 7:0 8:0 9:0 10:0 11:0 12:0 13:1.8999999e-05 14:0 15:-1.5e-05 16:0 17:-1.3e-05 18:-9.9999997e-06 19:-9.0000003e-06 20:2e-06 21:-9.0000003e-06 22:-9.0000003e-06 23:-9.0000003e-06 24:3.0000001e-06 25:-9.0000003e-06 26:-9.0000003e-06 27:1.8999999e-05 28:1.6e-05 29:0 30:0 31:0 32:0 33:0 34:0 35:0 36:0 37:0 38:0 39:0 40:0 41:0 42:0 43:0 44:0 #
-0.00040000000000000001916869440954372 1:9.0000003e-06 2:0.00064799999 3:4e-06 4:2e-06 5:2e-06 6:0 7:0 8:0 9:0 10:0 11:0 12:0 13:8e-06 14:0 15:-6.0000002e-06 16:0 17:-4.9999999e-06 18:-4e-06 19:-4e-06 20:1e-06 21:-4e-06 22:-4e-06 23:-4e-06 24:1e-06 25:-4e-06 26:-4e-06 27:8e-06 28:1.3e-05 29:0 30:0 31:0 32:0 33:0 34:0 35:0 36:0 37:0 38:0 39:0 40:0 41:0 42:9.0000003e-06 43:9.0000003e-06 44:7.0000001e-06 #
-0.00040000000000000001916869440954372 1:0.001303 2:0.0077869999 3:0.000157 4:0.00047200001 5:0.00031500001 6:2e-06 7:0 8:0 9:0 10:0 11:0 12:0 13:0.001173 14:0 15:-0.001191 16:6.0000002e-06 17:-0.001012 18:-0.00080400001 19:-0.00070199999 20:0.000162 21:-0.00066899997 22:-0.00067500002 23:-0.000688 24:0.000199 25:-0.000673 26:-0.00068200001 27:0.001173 28:0.00023600001 29:0 30:0 31:0 32:0 33:0 34:0 35:0 36:0 37:0 38:0 39:0 40:0 41:0 42:0.001346 43:0.001813 44:0.001457 #
-0.00040000000000000001916869440954372 1:0.000121 2:0.002452 3:6.7000001e-05 4:1.8000001e-05 5:4.3e-05 6:0 7:0 8:0 9:0 10:0 11:0 12:0 13:0.000109 14:0 15:-9.2000002e-05 16:0 17:-7.8999998e-05 18:-6.1999999e-05 19:-5.4e-05 20:1.3e-05 21:-5.1999999e-05 22:-5.1999999e-05 23:-5.3e-05 24:1.5e-05 25:-5.1999999e-05 26:-5.3e-05 27:0.000109 28:7.8999998e-05 29:0 30:0 31:0 32:0 33:0 34:0 35:0 36:0 37:0 38:0 39:0 40:0 41:0 42:0 43:0 44:0 #
-0.00040000000000000001916869440954372 1:0.001477 2:0.0065100002 3:0.00025400001 4:0.000153 5:0.00030499999 6:0 7:0 8:0 9:0 10:0 11:0 12:0 13:0.00133 14:0 15:-0.00076999998 16:4e-06 17:-0.00065499998 18:-0.00052 19:-0.00045399999 20:0.000105 21:-0.00043300001 22:-0.00043700001 23:-0.00044500001 24:0.00012899999 25:-0.00043499999 26:-0.00044100001 27:0.00133 28:0.00030499999 29:0 30:0 31:0 32:0 33:0 34:0 35:0 36:0 37:0 38:0 39:0 40:0 41:0 42:0 43:0 44:0 #
-0.00040000000000000001916869440954372 1:0.00075800001 2:0.0048759999 3:5.8000001e-05 4:0.000117 5:0.000204 6:1e-06 7:0 8:0 9:0 10:0 11:0 12:0 13:0.00068200001 14:0 15:-0.00044199999 16:2e-06 17:-0.00037600001 18:-0.000298 19:-0.00026100001 20:5.9999998e-05 21:-0.000248 22:-0.00025099999 23:-0.00025499999 24:7.4000003e-05 25:-0.00025000001 26:-0.00025300001 27:0.00068200001 28:0.00014600001 29:0 30:0 31:0 32:0 33:0 34:0 35:0 36:0 37:0 38:0 39:0 40:0 41:0 42:0.00084400002 43:0.00074599998 44:0.001324 #
-0.00040000000000000001916869440954372 1:7.3000003e-05 2:0.001619 3:0 4:3.0000001e-06 5:1.3e-05 6:0 7:0 8:0 9:0 10:0 11:0 12:0 13:6.6000001e-05 14:0 15:-3.9999999e-05 16:0 17:-3.4000001e-05 18:-2.7e-05 19:-1.9999999e-05 20:2.3000001e-05 21:-1.9999999e-05 22:-1.9999999e-05 23:-1.9999999e-05 24:3.4000001e-05 25:-1.9999999e-05 26:-1.9999999e-05 27:6.6000001e-05 28:0.000122 29:0 30:3.0000001e-06 31:3.0000001e-06 32:0 33:0 34:0 35:0 36:0 37:0 38:0 39:0 40:0 41:0 42:0 43:0 44:0 #
-0.00040000000000000001916869440954372 1:2.1e-05 2:0.00099900004 3:9.9999997e-06 4:7.0000001e-06 5:4.9999999e-06 6:0 7:0 8:0 9:0 10:0 11:0 12:0 13:1.8999999e-05 14:0 15:-1.5e-05 16:0 17:-1.3e-05 18:-9.9999997e-06 19:-9.0000003e-06 20:2e-06 21:-9.0000003e-06 22:-9.0000003e-06 23:-9.0000003e-06 24:3.0000001e-06 25:-9.0000003e-06 26:-9.0000003e-06 27:1.8999999e-05 28:1.4e-05 29:0 30:0 31:0 32:0 33:0 34:0 35:0 36:0 37:0 38:0 39:0 40:0 41:0 42:0 43:0 44:0 #
-0.00040000000000000001916869440954372 1:0.00053100003 2:0.005047 3:5.4e-05 4:5.4e-05 5:0.000216 6:0 7:0 8:0 9:0 10:0 11:0 12:0 13:0.000478 14:0 15:-0.000409 16:2e-06 17:-0.00034699999 18:-0.00027600001 19:-0.000241 20:5.6000001e-05 21:-0.00023000001 22:-0.00023200001 23:-0.00023600001 24:6.8000001e-05 25:-0.000231 26:-0.00023400001 27:0.000478 28:0.000162 29:0 30:0 31:0 32:0 33:0 34:0 35:0 36:0 37:0 38:0 39:0 40:0 41:0 42:0 43:0 44:0 #
-0.00040000000000000001916869440954372 1:0.00084200001 2:0.0059850002 3:9.1000002e-05 4:0.000137 5:0.00031999999 6:1e-06 7:0 8:0 9:0 10:0 11:0 12:0 13:0.00075800001 14:0 15:-0.00069199997 16:3.0000001e-06 17:-0.000588 18:-0.00046700001 19:-0.00040799999 20:9.4000003e-05 21:-0.00038899999 22:-0.00039199999 23:-0.00039900001 24:0.000116 25:-0.00039100001 26:-0.00039599999 27:0.00075800001 28:0.000183 29:0 30:0 31:0 32:0 33:0 34:0 35:0 36:0 37:0 38:0 39:0 40:0 41:1e-06 42:0.00084499997 43:0.00089700002 44:0.002079 #
-0.00040000000000000001916869440954372 1:0.000164 2:0.002565 3:0 4:6.8000001e-05 5:4.0999999e-05 6:0 7:0 8:0 9:0 10:0 11:0 12:0 13:0.000159 14:0 15:-0.000103 16:1e-06 17:-8.8000001e-05 18:-7.0000002e-05 19:-5.6000001e-05 20:3.7999998e-05 21:-5.5e-05 22:-5.6000001e-05 23:-5.8000001e-05 24:3.1e-05 25:-5.7000001e-05 26:-5.8000001e-05 27:0.000159 28:0.000157 29:0 30:7.0000001e-06 31:0 32:0 33:0 34:0 35:0 36:0 37:0 38:0 39:0 40:0 41:0 42:0.000162 43:0.000161 44:0.00013499999 #
-0.00040000000000000001916869440954372 1:0.002384 2:0.0082029998 3:0.00058599998 4:0.00029299999 5:0.00048799999 6:0 7:0 8:0 9:0 10:0 11:0 12:0 13:0.002146 14:0 15:-0.000627 16:0.0026169999 17:-0.00066000002 18:-0.00061300001 19:-0.000871 20:0.000201 21:-0.00083099998 22:-0.00083799998 23:-0.00057700003 24:0.001743 25:-0.00065200002 26:-0.00057700003 27:0.002146 28:0.00048799999 29:0.00039100001 30:0.000195 31:0 32:0 33:0 34:0 35:0 36:0 37:0 38:0 39:0 40:0 41:0 42:0 43:0 44:0 #
-0.00040000000000000001916869440954372 1:0.000612 2:0.0054660002 3:0.000128 4:0.000256 5:0.00016 6:0 7:0 8:0 9:0 10:0 11:0 12:0 13:0.000551 14:0 15:-0.00048399999 16:2e-06 17:-0.00041099999 18:-0.00032699999 19:-0.00028499999 20:6.6000001e-05 21:-0.000272 22:-0.00027399999 23:-0.000279 24:8.0999998e-05 25:-0.00027300001 26:-0.00027700001 27:0.000551 28:0.000128 29:0 30:0 31:0 32:0 33:0 34:0 35:0 36:0 37:0 38:0 39:0 40:0 41:0 42:0 43:0 44:0 #
-0.00040000000000000001916869440954372 1:0.000164 2:0.0029889999 3:0.000118 4:4.6000001e-05 5:5.5e-05 6:0 7:0 8:0 9:0 10:0 11:0 12:0 13:0.000147 14:0 15:-0.000138 16:1e-06 17:-0.000117 18:-9.3000002e-05 19:-8.0999998e-05 20:1.8999999e-05 21:-7.7999997e-05 22:-7.7999997e-05 23:-7.9999998e-05 24:2.3000001e-05 25:-7.7999997e-05 26:-7.8999998e-05 27:0.000147 28:9.1000002e-05 29:0 30:0 31:0 32:0 33:0 34:0 35:0 36:0 37:0 38:0 39:0 40:0 41:0 42:0 43:0 44:0 #
-0.00040000000000000001916869440954372 1:0.0021530001 2:0.0093390001 3:0.00033800001 4:0.00033800001 5:0.001013 6:0 7:0 8:0 9:0 10:0 11:0 12:0 13:0.002017 14:0 15:-0.000971 16:0.001199 17:-0.000979 18:-0.000971 19:-0.00089700002 20:0.000933 21:-0.00090400001 22:-0.00089700002 23:-0.00091900001 24:0.000871 25:-0.00092600001 26:-0.00091900001 27:0.0020290001 28:0.00056299998 29:0.000113 30:0.000113 31:0 32:0 33:0 34:0 35:0 36:0 37:0 38:0 39:0 40:0 41:0 42:0 43:0 44:0 #
-0.00040000000000000001916869440954372 1:0.00044599999 2:0.0047439998 3:2.4000001e-05 4:9.7999997e-05 5:9.7999997e-05 6:1e-06 7:0 8:0 9:0 10:0 11:0 12:0 13:0.000432 14:0 15:-0.00036999999 16:2e-06 17:-0.00031500001 18:-0.00025000001 19:-0.000218 20:4.9999999e-05 21:-0.000208 22:-0.00021 23:-0.000202 24:0.000172 25:-0.000202 26:-0.000202 27:0.00043499999 28:0.000245 29:0 30:2.4000001e-05 31:0 32:0 33:0 34:0 35:0 36:0 37:0 38:0 39:0 40:0 41:0 42:0.000481 43:0.00053199998 44:0.00043499999 #
-0.00040000000000000001916869440954372 1:0.00018 2:0.002656 3:0 4:2.9000001e-05 5:2.9000001e-05 6:0 7:0 8:0 9:0 10:0 11:0 12:0 13:0.000178 14:0 15:-0.000111 16:1e-06 17:-9.4000003e-05 18:-7.5000004e-05 19:-6.5e-05 20:1.5e-05 21:-6.1999999e-05 22:-6.2999999e-05 23:-5.9999998e-05 24:5.0999999e-05 25:-5.9999998e-05 26:-5.9999998e-05 27:0.000178 28:8.8000001e-05 29:0 30:7.0000001e-06 31:0 32:0 33:0 34:0 35:0 36:0 37:0 38:0 39:0 40:0 41:0 42:0.00017699999 43:0.000179 44:0.00014400001 #
-0.00040000000000000001916869440954372 1:0.0032639999 2:0.009056 3:0.000252 4:0.000252 5:0.00062900002 6:0 7:0 8:0 9:0 10:0 11:0 12:0 13:0.002937 14:0 15:-0.001905 16:9.0000003e-06 17:-0.001619 18:-0.001286 19:-0.001122 20:0.00025899999 21:-0.00107 22:-0.00108 23:-0.0011 24:0.00031900001 25:-0.001076 26:-0.001091 27:0.002937 28:0.00037699999 29:0 30:0 31:0 32:0 33:0 34:0 35:0 36:0 37:0 38:0 39:0 40:0 41:0 42:0 43:0 44:0 #
-0.00040000000000000001916869440954372 1:0.001211 2:0.0074430001 3:0.000191 4:0.000191 5:0.000573 6:0 7:0 8:0 9:0 10:0 11:0 12:0 13:0.00109 14:0 15:-0.00054899999 16:0.00067799998 17:-0.00055300002 18:-0.00054899999 19:-0.00050700002 20:0.000528 21:-0.00051099999 22:-0.00050700002 23:-0.00052 24:0.00049200002 25:-0.00052399997 26:-0.00052 27:0.00109 28:0.00069999998 29:6.4e-05 30:6.4e-05 31:0 32:0 33:0 34:0 35:0 36:0 37:0 38:0 39:0 40:0 41:0 42:0 43:0 44:0 #
-0.00040000000000000001916869440954372 1:0.00012899999 2:0.0025220001 3:1.3e-05 4:1.9999999e-05 5:4.6000001e-05 6:0 7:0 8:0 9:0 10:0 11:0 12:0 13:0.000116 14:0 15:-9.8999997e-05 16:0 17:-8.5e-05 18:-6.7000001e-05 19:-5.9000002e-05 20:1.4e-05 21:-5.6000001e-05 22:-5.6000001e-05 23:-5.7000001e-05 24:1.7e-05 25:-5.6000001e-05 26:-5.7000001e-05 27:0.000116 28:5.3e-05 29:0 30:0 31:0 32:0 33:0 34:0 35:0 36:0 37:0 38:0 39:0 40:0 41:0 42:0.00013 43:0.000126 44:0.00028899999 #
-0.00040000000000000001916869440954372 1:0.000245 2:0.003336 3:2.3000001e-05 4:2.3000001e-05 5:0.000103 6:0 7:0 8:0 9:0 10:0 11:0 12:0 13:0.00022 14:0 15:-0.00017299999 16:1e-06 17:-0.000147 18:-0.000117 19:-0.000102 20:2.4000001e-05 21:-9.6999996e-05 22:-9.7999997e-05 23:-9.9999997e-05 24:2.9000001e-05 25:-9.7999997e-05 26:-9.8999997e-05 27:0.00022 28:5.7000001e-05 29:0 30:0 31:0 32:0 33:0 34:0 35:0 36:0 37:0 38:0 39:0 40:0 41:0 42:0 43:0 44:0 #
-0.00040000000000000001916869440954372 1:0.00023799999 2:0.0033410001 3:2.4000001e-05 4:3.6000001e-05 5:8.2999999e-05 6:0 7:0 8:0 9:0 10:0 11:0 12:0 13:0.000214 14:0 15:-0.000179 16:1e-06 17:-0.00015199999 18:-0.000121 19:-0.000106 20:2.4000001e-05 21:-0.000101 22:-0.000102 23:-0.000104 24:2.9999999e-05 25:-0.000101 26:-0.000103 27:0.000214 28:4.7000001e-05 29:0 30:0 31:0 32:0 33:0 34:0 35:0 36:0 37:0 38:0 39:0 40:0 41:0 42:0.000239 43:0.000235 44:0.00052900001 #
-0.00040000000000000001916869440954372 1:0.00066999998 2:0.0053920001 3:7.0000002e-05 4:0.000105 5:0.000245 6:1e-06 7:0 8:0 9:0 10:0 11:0 12:0 13:0.00060299999 14:0 15:-0.00053000002 16:3.0000001e-06 17:-0.000451 18:-0.00035799999 19:-0.00031199999 20:7.2000003e-05 21:-0.000298 22:-0.00030099999 23:-0.000306 24:8.9000001e-05 25:-0.00029900001 26:-0.00030399999 27:0.00060299999 28:0.000105 29:0 30:0 31:0 32:0 33:0 34:0 35:0 36:0 37:0 38:0 39:0 40:0 41:0 42:0.000673 43:0.00072100002 44:0.001589 #
-0.00040000000000000001916869440954372 1:2e-06 2:0.00031 3:1e-06 4:1e-06 5:0 6:0 7:0 8:0 9:0 10:0 11:0 12:0 13:1e-06 14:0 15:-1e-06 16:0 17:-1e-06 18:-1e-06 19:-1e-06 20:0 21:-1e-06 22:-1e-06 23:-1e-06 24:0 25:-1e-06 26:-1e-06 27:1e-06 28:4e-06 29:0 30:0 31:0 32:0 33:0 34:0 35:0 36:0 37:0 38:0 39:0 40:0 41:0 42:0 43:0 44:0 #
-0.00040000000000000001916869440954372 1:0.00013099999 2:0.0023169999 3:0.000104 4:1.6e-05 5:3.3e-05 6:0 7:0 8:0 9:0 10:0 11:0 12:0 13:0.000118 14:0 15:-4.7000001e-05 16:4.8999998e-05 17:-4.6000001e-05 18:-4.6000001e-05 19:-4.3e-05 20:3.7999998e-05 21:-4.2e-05 22:-4.3e-05 23:-4.8000002e-05 24:1.4e-05 25:-4.7000001e-05 26:-4.7000001e-05 27:0.000118 28:5.9999998e-05 29:4.9999999e-06 30:0 31:0 32:0 33:0 34:0 35:0 36:0 37:0 38:0 39:0 40:0 41:0 42:0 43:0 44:0 #
-0.00040000000000000001916869440954372 1:0.002541 2:0.0082919998 3:0.00059200003 4:0.000711 5:0.00059200003 6:1e-06 7:0 8:0 9:0 10:0 11:0 12:0 13:0.002287 14:0 15:-0.001794 16:9.0000003e-06 17:-0.001525 18:-0.001211 19:-0.001057 20:0.000244 21:-0.001008 22:-0.0010169999 23:-0.001036 24:0.00030000001 25:-0.001013 26:-0.001028 27:0.002287 28:0.000355 29:0 30:0 31:0 32:0 33:0 34:0 35:0 36:0 37:0 38:0 39:0 40:0 41:0 42:0.00251 43:0.0027280001 44:0.002055 #
-0.00040000000000000001916869440954372 1:0.000149 2:0.002693 3:0 4:2.9999999e-05 5:7.4000003e-05 6:0 7:0 8:0 9:0 10:0 11:0 12:0 13:0.000134 14:0 15:-0.000112 16:1e-06 17:-9.5000003e-05 18:-7.5000004e-05 19:-6.6000001e-05 20:1.5e-05 21:-6.2999999e-05 22:-6.2999999e-05 23:-6.4e-05 24:1.8999999e-05 25:-6.2999999e-05 26:-6.4e-05 27:0.000134 28:9.6000003e-05 29:0 30:0 31:0 32:0 33:0 34:0 35:0 36:0 37:0 38:0 39:0 40:0 41:0 42:0 43:0 44:0 #
-0.00040000000000000001916869440954372 1:0.00026500001 2:0.00364 3:6.8000001e-05 4:2.7e-05 5:5.5e-05 6:0 7:0 8:0 9:0 10:0 11:0 12:0 13:0.000239 14:0 15:-0.000206 16:1e-06 17:-0.00017499999 18:-0.000139 19:-0.000122 20:2.8e-05 21:-0.000116 22:-0.000117 23:-0.000119 24:3.5000001e-05 25:-0.000117 26:-0.000118 27:0.000239 28:0.000109 29:0 30:0 31:0 32:0 33:0 34:0 35:0 36:0 37:0 38:0 39:0 40:0 41:0 42:0 43:0 44:0 #
-0.00040000000000000001916869440954372 1:0.000665 2:0.0054700002 3:3.2e-05 4:0.000161 5:0.000193 6:0 7:0 8:0 9:0 10:0 11:0 12:0 13:0.00059900002 14:0 15:-0.00048700001 16:2e-06 17:-0.00041400001 18:-0.000329 19:-0.000287 20:6.6000001e-05 21:-0.00027399999 22:-0.00027600001 23:-0.00028099999 24:8.1999999e-05 25:-0.000275 26:-0.000279 27:0.00059900002 28:0.000193 29:0 30:0 31:3.2e-05 32:0 33:0 34:0 35:0 36:0 37:0 38:0 39:0 40:0 41:0 42:0 43:0 44:0 #
-0.00040000000000000001916869440954372 1:0.0086559998 2:0.005692 3:0.0042690001 4:0.0023719999 5:0.0023719999 6:0 7:0 8:0 9:0 10:0 11:0 12:1e-06 13:0.0077900002 14:0 15:-0.007183 16:3.5000001e-05 17:-0.0061050002 18:-0.0048489999 19:-0.0042329999 20:0.00097699999 21:-0.004036 22:-0.004071 23:-0.0041470001 24:0.001202 25:-0.0040580002 26:-0.0041160001 27:0.0077900002 28:0 29:0 30:0 31:0 32:0 33:0 34:0 35:0 36:0 37:0 38:0 39:0 40:0 41:0 42:0 43:0 44:0 #
-0.00040000000000000001916869440954372 1:0.00079999998 2:0.0062739998 3:0 4:0.00021499999 5:0.00012899999 6:0 7:0 8:0 9:0 10:0 11:0 12:0 13:0.00072000001 14:0 15:-0.00065100001 16:3.0000001e-06 17:-0.00055300002 18:-0.000439 19:-0.00038300001 20:8.9000001e-05 21:-0.00036599999 22:-0.00036899999 23:-0.00037600001 24:0.000109 25:-0.00036800001 26:-0.00037299999 27:0.00072000001 28:0.00030099999 29:0 30:0 31:4.3e-05 32:0 33:0 34:0 35:0 36:0 37:0 38:0 39:0 40:0 41:0 42:0 43:0 44:0 #
-0.00040000000000000001916869440954372 1:0.0042989999 2:0.011877 3:0.00077500002 4:0.001549 5:0.0012910001 6:0 7:0 8:0 9:0 10:0 11:0 12:0 13:0.0038689999 14:0 15:-0.00391 16:1.8999999e-05 17:-0.0033229999 18:-0.0026390001 19:-0.0023040001 20:0.00053199998 21:-0.002197 22:-0.0022160001 23:-0.002257 24:0.00065399997 25:-0.0022090001 26:-0.0022400001 27:0.0038689999 28:0 29:0 30:0 31:0 32:0 33:0 34:0 35:0 36:0 37:0 38:0 39:0 40:0 41:0 42:0 43:0 44:0 #
-0.00040000000000000001916869440954372 1:0.00023000001 2:0.0034330001 3:8.5e-05 4:1.2e-05 5:7.3000003e-05 6:0 7:0 8:0 9:0 10:0 11:0 12:0 13:0.000207 14:0 15:-0.000183 16:1e-06 17:-0.00015599999 18:-0.000124 19:-0.000108 20:2.4999999e-05 21:-0.000103 22:-0.000104 23:-0.000106 24:3.1e-05 25:-0.000103 26:-0.000105 27:0.000207 28:9.6999996e-05 29:0 30:0 31:0 32:0 33:0 34:0 35:0 36:0 37:0 38:0 39:0 40:0 41:0 42:0 43:0 44:0 #
-0.00040000000000000001916869440954372 1:0.000199 2:0.0034109999 3:3.6000001e-05 4:5.9000002e-05 5:4.8000002e-05 6:0 7:0 8:0 9:0 10:0 11:0 12:0 13:0.000179 14:0 15:-0.00018 16:1e-06 17:-0.000153 18:-0.000121 19:-0.000106 20:2.4000001e-05 21:-0.000101 22:-0.000102 23:-0.000104 24:2.9999999e-05 25:-0.000102 26:-0.000103 27:0.000179 28:5.9000002e-05 29:0 30:0 31:0 32:0 33:0 34:0 35:0 36:0 37:0 38:0 39:0 40:0 41:0 42:0 43:0 44:0 #
-0.00040000000000000001916869440954372 1:0.002138 2:0.0076569999 3:0.001607 4:0.00028400001 5:0.000378 6:2e-06 7:0 8:0 9:0 10:0 11:0 12:0 13:0.002084 14:0 15:-0.001038 16:0.00039599999 17:-0.00091399997 18:-0.00088599999 19:-0.00084300002 20:0.000195 21:-0.00080400001 22:-0.00081100001 23:-0.000826 24:0.000239 25:-0.00080899999 26:-0.00082000002 27:0.0020959999 28:0.00066199998 29:0.000189 30:0 31:9.5000003e-05 32:0 33:0 34:0 35:0 36:0 37:0 38:0 39:0 40:0 41:0 42:0.0021550001 43:0.002106 44:0.001802 #
-0.00040000000000000001916869440954372 1:0.00044500001 2:0.0035969999 3:4.0999999e-05 4:8.2999999e-05 5:5.5e-05 6:0 7:0 8:0 9:0 10:0 11:0 12:0 13:0.00039999999 14:0 15:-0.000119 16:0.000147 17:-0.00012 18:-0.000119 19:-0.00012300001 20:2.8e-05 21:-0.000117 22:-0.000118 23:-0.000115 24:8.1999999e-05 25:-0.000114 26:-0.000115 27:0.00039999999 28:0.00039999999 29:1.4e-05 30:1.4e-05 31:1.4e-05 32:0 33:0 34:0 35:0 36:0 37:0 38:0 39:0 40:0 41:0 42:0 43:0 44:0 #
-0.00040000000000000001916869440954372 1:3.9999999e-05 2:0.001401 3:2e-06 4:6.0000002e-06 5:8e-06 6:0 7:0 8:0 9:0 10:0 11:0 12:0 13:3.6000001e-05 14:0 15:-2.9999999e-05 16:0 17:-2.4999999e-05 18:-1.9999999e-05 19:-1.8000001e-05 20:4e-06 21:-1.7e-05 22:-1.7e-05 23:-1.7e-05 24:4.9999999e-06 25:-1.7e-05 26:-1.7e-05 27:3.6000001e-05 28:4.0999999e-05 29:0 30:0 31:0 32:0 33:0 34:0 35:0 36:0 37:0 38:0 39:0 40:0 41:0 42:3.7999998e-05 43:3.7000002e-05 44:2.4999999e-05 #
-0.00040000000000000001916869440954372 1:0.00054699997 2:0.00507 3:0.000136 4:8.1999999e-05 5:0.000164 6:0 7:0 8:0 9:0 10:0 11:0 12:0 13:0.00049200002 14:0 15:-0.000223 16:0.00034299999 17:-0.000223 18:-0.000223 19:-0.000243 20:5.6000001e-05 21:-0.00023200001 22:-0.00023400001 23:-0.00023799999 24:6.9000002e-05 25:-0.000233 26:-0.000237 27:0.00049200002 28:0.00032699999 29:2.7e-05 30:0 31:0 32:0 33:0 34:0 35:0 36:0 37:0 38:0 39:0 40:0 41:0 42:0 43:0 44:0 #
-0.00040000000000000001916869440954372 1:8.7e-05 2:0.0021540001 3:0 4:4.9999999e-06 5:1.8999999e-05 6:0 7:0 8:0 9:0 10:0 11:0 12:0 13:7.7999997e-05 14:0 15:-7.1000002e-05 16:0 17:-6.0999999e-05 18:-4.8000002e-05 19:-4.2e-05 20:9.9999997e-06 21:-3.9999999e-05 22:-3.9999999e-05 23:-4.0999999e-05 24:1.2e-05 25:-3.9999999e-05 26:-4.0999999e-05 27:7.7999997e-05 28:4.7000001e-05 29:0 30:0 31:0 32:0 33:0 34:0 35:0 36:0 37:0 38:0 39:0 40:0 41:0 42:8.5e-05 43:8.9000001e-05 44:5.9000002e-05 #
-0.00040000000000000001916869440954372 1:0.000432 2:0.0050189998 3:0.000132 4:7.8999998e-05 5:0.000106 6:0 7:0 8:0 9:0 10:0 11:0 12:0 13:0.00038899999 14:0 15:-0.00039999999 16:2e-06 17:-0.00034 18:-0.00026999999 19:-0.00023600001 20:5.4e-05 21:-0.000225 22:-0.000227 23:-0.000216 24:0.000204 25:-0.00021699999 26:-0.000216 27:0.00038899999 28:0.000106 29:0 30:2.6e-05 31:2.6e-05 32:0 33:0 34:0 35:0 36:0 37:0 38:0 39:0 40:0 41:0 42:0 43:0 44:0 #
-0.00040000000000000001916869440954372 1:0.00053399999 2:0.0054939999 3:3.2e-05 4:0.000128 5:9.6000003e-05 6:0 7:0 8:0 9:0 10:0 11:0 12:0 13:0.00047999999 14:0 15:-0.00048399999 16:2e-06 17:-0.00041099999 18:-0.00032699999 19:-0.00028499999 20:6.6000001e-05 21:-0.000272 22:-0.00027399999 23:-0.000279 24:8.0999998e-05 25:-0.00027300001 26:-0.00027700001 27:0.00047999999 28:6.4e-05 29:0 30:0 31:0 32:0 33:0 34:0 35:0 36:0 37:0 38:0 39:0 40:0 41:0 42:0 43:0 44:0 #
-0.00040000000000000001916869440954372 1:0.000205 2:0.003184 3:7.3000003e-05 4:3.1e-05 5:5.1999999e-05 6:0 7:0 8:0 9:0 10:0 11:0 12:0 13:0.000195 14:0 15:-0.000157 16:1e-06 17:-0.00013299999 18:-0.000106 19:-9.3000002e-05 20:2.1e-05 21:-8.8000001e-05 22:-8.9000001e-05 23:-9.1000002e-05 24:2.6e-05 25:-8.9000001e-05 26:-9.0000001e-05 27:0.000195 28:6.1999999e-05 29:0 30:0 31:0 32:0 33:0 34:0 35:0 36:0 37:0 38:0 39:0 40:0 41:0 42:0 43:0 44:0 #
-0.00040000000000000001916869440954372 1:0.001535 2:0.007493 3:0.000481 4:0 5:0.000481 6:0 7:0 8:0 9:0 10:0 11:0 12:0 13:0.001433 14:0 15:-0.00047100001 16:0.001627 17:-0.000474 18:-0.00046099999 19:-0.00061300001 20:0.000142 21:-0.00058499997 22:-0.00059000001 23:-0.00060099998 24:0.000174 25:-0.000588 26:-0.000596 27:0.001433 28:0.00041199999 29:0.000137 30:0 31:0 32:0 33:0 34:0 35:0 36:0 37:0 38:0 39:0 40:0 41:0 42:0 43:0 44:0 #
-0.00040000000000000001916869440954372 1:0.000203 2:0.0032820001 3:2.2e-05 4:7.6999997e-05 5:7.6999997e-05 6:0 7:0 8:0 9:0 10:0 11:0 12:0 13:0.000183 14:0 15:-0.00016700001 16:1e-06 17:-0.000142 18:-0.000113 19:-9.7999997e-05 20:2.3000001e-05 21:-9.4000003e-05 22:-9.5000003e-05 23:-9.6000003e-05 24:2.8e-05 25:-9.4000003e-05 26:-9.6000003e-05 27:0.000183 28:7.6999997e-05 29:0 30:0 31:0 32:0 33:0 34:0 35:0 36:0 37:0 38:0 39:0 40:0 41:0 42:0 43:0 44:0 #
-0.00040000000000000001916869440954372 1:0.001523 2:0.0072300001 3:0.001238 4:0.00013 5:0.00039100001 6:0 7:0 8:0 9:0 10:0 11:0 12:0 13:0.001371 14:0 15:-0.00044100001 16:0.00152 17:-0.000447 18:-0.000444 19:-0.000581 20:0.000134 21:-0.00055400003 22:-0.00055900001 23:-0.00056900003 24:0.000165 25:-0.00055699999 26:-0.00056499999 27:0.001371 28:0.00039100001 29:0.00026100001 30:0 31:0 32:0 33:0 34:0 35:0 36:0 37:0 38:0 39:0 40:0 41:0 42:0 43:0 44:0 #
-0.00040000000000000001916869440954372 1:0.00016700001 2:0.002602 3:7.6999997e-05 4:2.1e-05 5:2.8e-05 6:0 7:0 8:0 9:0 10:0 11:0 12:0 13:0.00015000001 14:0 15:-0.000106 16:1e-06 17:-9.0000001e-05 18:-7.1000002e-05 19:-6.1999999e-05 20:1.4e-05 21:-5.9000002e-05 22:-5.9999998e-05 23:-6.0999999e-05 24:1.8000001e-05 25:-5.9999998e-05 26:-6.0999999e-05 27:0.00015000001 28:5.6000001e-05 29:0 30:0 31:0 32:0 33:0 34:0 35:0 36:0 37:0 38:0 39:0 40:0 41:0 42:0.000166 43:0.000182 44:0.00012 #
-0.00040000000000000001916869440954372 1:5.1999999e-05 2:0.0015369999 3:4.9999999e-06 4:4.9999999e-06 5:1.4e-05 6:0 7:0 8:0 9:0 10:0 11:0 12:0 13:4.7000001e-05 14:0 15:-3.6000001e-05 16:0 17:-3.1e-05 18:-2.4000001e-05 19:-2.1e-05 20:4.9999999e-06 21:-1.9999999e-05 22:-1.9999999e-05 23:-2.1e-05 24:6.0000002e-06 25:-1.9999999e-05 26:-2.1e-05 27:4.7000001e-05 28:2.9000001e-05 29:0 30:0 31:0 32:0 33:0 34:0 35:0 36:0 37:0 38:0 39:0 40:0 41:0 42:0 43:0 44:0 #
-0.00040000000000000001916869440954372 1:0.000121 2:0.002452 3:6.7000001e-05 4:1.8000001e-05 5:4.3e-05 6:0 7:0 8:0 9:0 10:0 11:0 12:0 13:0.000109 14:0 15:-9.2000002e-05 16:0 17:-7.8999998e-05 18:-6.1999999e-05 19:-5.4e-05 20:1.3e-05 21:-5.1999999e-05 22:-5.1999999e-05 23:-5.3e-05 24:1.5e-05 25:-5.1999999e-05 26:-5.3e-05 27:0.000109 28:7.8999998e-05 29:0 30:0 31:0 32:0 33:0 34:0 35:0 36:0 37:0 38:0 39:0 40:0 41:0 42:0 43:0 44:0 #
-0.00040000000000000001916869440954372 1:0.00087599998 2:0.0058470001 3:0.000203 4:0.000162 5:0.000162 6:1e-06 7:0 8:0 9:0 10:0 11:0 12:0 13:0.000856 14:0 15:-0.000382 16:0.00050899998 17:-0.00034599999 18:-0.000351 19:-0.00036199999 20:8.3999999e-05 21:-0.00034599999 22:-0.00034900001 23:-0.000333 24:0.00036199999 25:-0.000329 26:-0.00033000001 27:0.00085800001 28:0.00056900003 29:8.0999998e-05 30:8.0999998e-05 31:4.0999999e-05 32:0 33:0 34:0 35:0 36:0 37:0 38:0 39:0 40:0 41:0 42:0.000887 43:0.00093600003 44:0.00077300001 #
-0.00040000000000000001916869440954372 1:0.000214 2:0.0032230001 3:1.1e-05 4:1.1e-05 5:9.7999997e-05 6:0 7:0 8:0 9:0 10:0 11:0 12:0 13:0.000193 14:0 15:-0.000164 16:1e-06 17:-0.00014 18:-0.000111 19:-9.6999996e-05 20:2.2e-05 21:-9.2000002e-05 22:-9.3000002e-05 23:-9.5000003e-05 24:2.7e-05 25:-9.3000002e-05 26:-9.4000003e-05 27:0.000193 28:0.00032600001 29:0 30:0 31:0 32:0 33:0 34:0 35:0 36:0 37:0 38:0 39:0 40:0 41:0 42:0.00020900001 43:0.000207 44:0.000165 #
-0.00040000000000000001916869440954372 1:0.0032299999 2:0.010759 3:0 4:0.00086799997 5:0.00086799997 6:0 7:0 8:0 9:0 10:0 11:0 12:0 13:0.002907 14:0 15:-0.002628 16:1.3e-05 17:-0.002234 18:-0.001774 19:-0.001548 20:0.00035700001 21:-0.001477 22:-0.001489 23:-0.001517 24:0.00044 25:-0.001484 26:-0.0015059999 27:0.002907 28:0 29:0 30:0 31:0 32:0 33:0 34:0 35:0 36:0 37:0 38:0 39:0 40:0 41:0 42:0 43:0 44:0 #
-0.00040000000000000001916869440954372 1:1.8999999e-05 2:0.001028 3:3.0000001e-06 4:3.0000001e-06 5:1.1e-05 6:0 7:0 8:0 9:0 10:0 11:0 12:0 13:1.7e-05 14:0 15:-1.6e-05 16:0 17:-1.4e-05 18:-1.1e-05 19:-9.0000003e-06 20:2e-06 21:-9.0000003e-06 22:-9.0000003e-06 23:-9.0000003e-06 24:8e-06 25:-9.0000003e-06 26:-9.0000003e-06 27:1.7e-05 28:5.7000001e-05 29:0 30:1e-06 31:0 32:0 33:0 34:0 35:0 36:0 37:0 38:0 39:0 40:0 41:0 42:0 43:0 44:0 #
-0.00040000000000000001916869440954372 1:0.000116 2:0.00211 3:9.6000003e-05 4:1.8000001e-05 5:3.6000001e-05 6:0 7:0 8:0 9:0 10:0 11:0 12:0 13:0.000104 14:0 15:-3.8999999e-05 16:5.9999998e-05 17:-3.7000002e-05 18:-3.7999998e-05 19:-3.5000001e-05 20:4.3e-05 21:-3.5000001e-05 22:-3.5000001e-05 23:-3.5000001e-05 24:4.2e-05 25:-3.5000001e-05 26:-3.5000001e-05 27:0.000104 28:8.1999999e-05 29:9.0000003e-06 30:4.9999999e-06 31:0 32:0 33:0 34:0 35:0 36:0 37:0 38:0 39:0 40:0 41:0 42:0.000117 43:0.000113 44:8.9000001e-05 #
-0.00040000000000000001916869440954372 1:0.004735 2:0.0034459999 3:0.0020099999 4:0.001436 5:0.001149 6:1.4e-05 7:0 8:0 9:0 10:0 11:0 12:0 13:0.0042619999 14:0 15:-0.0015679999 16:0.0086239995 17:-0.001504 18:-0.0014750001 19:-0.001432 20:0.0053010001 21:-0.001618 22:-0.001432 23:-0.001438 24:0.0049220002 25:-0.0015970001 26:-0.001438 27:0.0042619999 28:0.000287 29:0.00057400001 30:0.000287 31:0 32:0 33:1e-06 34:0 35:0 36:0 37:1.7e-05 38:4.9999999e-06 39:0 40:0 41:0 42:0.0048000002 43:0.0046669999 44:0.004098 #
-0.00040000000000000001916869440954372 1:0.000134 2:0.002379 3:0 4:1.7e-05 5:2.9000001e-05 6:0 7:0 8:0 9:0 10:0 11:0 12:0 13:0.000121 14:0 15:-8.7e-05 16:0 17:-7.4000003e-05 18:-5.9000002e-05 19:-5.0999999e-05 20:1.2e-05 21:-4.8999998e-05 22:-4.8999998e-05 23:-4.7000001e-05 24:4.4e-05 25:-4.7000001e-05 26:-4.7000001e-05 27:0.000121 28:6.9000002e-05 29:0 30:6.0000002e-06 31:6.0000002e-06 32:0 33:0 34:0 35:0 36:0 37:0 38:0 39:0 40:0 41:0 42:0 43:0 44:0 #
-0.00040000000000000001916869440954372 1:0.010567 2:0 3:0.0050349999 4:0.0044760001 5:0.003357 6:0 7:0 8:0 9:0 10:0 11:0 12:1e-06 13:0 14:0 15:-0.0084720002 16:4.2e-05 17:-0.0072010001 18:-0.005719 19:-0.0049919998 20:0.001152 21:-0.0047610002 22:-0.0048019998 23:-0.0048910002 24:0.001417 25:-0.0047860001 26:-0.0048549999 27:0.0095100002 28:0 29:0 30:0 31:0 32:0 33:0 34:0 35:0 36:0 37:0 38:0 39:0 40:0 41:0 42:0 43:0 44:0 #
-0.00040000000000000001916869440954372 1:0.002598 2:0.0087550003 3:0.001068 4:0.00064099999 5:0.00064099999 6:0 7:0 8:0 9:0 10:0 11:0 12:0 13:0.0023380001 14:0 15:-0.00090400001 16:0.001492 17:-0.00086199999 18:-0.00087400002 19:-0.00081400003 20:0.001004 21:-0.00081599999 22:-0.00081400003 23:-0.00083600002 24:0.000826 25:-0.00082999998 26:-0.00083600002 27:0.0023380001 28:0.00031999999 29:0.000214 30:0.000107 31:0 32:0 33:0 34:0 35:0 36:0 37:0 38:0 39:0 40:0 41:0 42:0 43:0 44:0 #
-0.00040000000000000001916869440954372 1:0.001817 2:0.0082989996 3:0.00051300001 4:0.00034200001 5:0.00051300001 6:0 7:0 8:0 9:0 10:0 11:0 12:0 13:0.001635 14:0 15:-0.001296 16:6.0000002e-06 17:-0.001101 18:-0.00087500003 19:-0.00076299999 20:0.000176 21:-0.00072800001 22:-0.000734 23:-0.00074799999 24:0.00021699999 25:-0.00073199999 26:-0.000742 27:0.001635 28:0.00059900002 29:0 30:0 31:0 32:0 33:0 34:0 35:0 36:0 37:0 38:0 39:0 40:0 41:0 42:0 43:0 44:0 #
-0.00040000000000000001916869440954372 1:0.00016900001 2:0.0026159999 3:0 4:4.2e-05 5:4.2e-05 6:0 7:0 8:0 9:0 10:0 11:0 12:0 13:0.00015199999 14:0 15:-0.000106 16:1e-06 17:-9.0000001e-05 18:-7.2000003e-05 19:-5.4e-05 20:6.0999999e-05 21:-5.4e-05 22:-5.4e-05 23:-5.5e-05 24:5.4e-05 25:-5.4e-05 26:-5.5e-05 27:0.00015199999 28:0.00015399999 29:0 30:7.0000001e-06 31:0 32:0 33:0 34:0 35:0 36:0 37:0 38:0 39:0 40:0 41:0 42:0 43:0 44:0 #
-0.00040000000000000001916869440954372 1:0.001442 2:0.0082660001 3:0.000161 4:0.000321 5:0.000241 6:0 7:0 8:0 9:0 10:0 11:0 12:0 13:0.001298 14:0 15:-0.0012150001 16:6.0000002e-06 17:-0.0010329999 18:-0.00082000002 19:-0.00071599998 20:0.000165 21:-0.00068300002 22:-0.00068900001 23:-0.00070199999 24:0.000203 25:-0.00068699999 26:-0.000696 27:0.001298 28:0.000321 29:0 30:0 31:0 32:0 33:0 34:0 35:0 36:0 37:0 38:0 39:0 40:0 41:0 42:0 43:0 44:0 #
-0.00040000000000000001916869440954372 1:0.000229 2:0.0030990001 3:0.00015199999 4:7.1000002e-05 5:8.0999998e-05 6:0 7:0 8:0 9:0 10:0 11:0 12:0 13:0.000206 14:0 15:-0.000153 16:1e-06 17:-0.00013 18:-0.000104 19:-9.0000001e-05 20:2.1e-05 21:-8.6e-05 22:-8.7e-05 23:-8.9000001e-05 24:2.6e-05 25:-8.7e-05 26:-8.8000001e-05 27:0.000206 28:0.00028400001 29:0 30:0 31:0 32:0 33:0 34:0 35:0 36:0 37:0 38:0 39:0 40:0 41:0 42:0.000245 43:0.000245 44:0.000228 #
-0.00040000000000000001916869440954372 1:0.000379 2:0.0045250002 3:0.000128 4:8.5e-05 5:0.000128 6:0 7:0 8:0 9:0 10:0 11:0 12:0 13:0.00034100001 14:0 15:-0.000176 16:0.00031800001 17:-0.00017100001 18:-0.000172 19:-0.000159 20:0.000243 21:-0.000162 22:-0.000159 23:-0.000165 24:0.00019599999 25:-0.000165 26:-0.000165 27:0.00034100001 28:6.4e-05 29:4.3e-05 30:2.1e-05 31:0 32:0 33:0 34:0 35:0 36:0 37:0 38:0 39:0 40:0 41:0 42:0 43:0 44:0 #
-0.00040000000000000001916869440954372 1:0.00053800002 2:0.005467 3:0.00025400001 4:0.000222 5:0.000191 6:0 7:0 8:0 9:0 10:0 11:0 12:0 13:0.000485 14:0 15:-0.000481 16:2e-06 17:-0.000409 18:-0.000325 19:-0.00028400001 20:6.5e-05 21:-0.00026999999 22:-0.00027300001 23:-0.00027799999 24:8.0999998e-05 25:-0.000272 26:-0.00027600001 27:0.000485 28:0.00012700001 29:0 30:0 31:0 32:0 33:0 34:0 35:0 36:0 37:0 38:0 39:0 40:0 41:0 42:0 43:0 44:0 #
-0.00040000000000000001916869440954372 1:0.001605 2:0.0084450003 3:0.00077599997 4:0.00025899999 5:0.00043099999 6:0 7:0 8:0 9:0 10:0 11:0 12:0 13:0.0014449999 14:0 15:-0.001305 16:6.0000002e-06 17:-0.0011089999 18:-0.00088100001 19:-0.00076899998 20:0.00017699999 21:-0.00073299999 22:-0.00073999999 23:-0.00075299997 24:0.000218 25:-0.00073700002 26:-0.00074799999 27:0.0014449999 28:0.00034500001 29:0 30:0 31:0 32:0 33:0 34:0 35:0 36:0 37:0 38:0 39:0 40:0 41:0 42:0 43:0 44:0 #
-0.00040000000000000001916869440954372 1:0.00151 2:0.0082630003 3:0.000486 4:0.00032399999 5:0.000486 6:0 7:0 8:0 9:0 10:0 11:0 12:0 13:0.001392 14:0 15:-0.00071599998 16:0.00096400001 17:-0.000695 18:-0.00069900003 19:-0.00063800003 20:0.000742 21:-0.00065 22:-0.00063800003 23:-0.00066800002 24:0.00056800002 25:-0.00066899997 26:-0.00066800002 27:0.001392 28:0.00032399999 29:0.000162 30:8.0999998e-05 31:0 32:0 33:0 34:0 35:0 36:0 37:0 38:0 39:0 40:0 41:0 42:0 43:0 44:0 #
-0.00040000000000000001916869440954372 1:0.001806 2:0.0087449998 3:0.00075200002 4:0.00047 5:0.00056399999 6:0 7:0 8:0 9:0 10:0 11:0 12:0 13:0.001626 14:0 15:-0.00085000001 16:0.00105 17:-0.00081300002 18:-0.00082399999 19:-0.00075599999 20:0.00071300002 21:-0.000757 22:-0.00075599999 23:-0.00078399997 24:0.00055599998 25:-0.00077899999 26:-0.00078399997 27:0.001626 28:0.00056399999 29:0.00018800001 30:9.4000003e-05 31:0 32:0 33:0 34:0 35:0 36:0 37:0 38:0 39:0 40:0 41:0 42:0 43:0 44:0 #
-0.00040000000000000001916869440954372 1:2.6e-05 2:0.000826 3:6.0000002e-06 4:1e-06 5:3.0000001e-06 6:0 7:0 8:0 9:0 10:0 11:0 12:0 13:2.4999999e-05 14:0 15:-9.9999997e-06 16:0 17:-9.0000003e-06 18:-7.0000001e-06 19:-6.0000002e-06 20:6.0000002e-06 21:-6.0000002e-06 22:-6.0000002e-06 23:-6.0000002e-06 24:2e-06 25:-6.0000002e-06 26:-6.0000002e-06 27:2.4999999e-05 28:6.6000001e-05 29:0 30:0 31:0 32:0 33:0 34:0 35:0 36:0 37:0 38:0 39:0 40:0 41:0 42:2.6e-05 43:2.6e-05 44:2.1e-05 #
-0.00040000000000000001916869440954372 1:0.001484 2:0.0069229999 3:0.00034900001 4:0.000116 5:0.000233 6:0 7:0 8:0 9:0 10:0 11:0 12:0 13:0.001336 14:0 15:-0.00058499997 16:0.000802 17:-0.00049900002 18:-0.000497 19:-0.00051899999 20:0.00012 21:-0.00049499999 22:-0.00049900002 23:-0.00046899999 24:0.00050199998 25:-0.000478 26:-0.00046899999 27:0.001336 28:0.0010470001 29:5.8000001e-05 30:5.8000001e-05 31:5.8000001e-05 32:0 33:0 34:0 35:0 36:0 37:0 38:0 39:0 40:0 41:0 42:0 43:0 44:0 #
-0.00040000000000000001916869440954372 1:0.00012 2:0.002447 3:4.8999998e-05 4:1.8000001e-05 5:4.8999998e-05 6:0 7:0 8:0 9:0 10:0 11:0 12:0 13:0.000108 14:0 15:-9.2000002e-05 16:0 17:-7.7999997e-05 18:-6.1999999e-05 19:-5.4e-05 20:1.3e-05 21:-5.1999999e-05 22:-5.1999999e-05 23:-5.3e-05 24:1.5e-05 25:-5.1999999e-05 26:-5.3e-05 27:0.000108 28:7.8999998e-05 29:0 30:0 31:0 32:0 33:0 34:0 35:0 36:0 37:0 38:0 39:0 40:0 41:0 42:0 43:0 44:0 #
-0.00040000000000000001916869440954372 1:0.00035300001 2:0.0041660001 3:1.8000001e-05 4:7.2000003e-05 5:0.00014400001 6:0 7:0 8:0 9:0 10:0 11:0 12:0 13:0.000317 14:0 15:-0.00027300001 16:1e-06 17:-0.00023200001 18:-0.000184 19:-0.000161 20:3.7000002e-05 21:-0.000153 22:-0.000155 23:-0.000158 24:4.6000001e-05 25:-0.00015399999 26:-0.00015599999 27:0.000317 28:0.000126 29:0 30:0 31:0 32:0 33:0 34:0 35:0 36:0 37:0 38:0 39:0 40:0 41:0 42:0 43:0 44:0 #
0.099600000000001825961604140502459 1:0.0020669999 2:0.0084739998 3:0.00055300002 4:0.00036800001 5:0.00046099999 6:0 7:0 8:0 9:0 10:0 11:0 12:0 13:0.00186 14:0 15:-0.001395 16:7.0000001e-06 17:-0.001186 18:-0.00094200001 19:-0.00082199997 20:0.00019000001 21:-0.00078399997 22:-0.00079100003 23:-0.00080500002 24:0.000233 25:-0.000788 26:-0.00079899997 27:0.00186 28:0.00055300002 29:0 30:0 31:0 32:0 33:0 34:0 35:0 36:0 37:0 38:0 39:0 40:0 41:0 42:0 43:0 44:0 #
-0.00040000000000000001916869440954372 1:0.002291 2:0.0040830001 3:0.00026100001 4:0.00060799997 5:0.00043399999 6:4e-06 7:0 8:0 9:0 10:0 11:0 12:0 13:0.0020620001 14:0 15:-0.00027600001 16:0.0040310002 17:-0.000287 18:-0.00026999999 19:-0.00077500002 20:0.000179 21:-0.00073899998 22:-0.00074599998 23:-0.000287 24:0.0021019999 25:-0.000379 26:-0.00029200001 27:0.0020620001 28:0.00034699999 29:0.000174 30:0.00026100001 31:8.7e-05 32:0 33:0 34:0 35:0 36:0 37:1e-06 38:0 39:0 40:0 41:0 42:0.002575 43:0.0036879999 44:0.0035230001 #
-0.00040000000000000001916869440954372 1:5.6000001e-05 2:0.001802 3:9.9999997e-06 4:1.3e-05 5:1.9999999e-05 6:0 7:0 8:0 9:0 10:0 11:0 12:0 13:4.9999999e-05 14:0 15:-3.6000001e-05 16:1.5e-05 17:-2.9000001e-05 18:-2.9000001e-05 19:-2.9000001e-05 20:7.0000001e-06 21:-2.8e-05 22:-2.8e-05 23:-2.9000001e-05 24:8e-06 25:-2.8e-05 26:-2.8e-05 27:4.9999999e-05 28:2.6e-05 29:3.0000001e-06 30:0 31:0 32:0 33:0 34:0 35:0 36:0 37:0 38:0 39:0 40:0 41:0 42:0 43:0 44:0 #
-0.00040000000000000001916869440954372 1:5.3e-05 2:0.001671 3:1.1e-05 4:1.4e-05 5:1.1e-05 6:0 7:0 8:0 9:0 10:0 11:0 12:0 13:4.8000002e-05 14:0 15:-2.4000001e-05 16:4.5000001e-05 17:-2.2e-05 18:-2.2e-05 19:-2.1e-05 20:3.2e-05 21:-2.1e-05 22:-2.1e-05 23:-2.2e-05 24:2.4000001e-05 25:-2.2e-05 26:-2.2e-05 27:4.8000002e-05 28:4.5000001e-05 29:6.0000002e-06 30:3.0000001e-06 31:0 32:0 33:0 34:0 35:0 36:0 37:0 38:0 39:0 40:0 41:0 42:5.4e-05 43:4.9999999e-05 44:3.8999999e-05 #
