SVM-light Version V6.02
0 # kernel type
3 # kernel parameter -d 
1 # kernel parameter -g 
1 # kernel parameter -s 
1 # kernel parameter -r 
empty# kernel parameter -u 
44 # highest feature index 
9061 # number of training documents 
635 # number of support vectors plus 1 
0 # threshold b, each following line is a SV (starting with alpha*y)
-0.00010000000000000000479217360238593 1:20.896353 2:76 3:19 4:2 5:2 6:0.026753999 7:0.0014609999 8:0.00066100003 9:2.3000001e-05 10:0.00087400002 11:0.00062399998 12:0.001149 13:20.093742 14:8e-06 15:-15.1426 16:0.074611001 17:-12.8709 18:-10.2224 19:-8.9228201 20:2.0597899 21:-8.5089302 22:-8.5830698 23:-8.7425699 24:2.5332799 25:-8.5541201 26:-8.6767902 27:20.134272 28:2 29:0 30:0 31:0 32:4.4e-05 33:0 34:0 35:0 36:0 37:0.002052 38:1e-06 39:0.001732 40:0.00162 41:0.003974 42:21.009201 43:23.07445 44:35.933041 #docid = 711
-0.00010000000000000000479217360238593 1:19.634592 2:123 3:5 4:4 5:5 6:0 7:0 8:9.1000002e-05 9:2.3000001e-05 10:0.00087400002 11:0.00062399998 12:0.001149 13:19.259861 14:3.0000001e-06 15:-15.1426 16:0.074611001 17:-12.8709 18:-10.2224 19:-8.9228201 20:2.0597899 21:-8.5089302 22:-8.5830698 23:-8.7425699 24:2.5332799 25:-8.5541201 26:-8.6767902 27:19.329853 28:5 29:0 30:0 31:0 32:0.000111 33:0 34:0 35:0 36:0 37:0 38:0 39:0 40:0 41:0 42:0 43:0 44:0 #docid = 20844
-3.618548648873232131961685809074e-05 1:22.400698 2:1540 3:6 4:5 5:5 6:0.0057489998 7:0.002991 8:0.00034 9:2.3000001e-05 10:0.00087400002 11:0.00062399998 12:0.001149 13:20.160627 14:1e-06 15:-15.1426 16:0.074611001 17:-12.8709 18:-10.2224 19:-8.9228201 20:2.0597899 21:-8.5089302 22:-8.5830698 23:-8.7425699 24:2.5332799 25:-8.5541201 26:-8.6767902 27:20.160627 28:30 29:0 30:0 31:0 32:0.000665 33:0 34:0 35:0 36:0 37:0.002114 38:3.0000001e-06 39:0.001684 40:0.0017650001 41:0.001207 42:21.739475 43:22.14694 44:17.255268 #docid = 42249
-0.00010000000000000000479217360238593 1:19.358131 2:307 3:8 4:1 5:6 6:0 7:0 8:0.00034200001 9:2.3000001e-05 10:0.00087400002 11:0.00062399998 12:0.001149 13:17.422318 14:0 15:-3.0239601 16:38.002998 17:-3.9213901 18:-3.0919299 19:-7.55439 20:10.2916 21:-7.6223898 22:-7.55439 23:-7.37918 24:12.7296 25:-7.6833601 26:-7.37918 27:17.422318 28:2 29:3 30:1 31:1 32:4.4e-05 33:0.0026219999 34:0.00062399998 35:0.001149 36:0 37:0 38:0 39:0 40:0 41:0 42:0 43:0 44:0 #docid = 56367
-0.00010000000000000000479217360238593 1:20.264658 2:618 3:10 4:3 5:4 6:0 7:0 8:0.00034100001 9:2.3000001e-05 10:0.00087400002 11:0.00062399998 12:0.001149 13:18.238194 14:0 15:-15.1426 16:0.074611001 17:-12.8709 18:-10.2224 19:-8.9228201 20:2.0597899 21:-8.5089302 22:-8.5830698 23:-8.7425699 24:2.5332799 25:-8.5541201 26:-8.6767902 27:18.238192 28:17 29:0 30:0 31:0 32:0.00037699999 33:0 34:0 35:0 36:0 37:0 38:0 39:0 40:0 41:0 42:0 43:0 44:0 #docid = 60247
-0.00010000000000000000479217360238593 1:17.919785 2:157 3:2 4:5 5:4 6:0 7:0 8:0.00034100001 9:2.3000001e-05 10:0.00087400002 11:0.00062399998 12:0.001149 13:16.127808 14:3.0000001e-06 15:-15.1426 16:0.074611001 17:-12.8709 18:-10.2224 19:-8.9228201 20:2.0597899 21:-8.5089302 22:-8.5830698 23:-8.2966805 24:6.41852 25:-8.2709904 26:-8.2966805 27:16.127806 28:9 29:0 30:1 31:0 32:0.00019999999 33:0 34:0.00062399998 35:0 36:2e-06 37:0 38:0 39:0 40:0 41:0 42:0 43:0 44:0 #docid = 86049
-0.00010000000000000000479217360238593 1:22.529253 2:7243 3:2 4:7 5:7 6:0.0079939999 7:0.00033899999 8:0.000272 9:2.3000001e-05 10:0.00087400002 11:0.00062399998 12:0.001149 13:20.276327 14:0 15:-15.1426 16:0.074611001 17:-12.8709 18:-10.2224 19:-8.1437197 20:6.46175 21:-8.09163 22:-8.1437197 23:-8.38064 24:5.4840002 25:-8.3067102 26:-8.38064 27:20.276327 28:430 29:0 30:1 31:0 32:0.009536 33:0 34:0.00062399998 35:0 36:0 37:1.8999999e-05 38:2e-06 39:0.001716 40:0.001691 41:0.00077799999 42:22.128521 43:21.915361 44:17.868132 #docid = 91669
-0.00010000000000000000479217360238593 1:16.978588 2:225 3:2 4:5 5:4 6:0 7:0 8:0.00034100001 9:2.3000001e-05 10:0.00087400002 11:0.00062399998 12:0.001149 13:16.280939 14:6.0000002e-06 15:-15.1426 16:0.074611001 17:-12.8709 18:-10.2224 19:-8.9228201 20:2.0597899 21:-8.5089302 22:-8.5830698 23:-8.2966805 24:6.41852 25:-8.2709904 26:-8.2966805 27:16.302191 28:11 29:0 30:1 31:0 32:0.000244 33:0 34:0.00062399998 35:0 36:2e-06 37:0 38:0 39:0 40:0 41:0 42:0 43:0 44:0 #docid = 128023
-0.00010000000000000000479217360238593 1:20.087944 2:694 3:7 4:4 5:5 6:0 7:0 8:0.00028400001 9:2.3000001e-05 10:0.00087400002 11:0.00062399998 12:0.001149 13:18.079149 14:3.0000001e-06 15:-15.1426 16:0.074611001 17:-12.8709 18:-10.2224 19:-8.9228201 20:2.0597899 21:-8.5089302 22:-8.5830698 23:-8.7425699 24:2.5332799 25:-8.5541201 26:-8.6767902 27:18.079149 28:9 29:0 30:0 31:0 32:0.00019999999 33:0 34:0 35:0 36:1e-06 37:0 38:0 39:0 40:0 41:0 42:0 43:0 44:0 #docid = 162209
-1.7208796747950061423182432918111e-05 1:16.816626 2:3227 3:7 4:6 5:5 6:0 7:0 8:0.00034100001 9:2.3000001e-05 10:0.00087400002 11:0.00062399998 12:0.001149 13:15.134964 14:6.0000002e-06 15:-15.1426 16:0.074611001 17:-12.8709 18:-10.2224 19:-8.9228201 20:2.0597899 21:-8.5089302 22:-8.5830698 23:-8.7425699 24:2.5332799 25:-8.5541201 26:-8.6767902 27:15.134963 28:41 29:0 30:0 31:0 32:0.00090899999 33:0 34:0 35:0 36:0 37:0 38:0 39:0 40:0 41:0 42:0 43:0 44:0 #docid = 179211
-0.00010000000000000000479217360238593 1:19.793684 2:402 3:11 4:3 5:7 6:0 7:0 8:0.000113 9:2.3000001e-05 10:0.00087400002 11:0.00062399998 12:0.001149 13:17.814316 14:2e-06 15:-15.1426 16:0.074611001 17:-12.8709 18:-10.2224 19:-8.9228201 20:2.0597899 21:-8.5089302 22:-8.5830698 23:-8.7425699 24:2.5332799 25:-8.5541201 26:-8.6767902 27:17.814316 28:13 29:0 30:0 31:0 32:0.00028800001 33:0 34:0 35:0 36:0 37:0 38:0 39:0 40:0 41:0 42:0 43:0 44:0 #docid = 219576
-8.2203625904079845657362185518124e-06 1:19.781656 2:403 3:8 4:3 5:8 6:0 7:0 8:0.000113 9:2.3000001e-05 10:0.00087400002 11:0.00062399998 12:0.001149 13:17.80349 14:0 15:-15.1426 16:0.074611001 17:-12.8709 18:-10.2224 19:-8.9228201 20:2.0597899 21:-8.5089302 22:-8.5830698 23:-8.7425699 24:2.5332799 25:-8.5541201 26:-8.6767902 27:17.80349 28:13 29:0 30:0 31:0 32:0.00028800001 33:0 34:0 35:0 36:0 37:0 38:0 39:0 40:0 41:0 42:0 43:0 44:0 #docid = 254420
0.0027818929439026940722556879848071 1:22.43828 2:92 3:6 4:4 5:5 6:0 7:0 8:0.00027300001 9:2.3000001e-05 10:0.00087400002 11:0.00062399998 12:0.001149 13:20.19445 14:2e-06 15:-15.1426 16:0.074611001 17:-12.8709 18:-10.2224 19:-8.9228201 20:2.0597899 21:-8.5089302 22:-8.5830698 23:-8.7425699 24:2.5332799 25:-8.5541201 26:-8.6767902 27:20.194452 28:6 29:0 30:0 31:0 32:0.00013299999 33:0 34:0 35:0 36:1e-06 37:0 38:0 39:0 40:0 41:0 42:0 43:0 44:0 #docid = 255064
0.00023675640687877957794339744967971 1:32.16539 2:212 3:41 4:7 5:6 6:0.034687001 7:0.00030399999 8:0.00027799999 9:2.3000001e-05 10:0.00087400002 11:0.00062399998 12:0.001149 13:28.948851 14:0 15:-3.2876101 16:43.7654 17:-3.0537701 18:-3.1842799 19:-8.9228201 20:2.0597899 21:-8.5089302 22:-8.5830698 23:-3.16803 24:21.8139 25:-4.0412698 26:-3.1294701 27:28.948851 28:11 29:12 30:2 31:0 32:0.000244 33:0.01049 34:0.001248 35:0 36:0 37:0.005839 38:1.6e-05 39:0.002756 40:0.002508 41:0.001058 42:32.251579 43:31.737078 44:28.400898 #docid = 301206
-0.00030000000000000002792904796322659 1:17.281425 2:8813 3:9 4:6 5:5 6:0.0046839998 7:0.00030399999 8:0.00035399999 9:2.3000001e-05 10:0.00087400002 11:0.00062399998 12:0.001149 13:15.553282 14:1e-06 15:-5.00703 16:28.8262 17:-5.4138198 18:-5.0840998 19:-4.7321701 20:22.0287 21:-5.3238602 22:-4.84373 23:-4.64011 24:22.4533 25:-5.2318702 26:-4.7516799 27:15.553283 28:64 29:2 30:2 31:0 32:0.001419 33:0.001748 34:0.001248 35:0 36:0 37:0.00072200003 38:1.6e-05 39:0.001362 40:0.001442 41:0.00058499997 42:16.668026 43:15.896372 44:9.7473574 #docid = 310500
-0.00010000000000000000479217360238593 1:33.959373 2:85 3:2 4:3 5:5 6:0 7:0 8:0.00027300001 9:2.3000001e-05 10:0.00087400002 11:0.00062399998 12:0.001149 13:30.563437 14:0 15:-8.5313301 16:10.9781 17:-8.6788702 18:-8.5313301 19:-8.9228201 20:2.0597899 21:-8.5089302 22:-8.5830698 23:-8.2409697 24:7.0163498 25:-8.2526398 26:-8.2409697 27:30.563435 28:9 29:1 30:1 31:0 32:0.00019999999 33:0.00087400002 34:0.00062399998 35:0 36:0 37:0 38:0 39:0 40:0 41:0 42:0 43:0 44:0 #docid = 357109
-0.00010000000000000000479217360238593 1:27.854769 2:7713 3:5 4:3 5:7 6:0.0042460002 7:0 8:0.00034 9:2.3000001e-05 10:0.00087400002 11:0.00062399998 12:0.001149 13:26.038971 14:0 15:-15.1426 16:0.074611001 17:-12.8709 18:-10.2224 19:-7.9910998 20:9.5347004 21:-7.90165 22:-7.9250398 23:-8.1691303 24:7.7369699 25:-8.2339497 26:-8.1691303 27:26.038971 28:395 29:0 30:1 31:1 32:0.0087599996 33:0 34:0.00062399998 35:0.001149 36:0 37:0.000107 38:0 39:0.0021240001 40:0.0019950001 41:0.00088499999 42:27.127111 43:26.510605 44:20.137907 #docid = 372054
-0.00020000000000000000958434720477186 1:22.173775 2:8656 3:1 4:7 5:5 6:0.0093240002 7:0.00070400001 8:0.00027300001 9:2.3000001e-05 10:0.00087400002 11:0.00062399998 12:0.001149 13:22.12488 14:1e-06 15:-7.78404 16:14.1754 17:-8.0883598 18:-7.78404 19:-7.6262999 20:9.4021101 21:-7.6410799 22:-7.6262999 23:-6.3348098 24:12.6534 25:-6.7519698 26:-6.3348098 27:22.124878 28:508 29:1 30:2 31:1 32:0.011266 33:0.00087400002 34:0.001248 35:0.001149 36:0 37:0.001132 38:6.0000002e-06 39:0.00167 40:0.001821 41:0.00080899999 42:21.764816 43:21.705864 44:17.908504 #docid = 377820
-2.0278298075604439532071410212666e-05 1:21.43078 2:4924 3:1 4:10 5:5 6:0.0093240002 7:0.00070400001 8:0.00027300001 9:2.3000001e-05 10:0.00087400002 11:0.00062399998 12:0.001149 13:20.480431 14:1e-06 15:-15.1426 16:0.074611001 17:-12.8709 18:-10.2224 19:-8.9228201 20:2.0597899 21:-8.5089302 22:-8.5830698 23:-8.4695702 24:4.5009999 25:-8.3579998 26:-8.4695702 27:20.480429 28:198 29:0 30:1 31:0 32:0.0043910001 33:0 34:0.00062399998 35:0 36:0 37:0.00097499997 38:4.9999999e-06 39:0.001603 40:0.001758 41:0.00076299999 42:20.744011 43:20.534533 44:15.13169 #docid = 385409
-0.00010000000000000000479217360238593 1:17.314131 2:471 3:4 4:1 5:5 6:0 7:0 8:0.000344 9:2.3000001e-05 10:0.00087400002 11:0.00062399998 12:0.001149 13:15.582718 14:0 15:-15.1426 16:0.074611001 17:-12.8709 18:-10.2224 19:-8.9228201 20:2.0597899 21:-8.5089302 22:-8.5830698 23:-8.7425699 24:2.5332799 25:-8.5541201 26:-8.6767902 27:15.582717 28:8 29:0 30:0 31:0 32:0.00017699999 33:0 34:0 35:0 36:0 37:0 38:0 39:0 40:0 41:0 42:0 43:0 44:0 #docid = 396138
-0.00010000000000000000479217360238593 1:24.290007 2:288 3:0 4:5 5:5 6:0 7:0 8:0.00027300001 9:2.3000001e-05 10:0.00087400002 11:0.00062399998 12:0.001149 13:21.861006 14:2e-06 15:-15.1426 16:0.074611001 17:-12.8709 18:-10.2224 19:-8.3333197 20:5.2918401 21:-8.1438103 22:-8.2449303 23:-8.2966805 24:6.41852 25:-8.2709904 26:-8.2966805 27:21.861006 28:18 29:0 30:1 31:0 32:0.00039900001 33:0 34:0.00062399998 35:0 36:0 37:0 38:0 39:0 40:0 41:0 42:0 43:0 44:0 #docid = 523172
-3.182742130750093600966010853881e-05 1:18.720207 2:3570 3:7 4:10 5:5 6:0 7:0 8:0.00027399999 9:2.3000001e-05 10:0.00087400002 11:0.00062399998 12:0.001149 13:16.848186 14:0 15:-8.8057098 16:9.7816401 17:-8.7529802 18:-8.8057098 19:-8.1437197 20:6.46175 21:-8.09163 22:-8.1437197 23:-8.5317297 24:4.7870202 25:-8.3411903 26:-8.4433098 27:16.848186 28:72 29:1 30:1 31:0 32:0.0015970001 33:0.00087400002 34:0.00062399998 35:0 36:0 37:0 38:0 39:0 40:0 41:0 42:0 43:0 44:0 #docid = 572237
-0.00010000000000000000479217360238593 1:22.888491 2:153 3:1 4:6 5:5 6:0 7:0 8:0.00028400001 9:2.3000001e-05 10:0.00087400002 11:0.00062399998 12:0.001149 13:20.59964 14:2e-06 15:-15.1426 16:0.074611001 17:-12.8709 18:-10.2224 19:-8.9228201 20:2.0597899 21:-8.5089302 22:-8.5830698 23:-8.7425699 24:2.5332799 25:-8.5541201 26:-8.6767902 27:20.599642 28:9 29:0 30:0 31:0 32:0.00019999999 33:0 34:0 35:0 36:0 37:0 38:0 39:0 40:0 41:0 42:0 43:0 44:0 #docid = 666686
-0.00010000000000000000479217360238593 1:35.076 2:104 3:1 4:4 5:4 6:0 7:0 8:0.00034200001 9:2.3000001e-05 10:0.00087400002 11:0.00062399998 12:0.001149 13:31.568401 14:1e-06 15:-7.78404 16:14.1754 17:-8.0883598 18:-7.78404 19:-8.9228201 20:2.0597899 21:-8.5089302 22:-8.5830698 23:-7.7257299 24:9.1726904 25:-7.74051 26:-7.7257299 27:31.568399 28:9 29:1 30:1 31:2 32:0.00019999999 33:0.00087400002 34:0.00062399998 35:0.002299 36:0 37:0 38:0 39:0 40:0 41:0 42:0 43:0 44:0 #docid = 685302
-0.00010000000000000000479217360238593 1:21.073296 2:1385 3:10 4:8 5:5 6:0 7:0 8:0.00027300001 9:2.3000001e-05 10:0.00087400002 11:0.00062399998 12:0.001149 13:18.965967 14:1e-06 15:-9.2829599 16:8.4072704 17:-8.8547602 18:-8.97859 19:-8.2155399 20:5.6317101 21:-8.1267204 22:-8.2155399 23:-8.41395 24:5.1118698 25:-8.3240995 26:-8.41395 27:18.965965 28:77 29:1 30:1 31:0 32:0.001708 33:0.00087400002 34:0.00062399998 35:0 36:0 37:0 38:0 39:0 40:0 41:0 42:0 43:0 44:0 #docid = 688615
-0.00010000000000000000479217360238593 1:20.215759 2:1963 3:2 4:5 5:3 6:0.0044280002 7:0.00031100001 8:0.00034100001 9:2.3000001e-05 10:0.00087400002 11:0.00062399998 12:0.001149 13:18.194183 14:0 15:-15.1426 16:0.074611001 17:-12.8709 18:-10.2224 19:-8.9228201 20:2.0597899 21:-8.5089302 22:-8.5830698 23:-8.7425699 24:2.5332799 25:-8.5541201 26:-8.6767902 27:18.194183 28:87 29:0 30:0 31:0 32:0.001929 33:0 34:0 35:0 36:0 37:2.4000001e-05 38:3.0000001e-06 39:0.001593 40:0.001534 41:0.00066000002 42:20.21553 43:18.968937 44:13.860195 #docid = 702217
-0.00010000000000000000479217360238593 1:27.698128 2:88 3:5 4:4 5:9 6:0 7:0 8:0.000227 9:2.3000001e-05 10:0.00087400002 11:0.00062399998 12:0.001149 13:24.928314 14:0 15:-15.1426 16:0.074611001 17:-12.8709 18:-10.2224 19:-8.9228201 20:2.0597899 21:-8.5089302 22:-8.5830698 23:-8.7425699 24:2.5332799 25:-8.5541201 26:-8.6767902 27:24.928314 28:4 29:0 30:0 31:0 32:8.9000001e-05 33:0 34:0 35:0 36:0 37:0 38:0 39:0 40:0 41:0 42:0 43:0 44:0 #docid = 736739
-0.00013675640687877955959869669122497 1:17.208912 2:6706 3:0 4:5 5:8 6:0 7:0 8:0.00021899999 9:2.3000001e-05 10:0.00087400002 11:0.00062399998 12:0.001149 13:16.346901 14:0 15:-15.1426 16:0.074611001 17:-12.8709 18:-10.2224 19:-8.9228201 20:2.0597899 21:-8.5089302 22:-8.5830698 23:-7.7814999 24:8.39114 25:-7.7588601 26:-7.7814999 27:16.346899 28:104 29:0 30:1 31:0 32:0.0023060001 33:0 34:0.00062399998 35:0 36:0 37:0 38:0 39:0 40:0 41:0 42:0 43:0 44:0 #docid = 767164
-0.00020000000000000000958434720477186 1:24.645117 2:64 3:4 4:4 5:9 6:0 7:0 8:0.000227 9:2.3000001e-05 10:0.00087400002 11:0.00062399998 12:0.001149 13:22.180603 14:0 15:-3.3192599 16:36.644199 17:-4.5941401 18:-3.3192599 19:-3.22158 20:26.0404 21:-4.49687 22:-3.22158 23:-3.22505 24:25.7528 25:-4.49933 26:-3.22505 27:22.180605 28:3 29:2 30:2 31:0 32:6.7000001e-05 33:0.001748 34:0.001248 35:0 36:0 37:0 38:0 39:0 40:0 41:0 42:0 43:0 44:0 #docid = 767249
-0.00010000000000000000479217360238593 1:23.566553 2:411 3:5 4:3 5:4 6:0 7:0 8:0.000344 9:2.3000001e-05 10:0.00087400002 11:0.00062399998 12:0.001149 13:21.972824 14:0 15:-8.76019 16:10.0556 17:-8.7349596 18:-8.76019 19:-8.9228201 20:2.0597899 21:-8.5089302 22:-8.5830698 23:-8.1691303 24:7.7369699 25:-8.2339497 26:-8.1691303 27:21.972824 28:12 29:1 30:1 31:1 32:0.00026599999 33:0.00087400002 34:0.00062399998 35:0.001149 36:0 37:0 38:0 39:0 40:0 41:0 42:0 43:0 44:0 #docid = 829180
-0.00010000000000000000479217360238593 1:26.215576 2:299 3:8 4:6 5:5 6:0 7:0 8:8.5e-05 9:2.3000001e-05 10:0.00087400002 11:0.00062399998 12:0.001149 13:23.594019 14:0 15:-3.71573 16:34.326401 17:-4.5110898 18:-3.7541201 19:-3.8428199 20:17.820999 21:-4.4630599 22:-3.8720801 23:-3.52898 24:21.708799 25:-4.5356998 26:-3.52898 27:23.594017 28:22 29:3 30:2 31:0 32:0.00048799999 33:0.0026219999 34:0.001248 35:0 36:0 37:0 38:0 39:0 40:0 41:0 42:0 43:0 44:0 #docid = 839909
-0.00010000000000000000479217360238593 1:31.22463 2:56 3:3 4:3 5:6 6:0 7:0 8:0.00034100001 9:2.3000001e-05 10:0.00087400002 11:0.00062399998 12:0.001149 13:28.102167 14:0 15:-8.6326199 16:10.6523 17:-8.6979198 18:-8.6326199 19:-8.9228201 20:2.0597899 21:-8.5089302 22:-8.5830698 23:-8.7425699 24:2.5332799 25:-8.5541201 26:-8.6767902 27:28.102167 28:12 29:1 30:0 31:0 32:0.00026599999 33:0.00087400002 34:0 35:0 36:0 37:0 38:0 39:0 40:0 41:0 42:0 43:0 44:0 #docid = 901701
0.0012172057796468287171887112663171 1:29.983553 2:898 3:3 4:5 5:5 6:0 7:0 8:0.00028400001 9:2.3000001e-05 10:0.00087400002 11:0.00062399998 12:0.001149 13:26.985197 14:0 15:-15.1426 16:0.074611001 17:-12.8709 18:-10.2224 19:-5.19028 20:15.7407 21:-5.6702299 22:-5.19028 23:-8.7425699 24:2.5332799 25:-8.5541201 26:-8.6767902 27:26.985197 28:68 29:0 30:0 31:0 32:0.001508 33:0 34:0 35:0 36:0 37:0 38:0 39:0 40:0 41:0 42:0 43:0 44:0 #docid = 927939
0.00040000000000000001916869440954372 1:36.812946 2:102 3:2 4:10 5:5 6:0.0048719998 7:0.00069700001 8:0.00027300001 9:2.3000001e-05 10:0.00087400002 11:0.00062399998 12:0.001149 13:33.131653 14:0 15:-15.1426 16:0.074611001 17:-12.8709 18:-10.2224 19:-3.5255499 20:22.2024 21:-4.5332298 22:-3.5255499 23:-3.0885401 24:26.694799 25:-3.9861901 26:-3.29109 27:33.131649 28:16 29:0 30:5 31:1 32:0.000355 33:0 34:0.003121 35:0.001149 36:0 37:0.00033400001 38:4.9999999e-06 39:0.0027399999 40:0.002877 41:0.001282 42:36.236259 43:37.501396 44:32.170135 #docid = 970634
-0.00010000000000000000479217360238593 1:24.273647 2:1513 3:4 4:7 5:5 6:0.0048719998 7:0.00102 8:0.00027300001 9:2.3000001e-05 10:0.00087400002 11:0.00062399998 12:0.001149 13:21.846283 14:0 15:-5.0252099 16:26.2988 17:-5.6717701 18:-5.0252099 19:-4.9875598 20:18.4617 21:-5.6338601 22:-4.9875598 23:-3.64451 24:20.1285 25:-4.5534 26:-3.64451 27:21.846281 28:77 29:1 30:2 31:1 32:0.001708 33:0.00087400002 34:0.001248 35:0.001149 36:0 37:0.00033400001 38:4.9999999e-06 39:0.001807 40:0.001954 41:0.00089700002 42:23.839418 43:24.458092 44:19.63542 #docid = 971902
-0.00010000000000000000479217360238593 1:35.303352 2:141 3:1 4:8 5:5 6:0.0048719998 7:0.0019799999 8:0.00027300001 9:2.3000001e-05 10:0.00087400002 11:0.00062399998 12:0.001149 13:31.773016 14:0 15:-15.1426 16:0.074611001 17:-12.8709 18:-10.2224 19:-3.22158 20:26.0404 21:-4.49687 22:-3.22158 23:-3.4087901 24:22.6082 25:-4.38205 26:-3.4714999 27:31.773016 28:19 29:0 30:3 31:1 32:0.000421 33:0 34:0.0018729999 35:0.001149 36:0 37:0.00033400001 38:6.0000002e-06 39:0.002628 40:0.0027379999 41:0.00137 42:34.664722 43:35.8965 44:30.610949 #docid = 973692
-8.5378358339327498072179878363386e-05 1:18.96591 2:4142 3:0 4:6 5:5 6:0.0047800001 7:0.00070400001 8:0.00027300001 9:2.3000001e-05 10:0.00087400002 11:0.00062399998 12:0.001149 13:17.069319 14:0 15:-15.1426 16:0.074611001 17:-12.8709 18:-10.2224 19:-8.0424604 20:7.5787401 21:-8.0552597 22:-8.0424604 23:-8.2219896 24:7.9637699 25:-8.1353598 26:-8.2076302 27:17.069319 28:196 29:0 30:2 31:0 32:0.0043469998 33:0 34:0.001248 35:0 36:0 37:9.7999997e-05 38:4e-06 39:0.001408 40:0.001581 41:0.00068599998 42:18.402792 43:18.381723 44:13.910697 #docid = 997384
-0.00010000000000000000479217360238593 1:22.932804 2:3405 3:3 4:6 5:5 6:0.0047800001 7:0.00070400001 8:0.00027300001 9:2.3000001e-05 10:0.00087400002 11:0.00062399998 12:0.001149 13:20.639524 14:0 15:-15.1426 16:0.074611001 17:-12.8709 18:-10.2224 19:-8.9228201 20:2.0597899 21:-8.5089302 22:-8.5830698 23:-8.38064 24:5.4840002 25:-8.3067102 26:-8.38064 27:20.639523 28:183 29:0 30:1 31:0 32:0.0040589999 33:0 34:0.00062399998 35:0 36:0 37:9.7999997e-05 38:4e-06 39:0.001702 40:0.001865 41:0.00081200001 42:22.28772 43:22.158419 44:16.873917 #docid = 997752
-0.00010000000000000000479217360238593 1:20.233328 2:5698 3:3 4:7 5:5 6:0.0047800001 7:0.00070400001 8:0.00027300001 9:2.3000001e-05 10:0.00087400002 11:0.00062399998 12:0.001149 13:18.209993 14:0 15:-15.1426 16:0.074611001 17:-12.8709 18:-10.2224 19:-8.9228201 20:2.0597899 21:-8.5089302 22:-8.5830698 23:-8.38064 24:5.4840002 25:-8.3067102 26:-8.38064 27:18.209995 28:79 29:0 30:1 31:0 32:0.001752 33:0 34:0.00062399998 35:0 36:0 37:0.00073299999 38:4.9999999e-06 39:0.001504 40:0.001671 41:0.00072499999 42:19.297039 43:18.938416 44:12.015126 #docid = 1004399
-0.00020000000000000000958434720477186 1:21.895788 2:7097 3:3 4:7 5:5 6:0.0047800001 7:0.00070400001 8:0.00027300001 9:2.3000001e-05 10:0.00087400002 11:0.00062399998 12:0.001149 13:19.706209 14:0 15:-15.1426 16:0.074611001 17:-12.8709 18:-10.2224 19:-7.6262999 20:9.4021101 21:-7.6410799 22:-7.6262999 23:-6.3348098 24:12.6534 25:-6.7519698 26:-6.3348098 27:19.706209 28:262 29:0 30:2 31:1 32:0.0058109998 33:0 34:0.001248 35:0.001149 36:0 37:0.000894 38:6.0000002e-06 39:0.001636 40:0.001802 41:0.00079999998 42:21.375832 43:21.281189 44:16.646919 #docid = 1005603
-0.00010000000000000000479217360238593 1:23.628284 2:3244 3:4 4:7 5:5 6:0.0047800001 7:0.00070400001 8:0.00027300001 9:2.3000001e-05 10:0.00087400002 11:0.00062399998 12:0.001149 13:21.265455 14:0 15:-15.1426 16:0.074611001 17:-12.8709 18:-10.2224 19:-7.6262999 20:9.4021101 21:-7.6410799 22:-7.6262999 23:-6.3348098 24:12.6534 25:-6.7519698 26:-6.3348098 27:21.265455 28:126 29:0 30:2 31:1 32:0.0027940001 33:0 34:0.001248 35:0.001149 36:0 37:0.000894 38:6.0000002e-06 39:0.0017659999 40:0.001926 41:0.00085499999 42:23.02644 43:23.036901 44:17.846607 #docid = 1007740
-0.00010000000000000000479217360238593 1:17.585148 2:101 3:7 4:1 5:7 6:0 7:0 8:0.000218 9:2.3000001e-05 10:0.00087400002 11:0.00062399998 12:0.001149 13:15.826633 14:0 15:-15.1426 16:0.074611001 17:-12.8709 18:-10.2224 19:-8.9228201 20:2.0597899 21:-8.5089302 22:-8.5830698 23:-8.7425699 24:2.5332799 25:-8.5541201 26:-8.6767902 27:15.826632 28:3 29:0 30:0 31:0 32:6.7000001e-05 33:0 34:0 35:0 36:0 37:0 38:0 39:0 40:0 41:0 42:0 43:0 44:0 #docid = 1028072
-0.00010000000000000000479217360238593 1:18.799242 2:111 3:5 4:1 5:7 6:0 7:0 8:0.000218 9:2.3000001e-05 10:0.00087400002 11:0.00062399998 12:0.001149 13:16.919317 14:0 15:-15.1426 16:0.074611001 17:-12.8709 18:-10.2224 19:-8.9228201 20:2.0597899 21:-8.5089302 22:-8.5830698 23:-8.7425699 24:2.5332799 25:-8.5541201 26:-8.6767902 27:16.919317 28:5 29:0 30:0 31:0 32:0.000111 33:0 34:0 35:0 36:0 37:0 38:0 39:0 40:0 41:0 42:0 43:0 44:0 #docid = 1032205
-0.00010000000000000000479217360238593 1:17.256063 2:111 3:7 4:1 5:7 6:0 7:0 8:0.000218 9:2.3000001e-05 10:0.00087400002 11:0.00062399998 12:0.001149 13:15.530457 14:0 15:-15.1426 16:0.074611001 17:-12.8709 18:-10.2224 19:-8.9228201 20:2.0597899 21:-8.5089302 22:-8.5830698 23:-8.7425699 24:2.5332799 25:-8.5541201 26:-8.6767902 27:15.530457 28:3 29:0 30:0 31:0 32:6.7000001e-05 33:0 34:0 35:0 36:0 37:0 38:0 39:0 40:0 41:0 42:0 43:0 44:0 #docid = 1032240
-0.00010000000000000000479217360238593 1:17.507526 2:218 3:7 4:4 5:5 6:0 7:0 8:0.00028800001 9:2.3000001e-05 10:0.00087400002 11:0.00062399998 12:0.001149 13:15.756773 14:0 15:-15.1426 16:0.074611001 17:-12.8709 18:-10.2224 19:-8.9228201 20:2.0597899 21:-8.5089302 22:-8.5830698 23:-8.7425699 24:2.5332799 25:-8.5541201 26:-8.6767902 27:15.756773 28:8 29:0 30:0 31:0 32:0.00017699999 33:0 34:0 35:0 36:0 37:0 38:0 39:0 40:0 41:0 42:0 43:0 44:0 #docid = 1033145
-0.00010000000000000000479217360238593 1:16.671593 2:1380 3:1 4:2 5:5 6:0 7:0 8:0.00034 9:2.3000001e-05 10:0.00087400002 11:0.00062399998 12:0.001149 13:15.004434 14:0 15:-15.1426 16:0.074611001 17:-12.8709 18:-10.2224 19:-8.9228201 20:2.0597899 21:-8.5089302 22:-8.5830698 23:-8.7425699 24:2.5332799 25:-8.5541201 26:-8.6767902 27:15.004433 28:19 29:0 30:0 31:0 32:0.000421 33:0 34:0 35:0 36:0 37:0 38:0 39:0 40:0 41:0 42:0 43:0 44:0 #docid = 1035236
-0.00010000000000000000479217360238593 1:18.378944 2:3343 3:2 4:2 5:9 6:0 7:0 8:0.00017499999 9:2.3000001e-05 10:0.00087400002 11:0.00062399998 12:0.001149 13:16.541048 14:0 15:-15.1426 16:0.074611001 17:-12.8709 18:-10.2224 19:-8.9228201 20:2.0597899 21:-8.5089302 22:-8.5830698 23:-8.7425699 24:2.5332799 25:-8.5541201 26:-8.6767902 27:16.54105 28:58 29:0 30:0 31:0 32:0.001286 33:0 34:0 35:0 36:0 37:0 38:0 39:0 40:0 41:0 42:0 43:0 44:0 #docid = 1045118
-0.00010000000000000000479217360238593 1:18.374956 2:106 3:8 4:2 5:7 6:0 7:0 8:0.000218 9:2.3000001e-05 10:0.00087400002 11:0.00062399998 12:0.001149 13:16.53746 14:0 15:-15.1426 16:0.074611001 17:-12.8709 18:-10.2224 19:-8.9228201 20:2.0597899 21:-8.5089302 22:-8.5830698 23:-8.7425699 24:2.5332799 25:-8.5541201 26:-8.6767902 27:16.53746 28:4 29:0 30:0 31:0 32:8.9000001e-05 33:0 34:0 35:0 36:0 37:0 38:0 39:0 40:0 41:0 42:0 43:0 44:0 #docid = 1045913
-0.00010000000000000000479217360238593 1:18.837551 2:156 3:11 4:2 5:7 6:0 7:0 8:0.000218 9:2.3000001e-05 10:0.00087400002 11:0.00062399998 12:0.001149 13:16.953794 14:0 15:-15.1426 16:0.074611001 17:-12.8709 18:-10.2224 19:-8.9228201 20:2.0597899 21:-8.5089302 22:-8.5830698 23:-8.7425699 24:2.5332799 25:-8.5541201 26:-8.6767902 27:16.953796 28:5 29:0 30:0 31:0 32:0.000111 33:0 34:0 35:0 36:0 37:0 38:0 39:0 40:0 41:0 42:0 43:0 44:0 #docid = 1052730
-1.7642580323329326574821607209742e-06 1:11.650114 2:60 3:1 4:1 5:4 6:0 7:0 8:0.00045399999 9:1.5e-05 10:0.00096999999 11:0.001105 12:0.00070199999 13:10.485103 14:2e-06 15:-12.3545 16:0.072105996 17:-11.68 18:-9.2325401 19:-7.6308799 20:1.07188 21:-7.5040598 22:-7.4848099 23:-7.2983799 24:2.41629 25:-7.16681 26:-7.1220102 27:10.485103 28:0 29:0 30:0 31:0 32:0 33:0 34:0 35:0 36:0 37:0 38:0 39:0 40:0 41:0 42:0 43:0 44:0 #docid = 15856
-0.00010000000000000000479217360238593 1:11.020748 2:83 3:5 4:3 5:5 6:0.074028 7:0.0016 8:0.00034599999 9:1.5e-05 10:0.00096999999 11:0.001105 12:0.00070199999 13:9.9186726 14:9.9999997e-06 15:-12.3545 16:0.072105996 17:-11.68 18:-9.2325401 19:-7.6308799 20:1.07188 21:-7.5040598 22:-7.4848099 23:-7.2983799 24:2.41629 25:-7.16681 26:-7.1220102 27:9.9186745 28:1 29:0 30:0 31:0 32:1.5e-05 33:0 34:0 35:0 36:2e-06 37:0.027376 38:0.000379 39:0.0024629999 40:0.0021840001 41:0.000971 42:12.654105 43:13.767941 44:9.5701504 #docid = 24531
-0.00010000000000000000479217360238593 1:11.367858 2:70 3:1 4:1 5:4 6:0 7:0 8:0.00045399999 9:1.5e-05 10:0.00096999999 11:0.001105 12:0.00070199999 13:10.755327 14:2e-06 15:-12.3545 16:0.072105996 17:-11.68 18:-9.2325401 19:-7.6308799 20:1.07188 21:-7.5040598 22:-7.4848099 23:-7.2983799 24:2.41629 25:-7.16681 26:-7.1220102 27:10.755327 28:0 29:0 30:0 31:0 32:0 33:0 34:0 35:0 36:0 37:0 38:0 39:0 40:0 41:0 42:0 43:0 44:0 #docid = 39099
-0.00010000000000000000479217360238593 1:15.431313 2:188 3:0 4:4 5:2 6:0.030989001 7:0.01017 8:0.00056900003 9:1.5e-05 10:0.00096999999 11:0.001105 12:0.00070199999 13:13.88818 14:9.9999997e-06 15:-12.3545 16:0.072105996 17:-11.68 18:-9.2325401 19:-7.6308799 20:1.07188 21:-7.5040598 22:-7.4848099 23:-7.2983799 24:2.41629 25:-7.16681 26:-7.1220102 27:13.888181 28:2 29:0 30:0 31:0 32:2.9000001e-05 33:0 34:0 35:0 36:2e-06 37:0.011478 38:0.000386 39:0.003059 40:0.002932 41:0.0024870001 42:17.329891 43:15.951952 44:15.371403 #docid = 48819
-0.00010000000000000000479217360238593 1:16.193558 2:192 3:5 4:5 5:4 6:0 7:0 8:0.00028099999 9:1.5e-05 10:0.00096999999 11:0.001105 12:0.00070199999 13:14.574202 14:0 15:-5.91116 16:15.695 17:-4.8547702 18:-4.77213 19:-4.8369198 20:10.1194 21:-5.4830899 22:-4.8369198 23:-7.2983799 24:2.41629 25:-7.16681 26:-7.1220102 27:14.574202 28:4 29:1 30:0 31:0 32:5.8000001e-05 33:0.00096999999 34:0 35:0 36:0 37:0 38:0 39:0 40:0 41:0 42:0 43:0 44:0 #docid = 74639
-0.00010000000000000000479217360238593 1:12.195148 2:42 3:1 4:4 5:5 6:0 7:0 8:0.00036400001 9:1.5e-05 10:0.00096999999 11:0.001105 12:0.00070199999 13:11.392029 14:1e-06 15:-12.3545 16:0.072105996 17:-11.68 18:-9.2325401 19:-7.6308799 20:1.07188 21:-7.5040598 22:-7.4848099 23:-7.2983799 24:2.41629 25:-7.16681 26:-7.1220102 27:11.392028 28:0 29:0 30:0 31:0 32:0 33:0 34:0 35:0 36:0 37:0 38:0 39:0 40:0 41:0 42:0 43:0 44:0 #docid = 111950
-0.00010000000000000000479217360238593 1:11.67427 2:406 3:1 4:6 5:4 6:0 7:0 8:0.00034100001 9:1.5e-05 10:0.00096999999 11:0.001105 12:0.00070199999 13:10.506844 14:0 15:-12.3545 16:0.072105996 17:-11.68 18:-9.2325401 19:-7.6308799 20:1.07188 21:-7.5040598 22:-7.4848099 23:-7.2983799 24:2.41629 25:-7.16681 26:-7.1220102 27:10.506843 28:3 29:0 30:0 31:0 32:4.4e-05 33:0 34:0 35:0 36:0 37:0 38:0 39:0 40:0 41:0 42:0 43:0 44:0 #docid = 120976
-4.8209714776037415617793158162385e-05 1:13.158448 2:270 3:1 4:3 5:5 6:0 7:0 8:0.00034100001 9:1.5e-05 10:0.00096999999 11:0.001105 12:0.00070199999 13:11.842603 14:0 15:-12.3545 16:0.072105996 17:-11.68 18:-9.2325401 19:-7.6308799 20:1.07188 21:-7.5040598 22:-7.4848099 23:-7.2983799 24:2.41629 25:-7.16681 26:-7.1220102 27:11.842603 28:3 29:0 30:0 31:0 32:4.4e-05 33:0 34:0 35:0 36:0 37:0 38:0 39:0 40:0 41:0 42:0 43:0 44:0 #docid = 123989
-0.00010000000000000000479217360238593 1:11.535546 2:64 3:1 4:6 5:4 6:0 7:0 8:0.00034100001 9:1.5e-05 10:0.00096999999 11:0.001105 12:0.00070199999 13:10.381991 14:0 15:-12.3545 16:0.072105996 17:-11.68 18:-9.2325401 19:-7.6308799 20:1.07188 21:-7.5040598 22:-7.4848099 23:-7.2983799 24:2.41629 25:-7.16681 26:-7.1220102 27:10.381991 28:1 29:0 30:0 31:0 32:1.5e-05 33:0 34:0 35:0 36:0 37:0 38:0 39:0 40:0 41:0 42:0 43:0 44:0 #docid = 126991
-7.606129016377027873829774762271e-05 1:14.553931 2:543 3:1 4:6 5:4 6:0 7:0 8:0.00034100001 9:1.5e-05 10:0.00096999999 11:0.001105 12:0.00070199999 13:13.098536 14:0 15:-12.3545 16:0.072105996 17:-11.68 18:-9.2325401 19:-7.6308799 20:1.07188 21:-7.5040598 22:-7.4848099 23:-7.2983799 24:2.41629 25:-7.16681 26:-7.1220102 27:13.098537 28:7 29:0 30:0 31:0 32:0.000102 33:0 34:0 35:0 36:0 37:0 38:0 39:0 40:0 41:0 42:0 43:0 44:0 #docid = 131567
-6.9013058504263646852905367268249e-05 1:14.526072 2:408 3:2 4:3 5:6 6:0 7:0 8:8.5e-05 9:1.5e-05 10:0.00096999999 11:0.001105 12:0.00070199999 13:13.073463 14:0 15:-12.3545 16:0.072105996 17:-11.68 18:-9.2325401 19:-7.6308799 20:1.07188 21:-7.5040598 22:-7.4848099 23:-7.2983799 24:2.41629 25:-7.16681 26:-7.1220102 27:13.073464 28:4 29:0 30:0 31:0 32:5.8000001e-05 33:0 34:0 35:0 36:0 37:0 38:0 39:0 40:0 41:0 42:0 43:0 44:0 #docid = 133114
-1.7334331599011425791392101286581e-06 1:17.574842 2:2002 3:2 4:6 5:4 6:0 7:0 8:0.00034100001 9:1.5e-05 10:0.00096999999 11:0.001105 12:0.00070199999 13:15.817357 14:0 15:-12.3545 16:0.072105996 17:-11.68 18:-9.2325401 19:-7.6308799 20:1.07188 21:-7.5040598 22:-7.4848099 23:-7.2983799 24:2.41629 25:-7.16681 26:-7.1220102 27:15.817358 28:55 29:0 30:0 31:0 32:0.00079800002 33:0 34:0 35:0 36:0 37:0 38:0 39:0 40:0 41:0 42:0 43:0 44:0 #docid = 136990
-0.00010000000000000000479217360238593 1:10.978096 2:281 3:5 4:5 5:4 6:0 7:0 8:0.000432 9:1.5e-05 10:0.00096999999 11:0.001105 12:0.00070199999 13:9.8802853 14:3.0000001e-06 15:-12.3545 16:0.072105996 17:-11.68 18:-9.2325401 19:-7.6308799 20:1.07188 21:-7.5040598 22:-7.4848099 23:-7.2983799 24:2.41629 25:-7.16681 26:-7.1220102 27:9.8802862 28:2 29:0 30:0 31:0 32:2.9000001e-05 33:0 34:0 35:0 36:1e-06 37:0 38:0 39:0 40:0 41:0 42:0 43:0 44:0 #docid = 154853
-4.6689279776512747853998985814172e-06 1:10.161524 2:119 3:6 4:4 5:5 6:0 7:0 8:0.00034599999 9:1.5e-05 10:0.00096999999 11:0.001105 12:0.00070199999 13:10.20809 14:1e-06 15:-12.3545 16:0.072105996 17:-11.68 18:-9.2325401 19:-7.6308799 20:1.07188 21:-7.5040598 22:-7.4848099 23:-7.2983799 24:2.41629 25:-7.16681 26:-7.1220102 27:10.225324 28:1 29:0 30:0 31:0 32:1.5e-05 33:0 34:0 35:0 36:0 37:0 38:0 39:0 40:0 41:0 42:0 43:0 44:0 #docid = 180838
-0.00020000000000000000958434720477186 1:13.798415 2:6690 3:5 4:8 5:7 6:0 7:0 8:0.00022099999 9:1.5e-05 10:0.00096999999 11:0.001105 12:0.00070199999 13:12.418574 14:1e-06 15:-12.3545 16:0.072105996 17:-11.68 18:-9.2325401 19:-7.6308799 20:1.07188 21:-7.5040598 22:-7.4848099 23:-7.2983799 24:2.41629 25:-7.16681 26:-7.1220102 27:12.418573 28:61 29:0 30:0 31:0 32:0.00088499999 33:0 34:0 35:0 36:0 37:0 38:0 39:0 40:0 41:0 42:0 43:0 44:0 #docid = 182951
-7.3526068922191711862978991121054e-07 1:11.535546 2:64 3:1 4:1 5:4 6:0 7:0 8:0.00034 9:1.5e-05 10:0.00096999999 11:0.001105 12:0.00070199999 13:10.381991 14:0 15:-12.3545 16:0.072105996 17:-11.68 18:-9.2325401 19:-7.6308799 20:1.07188 21:-7.5040598 22:-7.4848099 23:-7.2983799 24:2.41629 25:-7.16681 26:-7.1220102 27:10.381991 28:0 29:0 30:0 31:0 32:0 33:0 34:0 35:0 36:0 37:0 38:0 39:0 40:0 41:0 42:0 43:0 44:0 #docid = 189990
-0.00010000000000000000479217360238593 1:10.377846 2:333 3:8 4:6 5:6 6:0 7:0 8:0.00027300001 9:1.5e-05 10:0.00096999999 11:0.001105 12:0.00070199999 13:9.3400602 14:1e-06 15:-12.3545 16:0.072105996 17:-11.68 18:-9.2325401 19:-7.6308799 20:1.07188 21:-7.5040598 22:-7.4848099 23:-7.2983799 24:2.41629 25:-7.16681 26:-7.1220102 27:9.3400612 28:1 29:0 30:0 31:0 32:1.5e-05 33:0 34:0 35:0 36:0 37:0 38:0 39:0 40:0 41:0 42:0 43:0 44:0 #docid = 195979
-5.6132470713787796512406202964485e-06 1:10.994923 2:84 3:1 4:1 5:4 6:0 7:0 8:0.00034 9:1.5e-05 10:0.00096999999 11:0.001105 12:0.00070199999 13:9.8954306 14:0 15:-12.3545 16:0.072105996 17:-11.68 18:-9.2325401 19:-7.6308799 20:1.07188 21:-7.5040598 22:-7.4848099 23:-7.2983799 24:2.41629 25:-7.16681 26:-7.1220102 27:9.8954306 28:0 29:0 30:0 31:0 32:0 33:0 34:0 35:0 36:0 37:0 38:0 39:0 40:0 41:0 42:0 43:0 44:0 #docid = 210036
-0.00030000000000000002792904796322659 1:18.48687 2:7756 3:11 4:4 5:4 6:0.048312999 7:0 8:0.00031900001 9:1.5e-05 10:0.00096999999 11:0.001105 12:0.00070199999 13:16.638184 14:2e-06 15:-5.3497601 16:13.3008 17:-5.03371 18:-5.0275102 19:-7.6308799 20:1.07188 21:-7.5040598 22:-7.4848099 23:-5.03654 24:10.0009 25:-5.6828098 26:-5.03654 27:16.638182 28:309 29:1 30:1 31:0 32:0.0044849999 33:0.00096999999 34:0.001105 35:0 36:0 37:0.017573001 38:0 39:0.004338 40:0.0032210001 41:0.001284 42:18.38633 43:18.166441 44:15.678314 #docid = 213235
-3.6893357892707495269621342792732e-05 1:19.710245 2:201 3:8 4:2 5:5 6:0.015830001 7:0.0048639998 8:0.00034599999 9:1.5e-05 10:0.00096999999 11:0.001105 12:0.00070199999 13:17.73922 14:0 15:-5.5728898 16:11.8684 17:-5.1978598 18:-5.13907 19:-7.6308799 20:1.07188 21:-7.5040598 22:-7.4848099 23:-4.8927102 24:11.0281 25:-5.6641202 26:-4.8927102 27:17.73922 28:25 29:1 30:1 31:0 32:0.000363 33:0.00096999999 34:0.001105 35:0 36:0 37:0.0057049999 38:0.000379 39:0.0035550001 40:0.0037779999 41:0.002174 42:19.643274 43:19.625423 44:18.840347 #docid = 216765
-0.00010000000000000000479217360238593 1:10.994923 2:84 3:1 4:1 5:5 6:0 7:0 8:0.00031100001 9:1.5e-05 10:0.00096999999 11:0.001105 12:0.00070199999 13:9.8954306 14:0 15:-12.3545 16:0.072105996 17:-11.68 18:-9.2325401 19:-7.6308799 20:1.07188 21:-7.5040598 22:-7.4848099 23:-7.2983799 24:2.41629 25:-7.16681 26:-7.1220102 27:9.8954306 28:1 29:0 30:0 31:0 32:1.5e-05 33:0 34:0 35:0 36:0 37:0 38:0 39:0 40:0 41:0 42:0 43:0 44:0 #docid = 241661
-0.00010000000000000000479217360238593 1:12.745897 2:165 3:2 4:4 5:5 6:0 7:0 8:0.00034599999 9:1.5e-05 10:0.00096999999 11:0.001105 12:0.00070199999 13:11.471307 14:1e-06 15:-12.3545 16:0.072105996 17:-11.68 18:-9.2325401 19:-7.6308799 20:1.07188 21:-7.5040598 22:-7.4848099 23:-7.2983799 24:2.41629 25:-7.16681 26:-7.1220102 27:11.471307 28:2 29:0 30:0 31:0 32:2.9000001e-05 33:0 34:0 35:0 36:0 37:0 38:0 39:0 40:0 41:0 42:0 43:0 44:0 #docid = 257808
-0.00010000000000000000479217360238593 1:14.625218 2:532 3:4 4:8 5:6 6:0 7:0 8:0.000218 9:1.5e-05 10:0.00096999999 11:0.001105 12:0.00070199999 13:13.162696 14:0 15:-12.3545 16:0.072105996 17:-11.68 18:-9.2325401 19:-7.6308799 20:1.07188 21:-7.5040598 22:-7.4848099 23:-7.2983799 24:2.41629 25:-7.16681 26:-7.1220102 27:13.162696 28:7 29:0 30:0 31:0 32:0.000102 33:0 34:0 35:0 36:0 37:0 38:0 39:0 40:0 41:0 42:0 43:0 44:0 #docid = 265242
-0.00010000000000000000479217360238593 1:12.295011 2:192 3:3 4:5 5:6 6:0 7:0 8:0.00027799999 9:1.5e-05 10:0.00096999999 11:0.001105 12:0.00070199999 13:11.06551 14:0 15:-12.3545 16:0.072105996 17:-11.68 18:-9.2325401 19:-7.6308799 20:1.07188 21:-7.5040598 22:-7.4848099 23:-7.2983799 24:2.41629 25:-7.16681 26:-7.1220102 27:11.065509 28:2 29:0 30:0 31:0 32:2.9000001e-05 33:0 34:0 35:0 36:0 37:0 38:0 39:0 40:0 41:0 42:0 43:0 44:0 #docid = 267728
0.00068615533635123693474711092932239 1:19.406038 2:364 3:4 4:4 5:5 6:0.003879 7:0.0067019998 8:0.00034599999 9:1.5e-05 10:0.00096999999 11:0.001105 12:0.00070199999 13:17.465433 14:1e-06 15:-4.16397 16:16.141899 17:-4.86936 18:-4.2228599 19:-7.6308799 20:1.07188 21:-7.5040598 22:-7.4848099 23:-5.03654 24:10.0009 25:-5.6828098 26:-5.03654 27:17.465433 28:29 29:2 30:1 31:1 32:0.000421 33:0.00194 34:0.001105 35:0.00070199999 36:0 37:0.001434 38:0.00038099999 39:0.003451 40:0.0036569999 41:0.002321 42:19.305481 43:19.67314 44:18.285589 #docid = 267976
-0.00010000000000000000479217360238593 1:14.465767 2:6250 3:4 4:6 5:5 6:0 7:0 8:0.000218 9:1.5e-05 10:0.00096999999 11:0.001105 12:0.00070199999 13:13.019191 14:0 15:-12.3545 16:0.072105996 17:-11.68 18:-9.2325401 19:-7.6308799 20:1.07188 21:-7.5040598 22:-7.4848099 23:-7.2983799 24:2.41629 25:-7.16681 26:-7.1220102 27:13.01919 28:55 29:0 30:0 31:0 32:0.00079800002 33:0 34:0 35:0 36:0 37:0 38:0 39:0 40:0 41:0 42:0 43:0 44:0 #docid = 274955
-7.4432046626160541791250579990447e-07 1:13.575648 2:120 3:3 4:3 5:7 6:0 7:0 8:5.4e-05 9:1.5e-05 10:0.00096999999 11:0.001105 12:0.00070199999 13:12.218083 14:0 15:-12.3545 16:0.072105996 17:-11.68 18:-9.2325401 19:-7.6308799 20:1.07188 21:-7.5040598 22:-7.4848099 23:-7.2983799 24:2.41629 25:-7.16681 26:-7.1220102 27:12.218083 28:2 29:0 30:0 31:0 32:2.9000001e-05 33:0 34:0 35:0 36:0 37:0 38:0 39:0 40:0 41:0 42:0 43:0 44:0 #docid = 311906
-1.7823948803680732255738661251598e-05 1:18.746462 2:1324 3:1 4:2 5:4 6:0.011612 7:0.003179 8:0.00034100001 9:1.5e-05 10:0.00096999999 11:0.001105 12:0.00070199999 13:16.871817 14:0 15:-4.2896399 16:17.837099 17:-4.5228801 18:-3.8762901 19:-4.1438098 20:13.6619 21:-5.42593 22:-4.1438098 23:-4.68998 24:12.2904 25:-5.6450701 26:-4.68998 27:16.871815 28:63 29:1 30:1 31:1 32:0.00091399997 33:0.00096999999 34:0.001105 35:0.00070199999 36:0 37:0.0042980001 38:0.000386 39:0.0033869999 40:0.0035049999 41:0.001795 42:18.6054 43:18.592464 44:16.339024 #docid = 320804
-0.00010000000000000000479217360238593 1:24.121815 2:143 3:0 4:3 5:6 6:0 7:0 8:0.00034 9:1.5e-05 10:0.00096999999 11:0.001105 12:0.00070199999 13:21.709631 14:0 15:-12.3545 16:0.072105996 17:-11.68 18:-9.2325401 19:-7.6308799 20:1.07188 21:-7.5040598 22:-7.4848099 23:-7.2983799 24:2.41629 25:-7.16681 26:-7.1220102 27:21.709633 28:9 29:0 30:0 31:0 32:0.00013099999 33:0 34:0 35:0 36:0 37:0 38:0 39:0 40:0 41:0 42:0 43:0 44:0 #docid = 347256
-0.00010000000000000000479217360238593 1:19.462496 2:150 3:7 4:2 5:4 6:0.015484 7:0.00063700002 8:0.00034100001 9:1.5e-05 10:0.00096999999 11:0.001105 12:0.00070199999 13:17.516247 14:1e-06 15:-5.0598102 16:12.1619 17:-5.2872 18:-4.9159598 19:-7.6308799 20:1.07188 21:-7.5040598 22:-7.4848099 23:-4.8927102 24:11.0281 25:-5.6641202 26:-4.8927102 27:17.516245 28:19 29:1 30:1 31:0 32:0.00027600001 33:0.00096999999 34:0.001105 35:0 36:0 37:0.0057250001 38:0.00037699999 39:0.0036810001 40:0.003666 41:0.001471 42:19.72382 43:19.306564 44:17.860413 #docid = 352211
-7.6148475203208221273598610423505e-07 1:16.148275 2:134 3:0 4:9 5:6 6:0 7:0 8:0.00017499999 9:1.5e-05 10:0.00096999999 11:0.001105 12:0.00070199999 13:14.533448 14:0 15:-12.3545 16:0.072105996 17:-11.68 18:-9.2325401 19:-7.6308799 20:1.07188 21:-7.5040598 22:-7.4848099 23:-7.2983799 24:2.41629 25:-7.16681 26:-7.1220102 27:14.533447 28:4 29:0 30:0 31:0 32:5.8000001e-05 33:0 34:0 35:0 36:0 37:0 38:0 39:0 40:0 41:0 42:0 43:0 44:0 #docid = 362112
-0.00010000000000000000479217360238593 1:19.710245 2:201 3:4 4:2 5:4 6:0.007741 7:0.00063700002 8:0.00034100001 9:1.5e-05 10:0.00096999999 11:0.001105 12:0.00070199999 13:17.73922 14:1e-06 15:-4.5694098 16:13.5638 17:-5.2157402 18:-4.5694098 19:-7.6308799 20:1.07188 21:-7.5040598 22:-7.4848099 23:-4.8927102 24:11.0281 25:-5.6641202 26:-4.8927102 27:17.73922 28:25 29:1 30:1 31:0 32:0.000363 33:0.00096999999 34:0.001105 35:0 36:0 37:0.0028619999 38:0.00037699999 39:0.0035699999 40:0.0037090001 41:0.001489 42:19.644667 43:19.582388 44:18.424425 #docid = 362137
-0.00010000000000000000479217360238593 1:10.347695 2:319 3:21 4:3 5:5 6:0 7:0 8:0.00038400001 9:1.5e-05 10:0.00096999999 11:0.001105 12:0.00070199999 13:9.3129263 14:3.0000001e-06 15:-12.3545 16:0.072105996 17:-11.68 18:-9.2325401 19:-7.6308799 20:1.07188 21:-7.5040598 22:-7.4848099 23:-7.2983799 24:2.41629 25:-7.16681 26:-7.1220102 27:9.3129253 28:2 29:0 30:0 31:0 32:2.9000001e-05 33:0 34:0 35:0 36:0 37:0 38:0 39:0 40:0 41:0 42:0 43:0 44:0 #docid = 368650
-0.00010000000000000000479217360238593 1:12.903633 2:156 3:4 4:7 5:4 6:0 7:0 8:0.00034100001 9:1.5e-05 10:0.00096999999 11:0.001105 12:0.00070199999 13:11.613269 14:1e-06 15:-12.3545 16:0.072105996 17:-11.68 18:-9.2325401 19:-7.6308799 20:1.07188 21:-7.5040598 22:-7.4848099 23:-7.2983799 24:2.41629 25:-7.16681 26:-7.1220102 27:11.61327 28:2 29:0 30:0 31:0 32:2.9000001e-05 33:0 34:0 35:0 36:0 37:0 38:0 39:0 40:0 41:0 42:0 43:0 44:0 #docid = 389807
-2.919691793445977623377984855324e-06 1:10.139565 2:120 3:3 4:10 5:6 6:0 7:0 8:0.00028099999 9:1.5e-05 10:0.00096999999 11:0.001105 12:0.00070199999 13:9.1256065 14:0 15:-12.3545 16:0.072105996 17:-11.68 18:-9.2325401 19:-7.6308799 20:1.07188 21:-7.5040598 22:-7.4848099 23:-7.2983799 24:2.41629 25:-7.16681 26:-7.1220102 27:9.1256065 28:1 29:0 30:0 31:0 32:1.5e-05 33:0 34:0 35:0 36:0 37:0 38:0 39:0 40:0 41:0 42:0 43:0 44:0 #docid = 390493
0.00034881047086598190951761688793908 1:19.406038 2:364 3:4 4:4 5:4 6:0.0038670001 7:0.0098599996 8:0.00034100001 9:1.5e-05 10:0.00096999999 11:0.001105 12:0.00070199999 13:17.465433 14:1e-06 15:-4.4681802 16:16.625099 17:-4.7207599 18:-4.2999301 19:-7.6308799 20:1.07188 21:-7.5040598 22:-7.4848099 23:-5.03654 24:10.0009 25:-5.6828098 26:-5.03654 27:17.465433 28:29 29:2 30:1 31:1 32:0.000421 33:0.00194 34:0.001105 35:0.00070199999 36:0 37:0.001435 38:0.000386 39:0.003431 40:0.0036820001 41:0.0027979999 42:19.303488 43:19.888477 44:18.725855 #docid = 391066
0.0026134131580848778478309846207139 1:17.530073 2:1178 3:4 4:4 5:6 6:0 7:0 8:0.000218 9:1.5e-05 10:0.00096999999 11:0.001105 12:0.00070199999 13:15.777065 14:0 15:-12.3545 16:0.072105996 17:-11.68 18:-9.2325401 19:-7.6308799 20:1.07188 21:-7.5040598 22:-7.4848099 23:-7.2983799 24:2.41629 25:-7.16681 26:-7.1220102 27:15.777065 28:33 29:0 30:0 31:0 32:0.00047900001 33:0 34:0 35:0 36:0 37:0 38:0 39:0 40:0 41:0 42:0 43:0 44:0 #docid = 398695
-1.8322439327284056886924190621357e-06 1:12.491404 2:180 3:1 4:4 5:4 6:0 7:0 8:0.00034100001 9:1.5e-05 10:0.00096999999 11:0.001105 12:0.00070199999 13:11.242263 14:1e-06 15:-12.3545 16:0.072105996 17:-11.68 18:-9.2325401 19:-7.6308799 20:1.07188 21:-7.5040598 22:-7.4848099 23:-7.2983799 24:2.41629 25:-7.16681 26:-7.1220102 27:11.242263 28:2 29:0 30:0 31:0 32:2.9000001e-05 33:0 34:0 35:0 36:0 37:0 38:0 39:0 40:0 41:0 42:0 43:0 44:0 #docid = 400882
-1.2014096371587144556047346485861e-06 1:13.961937 2:316 3:2 4:3 5:6 6:0 7:0 8:0.000272 9:1.5e-05 10:0.00096999999 11:0.001105 12:0.00070199999 13:12.565742 14:0 15:-12.3545 16:0.072105996 17:-11.68 18:-9.2325401 19:-7.6308799 20:1.07188 21:-7.5040598 22:-7.4848099 23:-7.2983799 24:2.41629 25:-7.16681 26:-7.1220102 27:12.565742 28:4 29:0 30:0 31:0 32:5.8000001e-05 33:0 34:0 35:0 36:0 37:0 38:0 39:0 40:0 41:0 42:0 43:0 44:0 #docid = 560409
-0.00020000000000000000958434720477186 1:19.149189 2:332 3:8 4:4 5:6 6:0.025109001 7:0.0020620001 8:0.000249 9:1.5e-05 10:0.00096999999 11:0.001105 12:0.00070199999 13:17.23427 14:1e-06 15:-4.7132802 16:15.1058 17:-4.9408202 18:-4.5694098 19:-7.6308799 20:1.07188 21:-7.5040598 22:-7.4848099 23:-5.03654 24:10.0009 25:-5.6828098 26:-5.03654 27:17.23427 28:24 29:2 30:1 31:0 32:0.000348 33:0.00194 34:0.001105 35:0 36:0 37:0.005014 38:0.00091100001 39:0.0035540001 40:0.0035920001 41:0.001446 42:19.03858 43:19.381384 44:17.306089 #docid = 601782
0.00050000000000000001040834085586084 1:19.343519 2:364 3:0 4:4 5:5 6:0.0039019999 7:0.0067019998 8:0.00034599999 9:1.5e-05 10:0.00096999999 11:0.001105 12:0.00070199999 13:17.409166 14:0 15:-12.3545 16:0.072105996 17:-11.68 18:-9.2325401 19:-7.6308799 20:1.07188 21:-7.5040598 22:-7.4848099 23:-5.03654 24:10.0009 25:-5.6828098 26:-5.03654 27:17.409166 28:29 29:0 30:1 31:1 32:0.000421 33:0 34:0.001105 35:0.00070199999 36:0 37:0.001431 38:0.00038099999 39:0.003484 40:0.0036470001 41:0.0023169999 42:19.237299 43:19.612192 44:18.187962 #docid = 734679
-0.00010000000000000000479217360238593 1:17.718512 2:31 3:1 4:4 5:6 6:0.003885 7:0.00063999998 8:0.00027700001 9:1.5e-05 10:0.00096999999 11:0.001105 12:0.00070199999 13:15.94666 14:0 15:-12.3545 16:0.072105996 17:-11.68 18:-9.2325401 19:-7.6308799 20:1.07188 21:-7.5040598 22:-7.4848099 23:-5.03654 24:10.0009 25:-5.6828098 26:-5.03654 27:15.94666 28:3 29:0 30:1 31:0 32:4.4e-05 33:0 34:0.001105 35:0 36:0 37:0.001441 38:0.000417 39:0.003331 40:0.003399 41:0.001317 42:18.123404 43:18.027157 44:14.830019 #docid = 788031
-0.00010000000000000000479217360238593 1:19.034391 2:696 3:1 4:1 5:4 6:0 7:0 8:0.00034100001 9:1.5e-05 10:0.00096999999 11:0.001105 12:0.00070199999 13:17.130951 14:0 15:-4.0201402 16:16.715099 17:-4.8316202 18:-3.8762901 19:-4.1438098 20:13.6619 21:-5.42593 22:-4.1438098 23:-4.34342 24:13.879 25:-5.6256599 26:-4.34342 27:17.130951 28:42 29:1 30:1 31:1 32:0.00060999999 33:0.00096999999 34:0.001105 35:0.00070199999 36:0 37:0 38:0 39:0 40:0 41:0 42:0 43:0 44:0 #docid = 811316
-3.1196560460605704534486903867219e-06 1:16.933834 2:323 3:7 4:5 5:6 6:0 7:0 8:0.000272 9:1.5e-05 10:0.00096999999 11:0.001105 12:0.00070199999 13:15.240451 14:0 15:-12.3545 16:0.072105996 17:-11.68 18:-9.2325401 19:-7.6308799 20:1.07188 21:-7.5040598 22:-7.4848099 23:-7.2983799 24:2.41629 25:-7.16681 26:-7.1220102 27:15.24045 28:9 29:0 30:0 31:0 32:0.00013099999 33:0 34:0 35:0 36:0 37:0 38:0 39:0 40:0 41:0 42:0 43:0 44:0 #docid = 819557
-0.00010000000000000000479217360238593 1:18.649775 2:209 3:2 4:2 5:4 6:0 7:0 8:0.00034100001 9:1.5e-05 10:0.00096999999 11:0.001105 12:0.00070199999 13:16.784796 14:0 15:-4.3667102 16:16.141899 17:-4.86936 18:-4.2228599 19:-4.4903698 20:12.2343 21:-5.4453502 22:-4.4903698 23:-4.68998 24:12.2904 25:-5.6450701 26:-4.68998 27:16.784796 28:11 29:1 30:1 31:1 32:0.00016 33:0.00096999999 34:0.001105 35:0.00070199999 36:0 37:0 38:0 39:0 40:0 41:0 42:0 43:0 44:0 #docid = 826031
-0.00010000000000000000479217360238593 1:19.685558 2:201 3:0 4:2 5:5 6:0.051399998 7:0.0048639998 8:0.00034599999 9:1.5e-05 10:0.00096999999 11:0.001105 12:0.00070199999 13:17.717001 14:2e-06 15:-12.3545 16:0.072105996 17:-11.68 18:-9.2325401 19:-7.6308799 20:1.07188 21:-7.5040598 22:-7.4848099 23:-4.8927102 24:11.0281 25:-5.6641202 26:-4.8927102 27:17.717003 28:25 29:0 30:1 31:0 32:0.000363 33:0 34:0.001105 35:0 36:0 37:0.018453 38:0.000379 39:0.0045779999 40:0.0037730001 41:0.002173 42:19.864866 43:19.599957 44:18.802311 #docid = 832150
-3.8967245222464724774269484441902e-05 1:18.956171 2:95 3:4 4:5 5:6 6:0.0078779999 7:0.00096700003 8:0.00034599999 9:1.5e-05 10:0.00096999999 11:0.001105 12:0.00070199999 13:17.060555 14:0 15:-4.7132602 16:13.5638 17:-5.2157402 18:-4.5694098 19:-7.6308799 20:1.07188 21:-7.5040598 22:-7.4848099 23:-5.2392502 24:8.4304895 25:-5.7191801 26:-5.2392502 27:17.060553 28:9 29:1 30:1 31:0 32:0.00013099999 33:0.00096999999 34:0.001105 35:0 36:0 37:0.002899 38:0.00071300002 39:0.003459 40:0.003634 41:0.001481 42:18.942955 43:18.916727 44:17.016798 #docid = 837124
-1.1707857322837411651050842920085e-05 1:16.454111 2:849 3:5 4:0 5:6 6:0 7:0 8:0.00027300001 9:1.5e-05 10:0.00096999999 11:0.001105 12:0.00070199999 13:14.8087 14:0 15:-12.3545 16:0.072105996 17:-11.68 18:-9.2325401 19:-7.6308799 20:1.07188 21:-7.5040598 22:-7.4848099 23:-7.2983799 24:2.41629 25:-7.16681 26:-7.1220102 27:14.8087 28:17 29:0 30:0 31:0 32:0.00024699999 33:0 34:0 35:0 36:0 37:0 38:0 39:0 40:0 41:0 42:0 43:0 44:0 #docid = 870258
-0.00020000000000000000958434720477186 1:19.138723 2:169 3:5 4:5 5:6 6:0.015825 7:0.001296 8:0.00034599999 9:1.5e-05 10:0.00096999999 11:0.001105 12:0.00070199999 13:17.224852 14:1e-06 15:-4.57974 16:15.3522 17:-4.92343 18:-4.5026498 19:-7.6308799 20:1.07188 21:-7.5040598 22:-7.4848099 23:-5.2392502 24:8.4304895 25:-5.7191801 26:-5.2392502 27:17.22485 28:12 29:1 30:1 31:0 32:0.000174 33:0.00096999999 34:0.001105 35:0 36:0 37:0.0057470002 38:0.00065599999 39:0.0035659999 40:0.0036849999 41:0.001585 42:19.117016 43:19.114769 44:17.570913 #docid = 880831
-4.4801425444288001109782726416597e-06 1:18.812544 2:304 3:2 4:2 5:6 6:0.0045179999 7:0.00185 8:0.000225 9:1.5e-05 10:0.00096999999 11:0.001105 12:0.00070199999 13:16.931288 14:0 15:-12.3545 16:0.072105996 17:-11.68 18:-9.2325401 19:-7.6308799 20:1.07188 21:-7.5040598 22:-7.4848099 23:-7.2983799 24:2.41629 25:-7.16681 26:-7.1220102 27:16.93129 28:20 29:0 30:0 31:0 32:0.00029 33:0 34:0 35:0 36:0 37:0.001497 38:1.7e-05 39:0.00336 40:0.0035580001 41:0.001462 42:18.669662 43:19.282255 44:17.022139 #docid = 907672
-0.00024128125529836581776230164386732 1:17.622269 2:2038 3:7 4:7 5:6 6:0.0090309996 7:0.00036899999 8:0.000225 9:1.5e-05 10:0.00096999999 11:0.001105 12:0.00070199999 13:15.860041 14:0 15:-4.9159598 16:12.1619 17:-5.2872 18:-4.9159598 19:-5.1834502 20:7.51968 21:-5.5545502 22:-5.1834502 23:-5.38308 24:7.2863202 25:-5.7542701 26:-5.38308 27:15.860042 28:55 29:1 30:1 31:0 32:0.00079800002 33:0.00096999999 34:0.001105 35:0 36:0 37:0.00296 38:0.00060500001 39:0.0032309999 40:0.003362 41:0.001272 42:17.505514 43:17.225283 44:14.07674 #docid = 907906
-7.8847161215367389530683794873767e-05 1:14.765688 2:121 3:0 4:6 5:6 6:0 7:0 8:0.000272 9:1.5e-05 10:0.00096999999 11:0.001105 12:0.00070199999 13:13.289119 14:0 15:-12.3545 16:0.072105996 17:-11.68 18:-9.2325401 19:-7.6308799 20:1.07188 21:-7.5040598 22:-7.4848099 23:-7.2983799 24:2.41629 25:-7.16681 26:-7.1220102 27:13.289119 28:2 29:0 30:0 31:0 32:2.9000001e-05 33:0 34:0 35:0 36:0 37:0 38:0 39:0 40:0 41:0 42:0 43:0 44:0 #docid = 1009107
-0.00010000000000000000479217360238593 1:19.008619 2:2887 3:0 4:7 5:5 6:0 7:0 8:0.00028099999 9:1.5e-05 10:0.00096999999 11:0.001105 12:0.00070199999 13:17.107758 14:0 15:-12.3545 16:0.072105996 17:-11.68 18:-9.2325401 19:-7.6308799 20:1.07188 21:-7.5040598 22:-7.4848099 23:-7.2983799 24:2.41629 25:-7.16681 26:-7.1220102 27:17.107758 28:45 29:0 30:0 31:0 32:0.00065300002 33:0 34:0 35:0 36:0 37:0 38:0 39:0 40:0 41:0 42:0 43:0 44:0 #docid = 1026994
-0.00010000000000000000479217360238593 1:11.741216 2:228 3:4 4:2 5:7 6:0 7:0 8:0.000249 9:1.5e-05 10:0.00096999999 11:0.001105 12:0.00070199999 13:10.567094 14:0 15:-12.3545 16:0.072105996 17:-11.68 18:-9.2325401 19:-7.6308799 20:1.07188 21:-7.5040598 22:-7.4848099 23:-7.2983799 24:2.41629 25:-7.16681 26:-7.1220102 27:10.567094 28:2 29:0 30:0 31:0 32:2.9000001e-05 33:0 34:0 35:0 36:0 37:0 38:0 39:0 40:0 41:0 42:0 43:0 44:0 #docid = 1036652
-0.00010000000000000000479217360238593 1:10.38646 2:109 3:2 4:4 5:8 6:0 7:0 8:0.000309 9:1.5e-05 10:0.00096999999 11:0.001105 12:0.00070199999 13:9.3478136 14:0 15:-12.3545 16:0.072105996 17:-11.68 18:-9.2325401 19:-7.6308799 20:1.07188 21:-7.5040598 22:-7.4848099 23:-7.2983799 24:2.41629 25:-7.16681 26:-7.1220102 27:9.3478136 28:1 29:0 30:0 31:0 32:1.5e-05 33:0 34:0 35:0 36:0 37:0 38:0 39:0 40:0 41:0 42:0 43:0 44:0 #docid = 1038000
0.0001126025522080557748254639460761 1:22.652651 2:289 3:3 4:2 5:5 6:0.074024998 7:0.012447 8:0.00035799999 9:0.001082 10:0.041666999 11:0.027778 12:1 13:20.387386 14:1e-06 15:-0.122602 16:21.7428 17:-1.65821 18:-0.773184 19:-0.69313997 20:15.2866 21:-3.9314899 22:-0.69313997 23:-0.69313902 24:15.017 25:-3.9314001 26:-0.69313902 27:20.387384 28:21 29:2 30:1 31:0 32:0.020792 33:0.083333001 34:0.027778 35:0 36:1e-06 37:0.082539 38:0.000106 39:0.010408 40:0.0090939999 41:0.009598 42:22.888346 43:22.593243 44:22.429369 #docid = 337773
-0.00010000000000000000479217360238593 1:3.4462421 2:10957 3:15 4:4 5:6 6:0 7:0 8:0.000309 9:0.001082 10:0.041666999 11:0.027778 12:1 13:3.1042111 14:1e-06 15:-4.02529 16:9.36763 17:-4.3564501 18:-4.0252099 19:-3.3321099 20:6.0734901 21:-4.1585398 22:-3.3321099 23:-3.5262201 24:4.8945198 25:-4.2042699 26:-3.5262201 27:3.1042111 28:8 29:0 30:0 31:0 32:0.007921 33:0 34:0 35:0 36:1e-06 37:0 38:0 39:0 40:0 41:0 42:0 43:0 44:0 #docid = 455641
-1.2602552208055770033290343690169e-05 1:22.329214 2:1046 3:1 4:2 5:5 6:0.025141001 7:0.0092770001 8:0.00035799999 9:0.001082 10:0.041666999 11:0.027778 12:1 13:20.096292 14:0 15:-0.133531 16:20.838499 17:-2.6026199 18:-0.693142 19:-0.69313997 20:15.2866 21:-3.9314899 22:-0.69313997 23:-0.69313902 24:15.017 25:-3.9314001 26:-0.69313902 27:20.096292 28:54 29:1 30:1 31:0 32:0.053465001 33:0.041666999 34:0.027778 35:0 36:0 37:0.029604999 38:0.000106 39:0.0087850001 40:0.00887 41:0.0082329996 42:22.194963 43:22.077662 44:21.317841 #docid = 516567
-0.0001015134275725908469603653294655 1:18.549061 2:348 3:7 4:1 5:4 6:0.264442 7:0.00075100001 8:0.00056900003 9:1.4e-05 10:0.00041199999 11:7.1000002e-05 12:9.2000002e-05 13:17.747713 14:0.000104 15:-13.6815 16:0.015328 17:-12.3019 18:-8.5451202 19:-7.0474701 20:1.19692 21:-6.82269 22:-6.8222198 23:-5.9899802 24:2.8975501 25:-6.2234902 26:-5.9899802 27:17.747711 28:15 29:0 30:0 31:0 32:0.00017 33:0 34:0 35:0 36:2.2e-05 37:0.28289199 38:1.8000001e-05 39:0.0059019998 40:0.00054699997 41:0.000351 42:24.254011 43:18.000908 44:15.152814 #docid = 783
-0.00010000000000000000479217360238593 1:16.942631 2:85 3:105 4:4 5:3 6:0.2687 7:0.000337 8:0.00057600002 9:1.4e-05 10:0.00041199999 11:7.1000002e-05 12:9.2000002e-05 13:16.531742 14:7.4000003e-05 15:-10.0151 16:0.49581999 17:-9.7114296 18:-8.03652 19:-7.0474701 20:1.19692 21:-6.82269 22:-6.8222198 23:-5.9899802 24:2.8975501 25:-6.2234902 26:-5.9899802 27:16.53174 28:4 29:6 30:0 31:0 32:4.5000001e-05 33:0.002473 34:0 35:0 36:1.5e-05 37:0.28622299 38:1.8000001e-05 39:0.00538 40:0.00050199998 41:0.00044199999 42:23.849091 43:17.475351 44:19.789618 #docid = 1539
-0.00010000000000000000479217360238593 1:17.67651 2:252 3:454 4:5 5:2 6:0.30577701 7:0.00038899999 8:0.00081400003 9:1.4e-05 10:0.00041199999 11:7.1000002e-05 12:9.2000002e-05 13:15.908857 14:0.0028029999 15:-9.4540701 16:6.9288402 17:-9.4447002 18:-6.5730901 19:-7.0474701 20:1.19692 21:-6.82269 22:-6.8222198 23:-5.7410202 24:3.80755 25:-6.15449 26:-5.7410202 27:15.908858 28:5 29:59 30:1 31:0 32:5.7000001e-05 33:0.024320001 34:7.1000002e-05 35:0 36:0.00050800003 37:0.32793799 38:1.3e-05 39:0.007154 40:0.00051300001 41:0.000203 42:24.281105 43:18.484247 44:14.106942 #docid = 2732
-8.6294004474574137475428869947791e-05 1:14.704976 2:175 3:6 4:4 5:3 6:0 7:0 8:0.00059900002 9:1.4e-05 10:0.00041199999 11:7.1000002e-05 12:9.2000002e-05 13:13.798756 14:1e-06 15:-4.7588801 16:14.8255 17:-4.2958102 18:-4.2635999 19:-4.2142 20:9.0373297 21:-4.85955 22:-4.2142 23:-3.5476201 24:8.7167397 25:-4.1929102 26:-3.5476201 27:13.804926 28:7 29:1 30:1 31:0 32:7.9999998e-05 33:0.00041199999 34:7.1000002e-05 35:0 36:0 37:0 38:0 39:0 40:0 41:0 42:0 43:0 44:0 #docid = 3004
-1.056830072727887870343010945362e-05 1:15.707567 2:155 3:74 4:2 5:3 6:0.003125 7:0.00019000001 8:0.00063800003 9:1.4e-05 10:0.00041199999 11:7.1000002e-05 12:9.2000002e-05 13:14.764202 14:3.4000001e-05 15:-7.5160398 16:9.8757 17:-6.70891 18:-6.0906701 19:-7.0474701 20:1.19692 21:-6.82269 22:-6.8222198 23:-5.9899802 24:2.8975501 25:-6.2234902 26:-5.9899802 27:14.764202 28:5 29:13 30:0 31:0 32:5.7000001e-05 33:0.0053590001 34:0 35:0 36:6.0000002e-06 37:0.002262 38:9.0000003e-06 39:0.00051400001 40:0.00044199999 41:0.00013499999 42:15.658384 43:14.795254 44:9.9881649 #docid = 4845
-0.00010000000000000000479217360238593 1:20.918577 2:31 3:11 4:5 5:3 6:0 7:0 8:0.00057199999 9:1.4e-05 10:0.00041199999 11:7.1000002e-05 12:9.2000002e-05 13:18.895943 14:4.9999999e-06 15:-13.6815 16:0.015328 17:-12.3019 18:-8.5451202 19:-7.0474701 20:1.19692 21:-6.82269 22:-6.8222198 23:-5.9899802 24:2.8975501 25:-6.2234902 26:-5.9899802 27:18.895941 28:0 29:0 30:0 31:0 32:0 33:0 34:0 35:0 36:1e-06 37:0 38:0 39:0 40:0 41:0 42:0 43:0 44:0 #docid = 4940
-0.00010000000000000000479217360238593 1:15.481017 2:116 3:0 4:3 5:5 6:0.26431599 7:0.00037600001 8:0.00034500001 9:1.4e-05 10:0.00041199999 11:7.1000002e-05 12:9.2000002e-05 13:13.932916 14:4.3e-05 15:-13.6815 16:0.015328 17:-12.3019 18:-8.5451202 19:-7.0474701 20:1.19692 21:-6.82269 22:-6.8222198 23:-5.9899802 24:2.8975501 25:-6.2234902 26:-5.9899802 27:13.932915 28:4 29:0 30:0 31:0 32:4.5000001e-05 33:0 34:0 35:0 36:9.9999997e-06 37:0.28130499 38:1.8000001e-05 39:0.004863 40:0.000462 41:0.000444 42:23.497932 43:16.155209 44:19.20632 #docid = 5713
-8.64129246214151436333850142546e-06 1:15.916901 2:98 3:3 4:2 5:12 6:0.0010319999 7:0.000119 8:0.00042699999 9:1.4e-05 10:0.00041199999 11:7.1000002e-05 12:9.2000002e-05 13:14.325211 14:2.3000001e-05 15:-13.6815 16:0.015328 17:-12.3019 18:-8.5451202 19:-7.0474701 20:1.19692 21:-6.82269 22:-6.8222198 23:-5.9899802 24:2.8975501 25:-6.2234902 26:-5.9899802 27:14.325211 28:4 29:0 30:0 31:0 32:4.5000001e-05 33:0 34:0 35:0 36:4.9999999e-06 37:0.001064 38:1.8000001e-05 39:0.00053800002 40:0.000478 41:0.000166 42:17.212379 43:16.757919 44:12.031533 #docid = 7017
-0.00010000000000000000479217360238593 1:14.917506 2:180 3:7 4:4 5:4 6:0.004797 7:0.00047500001 8:0.00046099999 9:1.4e-05 10:0.00041199999 11:7.1000002e-05 12:9.2000002e-05 13:14.660561 14:4e-06 15:-13.6815 16:0.015328 17:-12.3019 18:-8.5451202 19:-7.0474701 20:1.19692 21:-6.82269 22:-6.8222198 23:-5.9899802 24:2.8975501 25:-6.2234902 26:-5.9899802 27:14.66056 28:7 29:0 30:0 31:0 32:7.9999998e-05 33:0 34:0 35:0 36:0 37:0.0057489998 38:1.8000001e-05 39:0.000489 40:0.000447 41:0.00050299999 42:15.476642 43:15.33002 44:18.841188 #docid = 11845
-0.00010000000000000000479217360238593 1:15.698259 2:328 3:20 4:3 5:4 6:0.269613 7:0.0021180001 8:0.000478 9:1.4e-05 10:0.00041199999 11:7.1000002e-05 12:9.2000002e-05 13:14.128434 14:4.6000001e-05 15:-13.6815 16:0.015328 17:-12.3019 18:-8.5451202 19:-7.0474701 20:1.19692 21:-6.82269 22:-6.8222198 23:-5.9899802 24:2.8975501 25:-6.2234902 26:-5.9899802 27:14.128433 28:10 29:0 30:0 31:0 32:0.000114 33:0 34:0 35:0 36:1.1e-05 37:0.28808999 38:1.8000001e-05 39:0.0049919998 40:0.00046099999 41:0.0025589999 42:23.595034 43:16.42515 44:23.182407 #docid = 13344
-1.7476284085771176535217819036916e-05 1:14.743985 2:1047 3:6 4:3 5:4 6:0.00038799999 7:0.00057999999 8:0.00046000001 9:1.4e-05 10:0.00041199999 11:7.1000002e-05 12:9.2000002e-05 13:13.269587 14:0 15:-13.6815 16:0.015328 17:-12.3019 18:-8.5451202 19:-7.0474701 20:1.19692 21:-6.82269 22:-6.8222198 23:-5.9899802 24:2.8975501 25:-6.2234902 26:-5.9899802 27:13.269587 28:33 29:0 30:0 31:0 32:0.000375 33:0 34:0 35:0 36:0 37:0.00057999999 38:1.8000001e-05 39:0.00040799999 40:0.000444 41:0.00049499999 42:14.29003 43:14.443609 44:13.49677 #docid = 16363
-0.00010000000000000000479217360238593 1:19.670843 2:567 3:16 4:7 5:5 6:0.0070090001 7:0.00095800002 8:0.00036800001 9:1.4e-05 10:0.00041199999 11:7.1000002e-05 12:9.2000002e-05 13:18.926071 14:6.0000002e-06 15:-6.5296698 16:11.5326 17:-5.7248302 18:-5.6668601 19:-5.4261098 20:6.63241 21:-6.1778598 22:-5.4261098 23:-5.8164701 24:3.53036 25:-6.1721902 26:-5.8164701 27:18.926071 28:34 29:3 30:1 31:0 32:0.000386 33:0.001237 34:7.1000002e-05 35:0 36:1e-06 37:0.010508 38:1.8000001e-05 39:0.00071300002 40:0.00057500001 41:0.00086299999 42:20.43416 43:19.609152 44:19.348783 #docid = 26770
-0.00010000000000000000479217360238593 1:16.086147 2:99 3:4 4:2 5:12 6:0.0010319999 7:0.000119 8:0.00042699999 9:1.4e-05 10:0.00041199999 11:7.1000002e-05 12:9.2000002e-05 13:14.477532 14:2.3000001e-05 15:-6.32271 16:10.9751 17:-5.7924099 18:-5.7283602 19:-7.0474701 20:1.19692 21:-6.82269 22:-6.8222198 23:-5.9899802 24:2.8975501 25:-6.2234902 26:-5.9899802 27:14.477532 28:4 29:1 30:0 31:0 32:4.5000001e-05 33:0.00041199999 34:0 35:0 36:4.9999999e-06 37:0.001069 38:1.8000001e-05 39:0.000543 40:0.00048300001 41:0.000168 42:17.37212 43:16.819586 44:12.161345 #docid = 28736
0.00027061249717899701818651925222525 1:22.487156 2:224 3:4 4:3 5:4 6:0.00095399999 7:0.00050199998 8:0.00042600001 9:1.4e-05 10:0.00041199999 11:7.1000002e-05 12:9.2000002e-05 13:20.23844 14:1e-06 15:-5.2920599 16:11.4326 17:-5.8387499 18:-5.2916098 19:-4.8776798 20:8.1802597 21:-6.13939 22:-4.8776798 23:-5.3993502 24:4.9807301 25:-6.0994301 26:-5.3993502 27:20.23844 28:23 29:2 30:1 31:1 32:0.00026100001 33:0.00082399999 34:7.1000002e-05 35:9.2000002e-05 36:0 37:0.000378 38:2.9000001e-05 39:0.000642 40:0.00064899999 41:0.000216 42:22.2379 43:22.742916 44:18.817389 #docid = 29455
-0.00010000000000000000479217360238593 1:18.55932 2:347 3:0 4:1 5:4 6:0.264442 7:0.00075100001 8:0.00056900003 9:1.4e-05 10:0.00041199999 11:7.1000002e-05 12:9.2000002e-05 13:16.703388 14:0.000104 15:-13.6815 16:0.015328 17:-12.3019 18:-8.5451202 19:-7.0474701 20:1.19692 21:-6.82269 22:-6.8222198 23:-5.9899802 24:2.8975501 25:-6.2234902 26:-5.9899802 27:16.703388 28:15 29:0 30:0 31:0 32:0.00017 33:0 34:0 35:0 36:2.2e-05 37:0.28289199 38:1.8000001e-05 39:0.005905 40:0.00054699997 41:0.000351 42:24.256235 43:18.011539 44:15.164747 #docid = 31955
-7.787278260324460843738031412542e-05 1:17.192415 2:211 3:9 4:4 5:4 6:0.02767 7:0.00075299997 8:0.000462 9:1.4e-05 10:0.00041199999 11:7.1000002e-05 12:9.2000002e-05 13:16.790018 14:6.0000002e-06 15:-13.6815 16:0.015328 17:-12.3019 18:-8.5451202 19:-7.0474701 20:1.19692 21:-6.82269 22:-6.8222198 23:-5.9899802 24:2.8975501 25:-6.2234902 26:-5.9899802 27:16.790016 28:9 29:0 30:0 31:0 32:0.000102 33:0 34:0 35:0 36:1e-06 37:0.030747 38:1.8000001e-05 39:0.00093600003 40:0.00050800003 41:0.00075800001 42:19.085901 43:17.223223 44:20.41259 #docid = 32014
-0.00030000000000000002792904796322659 1:18.579878 2:345 3:1 4:1 5:13 6:0.00064500002 7:0.00037600001 8:0.00045600001 9:1.4e-05 10:0.00041199999 11:7.1000002e-05 12:9.2000002e-05 13:16.721889 14:9.9999997e-06 15:-13.6815 16:0.015328 17:-12.3019 18:-8.5451202 19:-7.0474701 20:1.19692 21:-6.82269 22:-6.8222198 23:-5.9899802 24:2.8975501 25:-6.2234902 26:-5.9899802 27:16.721889 28:15 29:0 30:0 31:0 32:0.00017 33:0 34:0 35:0 36:2e-06 37:0.00057500001 38:1.8000001e-05 39:0.000589 40:0.00054899999 41:0.000248 42:19.242811 43:18.048201 44:13.520238 #docid = 34209
0.00031740242233401562725256250807604 1:23.39094 2:126 3:24 4:4 5:5 6:0.0041939998 7:0.000283 8:0.000481 9:1.4e-05 10:0.00041199999 11:7.1000002e-05 12:9.2000002e-05 13:22.856133 14:6.7000001e-05 15:-0.59162301 16:26.9079 17:-1.42458 18:-1.23124 19:-1.3844301 20:15.0965 21:-3.273 22:-1.3844301 23:-1.37959 24:13.2336 25:-3.2176299 26:-1.37959 27:22.856133 28:11 29:12 30:2 31:0 32:0.00012500001 33:0.0049459999 34:0.000141 35:0 36:1.5e-05 37:0.0056480002 38:8e-06 39:0.00098699995 40:0.00068900001 41:0.000256 42:23.970873 43:23.378645 44:20.771736 #docid = 37201
-1.1900574120042757553239454182403e-05 1:19.0835 2:976 3:28 4:3 5:4 6:0.005376 7:0.001789 8:0.00046800001 9:1.4e-05 10:0.00041199999 11:7.1000002e-05 12:9.2000002e-05 13:17.17515 14:8e-06 15:-1.48542 16:22.855499 17:-2.07215 18:-2.0818999 19:-7.0474701 20:1.19692 21:-6.82269 22:-6.8222198 23:-1.09357 24:14.5927 25:-3.19894 26:-1.09357 27:17.17515 28:24 29:5 30:2 31:0 32:0.00027300001 33:0.0020610001 34:0.000141 35:0 36:2e-06 37:0.0089159999 38:3.7000002e-05 39:0.00083400001 40:0.00055400003 41:0.00044900001 42:19.916157 43:19.167528 44:16.871422 #docid = 37296
-0.00010000000000000000479217360238593 1:17.36121 2:473 3:2 4:1 5:4 6:0.27660301 7:0.00041499999 8:0.00053100003 9:1.4e-05 10:0.00041199999 11:7.1000002e-05 12:9.2000002e-05 13:15.625089 14:0.00034599999 15:-13.6815 16:0.015328 17:-12.3019 18:-8.5451202 19:-7.0474701 20:1.19692 21:-6.82269 22:-6.8222198 23:-5.9899802 24:2.8975501 25:-6.2234902 26:-5.9899802 27:15.625089 28:15 29:0 30:0 31:0 32:0.00017 33:0 34:0 35:0 36:5.7000001e-05 37:0.295544 38:1.8000001e-05 39:0.0058340002 40:0.00051500002 41:0.00026100001 42:24.144405 43:16.792465 44:12.753609 #docid = 38538
0.00096385624585589610262281734520684 1:19.650688 2:510 3:33 4:3 5:5 6:0.0065959999 7:0.0012760001 8:0.00034200001 9:1.4e-05 10:0.00041199999 11:7.1000002e-05 12:9.2000002e-05 13:17.685617 14:2e-06 15:-4.2375598 16:16.3307 17:-3.9751301 18:-3.96752 19:-4.6784401 20:6.3102899 21:-4.9481001 22:-4.6195202 23:-3.40381 24:9.61201 25:-4.1742201 26:-3.40381 27:17.685619 28:15 29:5 30:1 31:0 32:0.00017 33:0.0020610001 34:7.1000002e-05 35:0 36:0 37:0.0049760002 38:9.9999997e-06 39:0.0011080001 40:0.00056999997 41:0.000229 42:21.28125 43:19.410952 44:15.121455 #docid = 40928
-8.1315247747237862085967208258808e-05 1:17.741096 2:58 3:39 4:3 5:4 6:0 7:0 8:0.00042299999 9:1.4e-05 10:0.00041199999 11:7.1000002e-05 12:9.2000002e-05 13:16.668718 14:4.6000001e-05 15:-6.7782698 16:11.8578 17:-5.9695601 18:-5.58038 19:-7.0474701 20:1.19692 21:-6.82269 22:-6.8222198 23:-5.3993502 24:4.9807301 25:-6.0994301 26:-5.3993502 27:16.669714 28:3 29:8 30:1 31:0 32:3.4000001e-05 33:0.003298 34:7.1000002e-05 35:0 36:1.1e-05 37:0 38:0 39:0 40:0 41:0 42:0 43:0 44:0 #docid = 44875
-9.2411147170068375089613255113363e-06 1:14.554964 2:55 3:2 4:1 5:4 6:0 7:0 8:0.000106 9:1.4e-05 10:0.00041199999 11:7.1000002e-05 12:9.2000002e-05 13:13.099468 14:1e-06 15:-13.6815 16:0.015328 17:-12.3019 18:-8.5451202 19:-7.0474701 20:1.19692 21:-6.82269 22:-6.8222198 23:-5.9899802 24:2.8975501 25:-6.2234902 26:-5.9899802 27:13.099467 28:2 29:0 30:0 31:0 32:2.3000001e-05 33:0 34:0 35:0 36:0 37:0 38:0 39:0 40:0 41:0 42:0 43:0 44:0 #docid = 50051
-0.00010000000000000000479217360238593 1:14.831073 2:173 3:3 4:4 5:5 6:0.00044599999 7:0.000112 8:0.000351 9:1.4e-05 10:0.00041199999 11:7.1000002e-05 12:9.2000002e-05 13:13.347965 14:1e-06 15:-13.6815 16:0.015328 17:-12.3019 18:-8.5451202 19:-7.0474701 20:1.19692 21:-6.82269 22:-6.8222198 23:-5.9899802 24:2.8975501 25:-6.2234902 26:-5.9899802 27:13.347965 28:9 29:0 30:0 31:0 32:0.000102 33:0 34:0 35:0 36:0 37:0.00075299997 38:4.4e-05 39:0.00042900001 40:0.000443 41:0.00013299999 42:14.438793 43:17.093069 44:9.8862972 #docid = 53260
-0.00010000000000000000479217360238593 1:14.283498 2:213 3:3 4:3 5:4 6:0.26845101 7:0.001208 8:0.00046099999 9:1.4e-05 10:0.00041199999 11:7.1000002e-05 12:9.2000002e-05 13:14.008512 14:4.3e-05 15:-13.6815 16:0.015328 17:-12.3019 18:-8.5451202 19:-7.0474701 20:1.19692 21:-6.82269 22:-6.8222198 23:-5.9899802 24:2.8975501 25:-6.2234902 26:-5.9899802 27:14.008512 28:7 29:0 30:0 31:0 32:7.9999998e-05 33:0 34:0 35:0 36:9.9999997e-06 37:0.28632 38:1.8000001e-05 39:0.0045119999 40:0.000428 41:0.00088399998 42:22.965187 43:14.560987 44:20.845675 #docid = 54090
-0.00010000000000000000479217360238593 1:15.698259 2:328 3:0 4:3 5:4 6:0.017856 7:0.002138 8:0.00046000001 9:1.4e-05 10:0.00041199999 11:7.1000002e-05 12:9.2000002e-05 13:15.268212 14:6.0000002e-06 15:-13.6815 16:0.015328 17:-12.3019 18:-8.5451202 19:-7.0474701 20:1.19692 21:-6.82269 22:-6.8222198 23:-5.9899802 24:2.8975501 25:-6.2234902 26:-5.9899802 27:15.268211 28:10 29:0 30:0 31:0 32:0.000114 33:0 34:0 35:0 36:1e-06 37:0.020919999 38:1.8000001e-05 39:0.00065300002 40:0.000462 41:0.002626 42:17.283375 43:16.414221 44:23.234051 #docid = 61819
-0.00010000000000000000479217360238593 1:16.974035 2:391 3:1 4:2 5:5 6:0.00025799999 7:0.00025799999 8:0.00034500001 9:1.4e-05 10:0.00041199999 11:7.1000002e-05 12:9.2000002e-05 13:15.276632 14:0 15:-13.6815 16:0.015328 17:-12.3019 18:-8.5451202 19:-7.0474701 20:1.19692 21:-6.82269 22:-6.8222198 23:-5.9899802 24:2.8975501 25:-6.2234902 26:-5.9899802 27:15.276631 28:16 29:0 30:0 31:0 32:0.000182 33:0 34:0 35:0 36:0 37:0.000231 38:1.8000001e-05 39:0.00046899999 40:0.000505 41:0.00034299999 42:16.467661 43:16.538013 44:14.847237 #docid = 70724
-1.4365853360231994884088635444641e-05 1:14.379643 2:152 3:4 4:4 5:8 6:0 7:0 8:0.00017499999 9:1.4e-05 10:0.00041199999 11:7.1000002e-05 12:9.2000002e-05 13:12.941679 14:0 15:-4.3730102 16:13.7575 17:-4.6002302 18:-4.2291098 19:-4.3257399 20:8.3183603 21:-4.8779001 22:-4.3257399 23:-3.5476201 24:8.7167397 25:-4.1929102 26:-3.5476201 27:12.941679 28:4 29:1 30:1 31:1 32:4.5000001e-05 33:0.00041199999 34:7.1000002e-05 35:9.2000002e-05 36:0 37:0 38:0 39:0 40:0 41:0 42:0 43:0 44:0 #docid = 77362
-0.00017951126153729961244451263091548 1:14.951552 2:178 3:19 4:4 5:4 6:0.0137 7:0.001269 8:0.00046000001 9:1.4e-05 10:0.00041199999 11:7.1000002e-05 12:9.2000002e-05 13:14.295162 14:4e-06 15:-9.4287701 16:1.02733 17:-8.4457703 18:-7.7484398 19:-7.0474701 20:1.19692 21:-6.82269 22:-6.8222198 23:-5.9899802 24:2.8975501 25:-6.2234902 26:-5.9899802 27:14.295161 28:4 29:1 30:0 31:0 32:4.5000001e-05 33:0.00041199999 34:0 35:0 36:1e-06 37:0.01398 38:1.8000001e-05 39:0.00058300002 40:0.00043799999 41:0.00081 42:16.049143 43:14.762513 44:20.879116 #docid = 86769
-0.00010000000000000000479217360238593 1:15.053639 2:358 3:3 4:6 5:10 6:0 7:0 8:0.000344 9:1.4e-05 10:0.00041199999 11:7.1000002e-05 12:9.2000002e-05 13:13.548275 14:0 15:-13.6815 16:0.015328 17:-12.3019 18:-8.5451202 19:-7.0474701 20:1.19692 21:-6.82269 22:-6.8222198 23:-5.9899802 24:2.8975501 25:-6.2234902 26:-5.9899802 27:13.548275 28:5 29:0 30:0 31:0 32:5.7000001e-05 33:0 34:0 35:0 36:0 37:0 38:0 39:0 40:0 41:0 42:0 43:0 44:0 #docid = 87304
0.00078309167962446301746587407066613 1:20.36964 2:363 3:3 4:3 5:6 6:0.0010620001 7:0.00046400001 8:0.000344 9:1.4e-05 10:0.00041199999 11:7.1000002e-05 12:9.2000002e-05 13:18.332676 14:0 15:-0.125074 16:27.968599 17:-1.42933 18:-0.75282598 19:-0.69221598 20:18.251499 21:-3.23526 22:-0.69221598 23:-1.09357 24:14.5927 25:-3.19894 26:-1.09357 27:18.332676 28:16 29:2 30:2 31:1 32:0.000182 33:0.00082399999 34:0.000141 35:9.2000002e-05 36:0 37:0.001137 38:9.0000003e-06 39:0.00059200003 40:0.00058200001 41:0.000225 42:20.233812 43:19.72061 44:14.584587 #docid = 88594
-0.00010000000000000000479217360238593 1:15.604042 2:361 3:27 4:3 5:4 6:0.038270999 7:0.000317 8:0.00046000001 9:1.4e-05 10:0.00041199999 11:7.1000002e-05 12:9.2000002e-05 13:14.043637 14:1.2e-05 15:-13.6815 16:0.015328 17:-12.3019 18:-8.5451202 19:-7.0474701 20:1.19692 21:-6.82269 22:-6.8222198 23:-5.9899802 24:2.8975501 25:-6.2234902 26:-5.9899802 27:14.043637 28:13 29:0 30:0 31:0 32:0.00014800001 33:0 34:0 35:0 36:3.0000001e-06 37:0.043604001 38:1.8000001e-05 39:0.00085200003 40:0.000466 41:0.00036500001 42:18.243025 43:15.28885 44:15.083408 #docid = 88959
-1.84743381911065072259470198901e-07 1:16.210747 2:3871 3:5 4:2 5:5 6:0 7:0 8:0.00034 9:1.4e-05 10:0.00041199999 11:7.1000002e-05 12:9.2000002e-05 13:14.99112 14:0 15:-4.3406601 16:12.0071 17:-4.8931699 18:-4.3406601 19:-2.1930499 20:10.5411 21:-3.3615601 22:-2.1930499 23:-5.9899802 24:2.8975501 25:-6.2234902 26:-5.9899802 27:14.991119 28:91 29:1 30:0 31:0 32:0.001034 33:0.00041199999 34:0 35:0 36:0 37:0 38:0 39:0 40:0 41:0 42:0 43:0 44:0 #docid = 94551
-0.00010768237483406153866694748844068 1:20.670683 2:53 3:5 4:4 5:4 6:0.00023200001 7:0.000351 8:0.00034299999 9:1.4e-05 10:0.00041199999 11:7.1000002e-05 12:9.2000002e-05 13:18.603615 14:1e-06 15:-3.9030001 16:14.4533 17:-4.5471201 18:-3.9941399 19:-3.5211401 20:12.201 21:-4.8023901 22:-3.5211401 23:-3.5476201 24:8.7167397 25:-4.1929102 26:-3.5476201 27:18.603615 28:8 29:2 30:1 31:0 32:9.1000002e-05 33:0.00082399999 34:7.1000002e-05 35:0 36:0 37:0.000102 38:4.2e-05 39:0.00057799998 40:0.00060199999 41:0.000207 42:20.358831 43:21.329943 44:18.630283 #docid = 100913
-0.00010000000000000000479217360238593 1:21.199917 2:21 3:3 4:3 5:3 6:0 7:0 8:0.00056399999 9:1.4e-05 10:0.00041199999 11:7.1000002e-05 12:9.2000002e-05 13:19.079926 14:1.8000001e-05 15:-13.6815 16:0.015328 17:-12.3019 18:-8.5451202 19:-7.0474701 20:1.19692 21:-6.82269 22:-6.8222198 23:-5.3993502 24:4.9807301 25:-6.0994301 26:-5.3993502 27:19.079926 28:1 29:0 30:1 31:0 32:1.1e-05 33:0 34:7.1000002e-05 35:0 36:3.0000001e-06 37:0 38:0 39:0 40:0 41:0 42:0 43:0 44:0 #docid = 107974
-1.6967106768300474484156836751936e-05 1:14.393168 2:644 3:18 4:7 5:4 6:0.0071069999 7:0.001112 8:0.00036800001 9:1.4e-05 10:0.00041199999 11:7.1000002e-05 12:9.2000002e-05 13:13.964385 14:1e-06 15:-13.6815 16:0.015328 17:-12.3019 18:-8.5451202 19:-7.0474701 20:1.19692 21:-6.82269 22:-6.8222198 23:-5.9899802 24:2.8975501 25:-6.2234902 26:-5.9899802 27:13.964384 28:11 29:0 30:0 31:0 32:0.00012500001 33:0 34:0 35:0 36:0 37:0.0067170002 38:1.8000001e-05 39:0.00047 40:0.00042999999 41:0.001479 42:14.556572 43:14.975967 44:20.326853 #docid = 125342
-0.00010000000000000000479217360238593 1:23.665791 2:449 3:18 4:5 5:5 6:0.0085850004 7:0.001089 8:0.00036800001 9:1.4e-05 10:0.00041199999 11:7.1000002e-05 12:9.2000002e-05 13:21.299213 14:2e-06 15:-0.39824101 16:27.9077 17:-0.70183599 18:-1.07901 19:-1.3844301 20:15.0965 21:-3.273 22:-1.3844301 23:-1.7817301 24:11.1555 25:-3.2539999 26:-1.7817301 27:21.299212 28:46 29:9 30:2 31:1 32:0.00052300002 33:0.0037100001 34:0.000141 35:9.2000002e-05 36:0 37:0.011024 38:1.8000001e-05 39:0.00086999999 40:0.00069299998 41:0.001116 42:24.140314 43:23.418358 44:22.734543 #docid = 134513
-3.1860938875596933606004768080311e-05 1:17.604559 2:349 3:1 4:2 5:5 6:0 7:0 8:0.00034900001 9:1.4e-05 10:0.00041199999 11:7.1000002e-05 12:9.2000002e-05 13:15.844104 14:1e-06 15:-3.5360301 16:13.522 17:-4.8176599 18:-3.5360301 19:-3.5211401 20:12.201 21:-4.8023901 22:-3.5211401 23:-5.9899802 24:2.8975501 25:-6.2234902 26:-5.9899802 27:15.844103 28:14 29:1 30:0 31:1 32:0.000159 33:0.00041199999 34:0 35:9.2000002e-05 36:0 37:0 38:0 39:0 40:0 41:0 42:0 43:0 44:0 #docid = 136380
-0.00010000000000000000479217360238593 1:15.132854 2:172 3:9 4:7 5:6 6:0.002196 7:0.00055400003 8:0.00027600001 9:1.4e-05 10:0.00041199999 11:7.1000002e-05 12:9.2000002e-05 13:13.619569 14:1e-06 15:-13.6815 16:0.015328 17:-12.3019 18:-8.5451202 19:-7.0474701 20:1.19692 21:-6.82269 22:-6.8222198 23:-5.9899802 24:2.8975501 25:-6.2234902 26:-5.9899802 27:13.619569 28:6 29:0 30:0 31:0 32:6.8000001e-05 33:0 34:0 35:0 36:0 37:0.0034409999 38:1.8000001e-05 39:0.00043700001 40:0.00044999999 41:0.00061500003 42:14.88668 43:15.218141 44:19.872843 #docid = 144024
-0.00010000000000000000479217360238593 1:15.673615 2:14 3:14 4:7 5:3 6:0.001327 7:0.000223 8:0.00047599999 9:1.4e-05 10:0.00041199999 11:7.1000002e-05 12:9.2000002e-05 13:15.314058 14:2e-06 15:-4.4268398 16:15.8049 17:-4.0890698 18:-4.08529 19:-7.0474701 20:1.19692 21:-6.82269 22:-6.8222198 23:-3.8273399 24:6.8130398 25:-4.2469802 26:-3.8273399 27:15.403517 28:0 29:4 30:1 31:1 32:0 33:0.001649 34:7.1000002e-05 35:9.2000002e-05 36:0 37:0.0024290001 38:6.5e-05 39:0.00047599999 40:0.000463 41:0.000149 42:15.689001 43:19.390278 44:15.113358 #docid = 146805
-0.00010000000000000000479217360238593 1:16.97534 2:506 3:1 4:2 5:5 6:0 7:0 8:0.00034500001 9:1.4e-05 10:0.00041199999 11:7.1000002e-05 12:9.2000002e-05 13:15.277806 14:2e-06 15:-13.6815 16:0.015328 17:-12.3019 18:-8.5451202 19:-7.0474701 20:1.19692 21:-6.82269 22:-6.8222198 23:-5.9899802 24:2.8975501 25:-6.2234902 26:-5.9899802 27:15.277805 28:16 29:0 30:0 31:0 32:0.000182 33:0 34:0 35:0 36:0 37:0 38:0 39:0 40:0 41:0 42:0 43:0 44:0 #docid = 147209
-3.7839863370692228272673673927784e-05 1:18.037813 2:172 3:6 4:9 5:7 6:0 7:0 8:0.000344 9:1.4e-05 10:0.00041199999 11:7.1000002e-05 12:9.2000002e-05 13:16.234032 14:0 15:-4.8452501 16:13.6573 17:-4.49754 18:-4.4317999 19:-4.4168801 20:7.7053599 21:-4.8959198 22:-4.4168801 23:-3.95294 24:5.9471502 25:-4.2814598 26:-3.95294 27:16.234032 28:1 29:1 30:1 31:0 32:1.1e-05 33:0.00041199999 34:7.1000002e-05 35:0 36:0 37:0 38:0 39:0 40:0 41:0 42:0 43:0 44:0 #docid = 147910
0.00044456759287115721161753878476475 1:22.594976 2:309 3:6 4:4 5:5 6:0.000401 7:0.000459 8:0.00034500001 9:1.4e-05 10:0.00041199999 11:7.1000002e-05 12:9.2000002e-05 13:20.335478 14:0 15:-0.46964699 16:25.998501 17:-2.2613101 18:-0.97964299 19:-7.0474701 20:1.19692 21:-6.82269 22:-6.8222198 23:-3.5476201 24:8.7167397 25:-4.1929102 26:-3.5476201 27:20.335478 28:21 29:4 30:1 31:0 32:0.000239 33:0.001649 34:7.1000002e-05 35:0 36:0 37:0.00062300003 38:1.8000001e-05 39:0.00063600001 40:0.000665 41:0.00058499997 42:22.492825 43:22.502844 44:21.388081 #docid = 149218
-0.00030000000000000002792904796322659 1:18.509336 2:573 3:3 4:2 5:5 6:0.00038799999 7:0.001038 8:0.00034500001 9:1.4e-05 10:0.00041199999 11:7.1000002e-05 12:9.2000002e-05 13:16.658403 14:2e-06 15:-13.6815 16:0.015328 17:-12.3019 18:-8.5451202 19:-7.0474701 20:1.19692 21:-6.82269 22:-6.8222198 23:-5.9899802 24:2.8975501 25:-6.2234902 26:-5.9899802 27:16.658401 28:24 29:0 30:0 31:0 32:0.00027300001 33:0 34:0 35:0 36:0 37:0.00034699999 38:1.8000001e-05 39:0.00053299998 40:0.00053800002 41:0.00068300002 42:18.114573 43:18.501225 44:18.193773 #docid = 150043
0.00031883314976966479776382401567503 1:20.834248 2:308 3:9 4:4 5:5 6:0.001039 7:0.000872 8:0.00036800001 9:1.4e-05 10:0.00041199999 11:7.1000002e-05 12:9.2000002e-05 13:18.750822 14:0 15:-1.7346801 16:21.313299 17:-2.58711 18:-2.21275 19:-7.0474701 20:1.19692 21:-6.82269 22:-6.8222198 23:-3.5476201 24:8.7167397 25:-4.1929102 26:-3.5476201 27:18.750822 28:14 29:2 30:1 31:0 32:0.000159 33:0.00082399999 34:7.1000002e-05 35:0 36:0 37:0.001554 38:1.8000001e-05 39:0.00058599998 40:0.00060600002 41:0.001071 42:20.60754 43:20.798771 44:21.584181 #docid = 150135
-0.00010000000000000000479217360238593 1:24.003517 2:28 3:45 4:2 5:4 6:0.0041939998 7:4.7000001e-05 8:0.00047100001 9:1.4e-05 10:0.00041199999 11:7.1000002e-05 12:9.2000002e-05 13:21.603167 14:6.0000002e-06 15:-0.67329001 16:26.885 17:-1.0992301 18:-1.34149 19:-7.0474701 20:1.19692 21:-6.82269 22:-6.8222198 23:-5.9899802 24:2.8975501 25:-6.2234902 26:-5.9899802 27:21.603165 28:2 29:19 30:0 31:1 32:2.3000001e-05 33:0.007832 34:0 35:9.2000002e-05 36:2e-06 37:0.004834 38:2.6e-05 39:0.00097200001 40:0.00070199999 41:0.00021699999 42:24.294796 43:23.898357 44:21.554125 #docid = 155704
-0.00010000000000000000479217360238593 1:14.886822 2:213 3:12 4:6 5:6 6:0.000416 7:0.000416 8:0.00034500001 9:1.4e-05 10:0.00041199999 11:7.1000002e-05 12:9.2000002e-05 13:13.398139 14:1e-06 15:-13.6815 16:0.015328 17:-12.3019 18:-8.5451202 19:-7.0474701 20:1.19692 21:-6.82269 22:-6.8222198 23:-5.9899802 24:2.8975501 25:-6.2234902 26:-5.9899802 27:13.398139 28:14 29:0 30:0 31:0 32:0.000159 33:0 34:0 35:0 36:0 37:0.000462 38:1.8000001e-05 39:0.00043300001 40:0.00044599999 41:0.00050700002 42:14.870192 43:15.163729 44:18.536583 #docid = 160148
-0.00030004506158980837190672352754461 1:15.318521 2:7002 3:6 4:3 5:5 6:0 7:0 8:0.00034 9:1.4e-05 10:0.00041199999 11:7.1000002e-05 12:9.2000002e-05 13:13.78667 14:0 15:-4.6527901 16:12.5493 17:-4.6986699 18:-4.5088501 19:-4.6378999 20:7.63416 21:-4.6835999 22:-4.4939198 23:-5.9899802 24:2.8975501 25:-6.2234902 26:-5.9899802 27:13.786669 28:90 29:1 30:0 31:0 32:0.001023 33:0.00041199999 34:0 35:0 36:0 37:0 38:0 39:0 40:0 41:0 42:0 43:0 44:0 #docid = 162241
-3.1291798412776128390788699107361e-05 1:14.220612 2:275 3:2 4:5 5:6 6:0.003878 7:0.00092899997 8:0.00034500001 9:1.4e-05 10:0.00041199999 11:7.1000002e-05 12:9.2000002e-05 13:12.798551 14:1e-06 15:-7.0714502 16:12.2793 17:-5.4691401 18:-5.3826299 19:-5.2238202 20:7.32547 21:-6.1588101 22:-5.2238202 23:-5.6514902 24:4.1319699 25:-6.1364799 26:-5.6514902 27:12.79855 28:18 29:1 30:1 31:0 32:0.000205 33:0.00041199999 34:7.1000002e-05 35:0 36:0 37:0.0044709998 38:1.8000001e-05 39:0.00044800001 40:0.000428 41:0.00078300002 42:14.205358 43:14.213586 44:19.704973 #docid = 185094
0.0010771303814252717202110121164083 1:22.105631 2:518 3:1 4:6 5:6 6:0.010744 7:0.001052 8:0.000218 9:1.4e-05 10:0.00041199999 11:7.1000002e-05 12:9.2000002e-05 13:19.895067 14:1e-06 15:-4.5271802 16:17.063101 17:-3.7261701 18:-3.5360301 19:-7.0474701 20:1.19692 21:-6.82269 22:-6.8222198 23:-3.8273399 24:6.8130398 25:-4.2469802 26:-3.8273399 27:19.895067 28:36 29:1 30:1 31:0 32:0.000409 33:0.00041199999 34:7.1000002e-05 35:0 36:0 37:0.013816 38:0.000109 39:0.00096199999 40:0.00064500002 41:0.000243 42:22.788174 43:21.920012 44:18.418295 #docid = 185577
-0.00010000000000000000479217360238593 1:14.570546 2:195 3:4 4:3 5:4 6:0.0027389999 7:0 8:0.00042600001 9:1.4e-05 10:0.00041199999 11:7.1000002e-05 12:9.2000002e-05 13:13.113491 14:4.9999999e-06 15:-13.6815 16:0.015328 17:-12.3019 18:-8.5451202 19:-5.56952 20:6.0591602 21:-6.1965499 22:-5.56952 23:-5.3993502 24:4.9807301 25:-6.0994301 26:-5.3993502 27:13.113491 28:8 29:0 30:1 31:1 32:9.1000002e-05 33:0 34:7.1000002e-05 35:9.2000002e-05 36:1e-06 37:0.001653 38:0 39:0.00044500001 40:0.00039299999 41:0.000117 42:14.939526 43:13.548517 44:8.2550964 #docid = 192930
-0.00010000000000000000479217360238593 1:23.50547 2:449 3:7 4:5 5:6 6:0.001045 7:0.00194 8:0.00036800001 9:1.4e-05 10:0.00041199999 11:7.1000002e-05 12:9.2000002e-05 13:23.136898 14:0 15:-1.31581 16:23.605 17:-2.0077901 18:-1.89143 19:-1.3844301 20:15.0965 21:-3.273 22:-1.3844301 23:-1.7817301 24:11.1555 25:-3.2539999 26:-1.7817301 27:23.136896 28:46 29:3 30:2 31:1 32:0.00052300002 33:0.001237 34:0.000141 35:9.2000002e-05 36:0 37:0.001601 38:1.8000001e-05 39:0.00067600003 40:0.00068699999 41:0.00186 42:23.434334 43:23.212873 44:23.211206 #docid = 199129
-0.00025717740964185107407219410546872 1:20.979628 2:267 3:4 4:2 5:5 6:0.0028969999 7:0.00027799999 8:0.00036800001 9:1.4e-05 10:0.00041199999 11:7.1000002e-05 12:9.2000002e-05 13:18.881666 14:1e-06 15:-0.72126698 16:26.5877 17:-1.21927 18:-1.3845201 19:-1.3844301 20:15.0965 21:-3.273 22:-1.3844301 23:-1.37959 24:13.2336 25:-3.2176299 26:-1.37959 27:18.881664 28:16 29:2 30:0 31:0 32:0.000182 33:0.00082399999 34:0 35:0 36:0 37:0.004588 38:1.8000001e-05 39:0.00063899998 40:0.000611 41:0.00038799999 42:21.719503 43:20.567472 44:18.228065 #docid = 208838
-0.00020000000000000000958434720477186 1:23.276556 2:191 3:8 4:4 5:5 6:0.001051 7:0.000111 8:0.00028099999 9:1.4e-05 10:0.00041199999 11:7.1000002e-05 12:9.2000002e-05 13:21.606522 14:1e-06 15:-0.59759402 16:26.4737 17:-1.75989 18:-1.20249 19:-0.69221598 20:18.251499 21:-3.23526 22:-0.69221598 23:-1.37959 24:13.2336 25:-3.2176299 26:-1.37959 27:21.606522 28:24 29:4 30:2 31:0 32:0.00027300001 33:0.001649 34:0.000141 35:0 36:0 37:0.001122 38:6.2999999e-05 39:0.00071300002 40:0.00067899999 41:0.000207 42:23.184803 43:22.988262 44:19.430977 #docid = 219984
-0.00012220229929343792664095391664603 1:15.151105 2:57 3:3 4:1 5:4 6:0 7:6.8000001e-05 8:0.00025000001 9:1.4e-05 10:0.00041199999 11:7.1000002e-05 12:9.2000002e-05 13:14.791 14:0 15:-4.1703 16:16.0951 17:-4.1423998 18:-3.7710099 19:-3.5211401 20:12.201 21:-4.8023901 22:-3.5211401 23:-2.8545699 24:12.0969 25:-4.1357498 26:-2.8545699 27:15.206403 28:4 29:2 30:1 31:0 32:4.5000001e-05 33:0.00082399999 34:7.1000002e-05 35:0 36:0 37:0 38:8.0999998e-05 39:0.000416 40:0.00043799999 41:0.00012500001 42:14.999248 43:15.674951 44:12.27118 #docid = 222468
0.0043453873754440925161746100968685 1:15.375553 2:7165 3:8 4:9 5:6 6:0.00055900001 7:0 8:0.000218 9:1.4e-05 10:0.00041199999 11:7.1000002e-05 12:9.2000002e-05 13:13.837998 14:0 15:-4.2109599 16:13.5403 17:-4.6173301 18:-4.2879901 19:-4.6378999 20:7.63416 21:-4.6835999 22:-4.4939198 23:-3.95294 24:5.9471502 25:-4.2814598 26:-3.95294 27:13.837997 28:91 29:2 30:1 31:0 32:0.001034 33:0.00082399999 34:7.1000002e-05 35:0 36:0 37:0.00094 38:0 39:0.00043499999 40:0.00041499999 41:0.000124 42:14.894464 43:14.128465 44:7.6170192 #docid = 224147
-0.00020000000000000000958434720477186 1:19.625484 2:630 3:2 4:2 5:6 6:0.000151 7:2.4000001e-05 8:0.00028099999 9:1.4e-05 10:0.00041199999 11:7.1000002e-05 12:9.2000002e-05 13:18.646616 14:0 15:-13.6815 16:0.015328 17:-12.3019 18:-8.5451202 19:-7.0474701 20:1.19692 21:-6.82269 22:-6.8222198 23:-5.9899802 24:2.8975501 25:-6.2234902 26:-5.9899802 27:18.646616 28:30 29:0 30:0 31:0 32:0.00034100001 33:0 34:0 35:0 36:0 37:0.00022 38:1.8999999e-05 39:0.000543 40:0.000588 41:0.000163 42:19.27766 43:19.214676 44:13.727457 #docid = 225349
-0.00010000000000000000479217360238593 1:20.575518 2:1421 3:9 4:4 5:5 6:0 7:0 8:0.000187 9:1.4e-05 10:0.00041199999 11:7.1000002e-05 12:9.2000002e-05 13:19.879156 14:0 15:-5.0021901 16:9.8091402 17:-5.0289698 18:-4.8182502 19:-7.0474701 20:1.19692 21:-6.82269 22:-6.8222198 23:-5.9899802 24:2.8975501 25:-6.2234902 26:-5.9899802 27:19.879156 28:62 29:1 30:0 31:0 32:0.00070500001 33:0.00041199999 34:0 35:0 36:0 37:0 38:0 39:0 40:0 41:0 42:0 43:0 44:0 #docid = 226314
0.00010000000000000000479217360238593 1:22.063059 2:65 3:16 4:1 5:5 6:0.001086 7:0.000142 8:0.00036100001 9:1.4e-05 10:0.00041199999 11:7.1000002e-05 12:9.2000002e-05 13:20.339943 14:3.0000001e-06 15:-1.73998 16:21.688499 17:-2.62413 18:-2.0404999 19:-7.0474701 20:1.19692 21:-6.82269 22:-6.8222198 23:-2.8545699 24:12.0969 25:-4.1357498 26:-2.8545699 27:20.339941 28:6 29:4 30:1 31:0 32:6.8000001e-05 33:0.001649 34:7.1000002e-05 35:0 36:1e-06 37:0.0012300001 38:0.00031500001 39:0.00066100003 40:0.00064899999 41:0.00019799999 42:21.974701 43:22.171762 44:17.792645 #docid = 227657
-1.0997128792433752408896907581948e-05 1:20.373428 2:331 3:11 4:5 5:4 6:0.000772 7:0.000313 8:0.000466 9:1.4e-05 10:0.00041199999 11:7.1000002e-05 12:9.2000002e-05 13:18.724831 14:0 15:-13.6815 16:0.015328 17:-12.3019 18:-8.5451202 19:-5.64956 20:5.3123298 21:-6.0147099 22:-5.8111801 23:-5.9899802 24:2.8975501 25:-6.2234902 26:-5.9899802 27:18.725813 28:16 29:0 30:0 31:0 32:0.000182 33:0 34:0 35:0 36:0 37:0.00087599998 38:0.00043399999 39:0.00059900002 40:0.00059000001 41:0.000201 42:20.46752 43:22.494207 44:17.00251 #docid = 251181
-0.00010000000000000000479217360238593 1:16.647697 2:5 3:20 4:5 5:6 6:0 7:0 8:0.00036400001 9:1.4e-05 10:0.00041199999 11:7.1000002e-05 12:9.2000002e-05 13:14.982927 14:0 15:-3.0356901 16:14.4045 17:-3.5477099 18:-3.0352499 19:-7.0474701 20:1.19692 21:-6.82269 22:-6.8222198 23:-5.9899802 24:2.8975501 25:-6.2234902 26:-5.9899802 27:14.982927 28:0 29:2 30:0 31:0 32:0 33:0.00082399999 34:0 35:0 36:0 37:0 38:0 39:0 40:0 41:0 42:0 43:0 44:0 #docid = 268041
-0.00010000000000000000479217360238593 1:19.595278 2:241 3:1 4:3 5:5 6:0.00196 7:0.00031900001 8:0.00036100001 9:1.4e-05 10:0.00041199999 11:7.1000002e-05 12:9.2000002e-05 13:17.63575 14:8e-06 15:-13.6815 16:0.015328 17:-12.3019 18:-8.5451202 19:-1.94266 20:11.9881 21:-3.32707 22:-1.94266 23:-1.09357 24:14.5927 25:-3.19894 26:-1.09357 27:17.63575 28:9 29:0 30:2 31:0 32:0.000102 33:0 34:0.000141 35:0 36:3.0000001e-06 37:0.0026750001 38:2.2e-05 39:0.00060000003 40:0.00058599998 41:0.000233 42:19.676033 43:20.357237 44:16.585398 #docid = 271775
-0.00010000000000000000479217360238593 1:14.760625 2:135 3:7 4:5 5:5 6:0.001074 7:0 8:0.000351 9:1.4e-05 10:0.00041199999 11:7.1000002e-05 12:9.2000002e-05 13:13.284562 14:1e-06 15:-4.6772299 16:14.6637 17:-4.3446398 18:-4.2535 19:-3.8676901 20:10.926 21:-4.8218098 22:-3.8676901 23:-3.6591699 24:7.97404 25:-4.2112598 26:-3.6591699 27:13.284562 28:5 29:2 30:1 31:0 32:5.7000001e-05 33:0.00082399999 34:7.1000002e-05 35:0 36:0 37:0.0018889999 38:0 39:0.00046499999 40:0.00039900001 41:0.000119 42:14.886835 43:14.395292 44:11.241995 #docid = 273407
-0.00010000000000000000479217360238593 1:18.569593 2:346 3:1 4:1 5:12 6:0.00012899999 7:0.00041499999 8:0.00045600001 9:1.4e-05 10:0.00041199999 11:7.1000002e-05 12:9.2000002e-05 13:16.712635 14:1.4e-05 15:-13.6815 16:0.015328 17:-12.3019 18:-8.5451202 19:-7.0474701 20:1.19692 21:-6.82269 22:-6.8222198 23:-5.9899802 24:2.8975501 25:-6.2234902 26:-5.9899802 27:16.712633 28:15 29:0 30:0 31:0 32:0.00017 33:0 34:0 35:0 36:3.0000001e-06 37:0.00018800001 38:1.8000001e-05 39:0.00054400001 40:0.00054899999 41:0.00026 42:18.635815 43:18.040308 44:13.806417 #docid = 275270
-9.4496891033912788770976476371288e-05 1:21.994104 2:263 3:2 4:4 5:5 6:0.0019640001 7:0.000333 8:0.00036100001 9:1.4e-05 10:0.00041199999 11:7.1000002e-05 12:9.2000002e-05 13:19.794695 14:8e-06 15:-13.6815 16:0.015328 17:-12.3019 18:-8.5451202 19:-7.0474701 20:1.19692 21:-6.82269 22:-6.8222198 23:-1.37959 24:13.2336 25:-3.2176299 26:-1.37959 27:19.794693 28:21 29:0 30:2 31:0 32:0.000239 33:0 34:0.000141 35:0 36:3.0000001e-06 37:0.002691 38:8e-06 39:0.000673 40:0.00064899999 41:0.00026100001 42:22.038889 43:22.028769 44:18.607334 #docid = 275466
-9.9999999999766941982670687139034e-05 1:21.958422 2:178 3:6 4:4 5:5 6:0.0021480001 7:0.00034 8:0.00036100001 9:1.4e-05 10:0.00041199999 11:7.1000002e-05 12:9.2000002e-05 13:19.762579 14:8e-06 15:-6.3085499 16:6.8368201 17:-5.2925501 18:-5.26824 19:-1.60711 20:13.8955 21:-3.2913499 22:-1.60711 23:-1.37959 24:13.2336 25:-3.2176299 26:-1.37959 27:19.762579 28:14 29:1 30:2 31:0 32:0.000159 33:0.00041199999 34:0.000141 35:0 36:3.0000001e-06 37:0.0030469999 38:3.1e-05 39:0.000681 40:0.00065100001 41:0.000268 42:22.355017 43:22.115871 44:19.259758 #docid = 275851
-0.00010000000000000000479217360238593 1:20.877066 2:107 3:1 4:3 5:5 6:0.001957 7:0.00030099999 8:0.00036100001 9:1.4e-05 10:0.00041199999 11:7.1000002e-05 12:9.2000002e-05 13:18.78936 14:8e-06 15:-13.6815 16:0.015328 17:-12.3019 18:-8.5451202 19:-7.0474701 20:1.19692 21:-6.82269 22:-6.8222198 23:-1.09357 24:14.5927 25:-3.19894 26:-1.09357 27:18.789358 28:8 29:0 30:2 31:0 32:9.1000002e-05 33:0 34:0.000141 35:0 36:3.0000001e-06 37:0.0027010001 38:3.3e-05 39:0.00063899998 40:0.00062100001 41:0.000241 42:20.953804 43:21.700609 44:18.742645 #docid = 277477
-0.00010000000000000000479217360238593 1:21.571445 2:125 3:1 4:3 5:5 6:0.0019640001 7:0.000333 8:0.00036100001 9:1.4e-05 10:0.00041199999 11:7.1000002e-05 12:9.2000002e-05 13:19.414301 14:8e-06 15:-13.6815 16:0.015328 17:-12.3019 18:-8.5451202 19:-7.0474701 20:1.19692 21:-6.82269 22:-6.8222198 23:-1.09357 24:14.5927 25:-3.19894 26:-1.09357 27:19.414301 28:10 29:0 30:2 31:0 32:0.000114 33:0 34:0.000141 35:0 36:3.0000001e-06 37:0.002691 38:1.4e-05 39:0.00066100003 40:0.00063800003 41:0.00025799999 42:21.623529 43:22.05228 44:19.236015 #docid = 278060
-0.00020747109233483162723556125772717 1:22.195837 2:748 3:1 4:3 5:5 6:0.001953 7:0.00040399999 8:0.00036100001 9:1.4e-05 10:0.00041199999 11:7.1000002e-05 12:9.2000002e-05 13:19.976254 14:8e-06 15:-13.6815 16:0.015328 17:-12.3019 18:-8.5451202 19:-4.4939198 20:7.1764998 21:-4.91362 22:-4.4939198 23:-1.09357 24:14.5927 25:-3.19894 26:-1.09357 27:19.976254 28:50 29:0 30:2 31:0 32:0.00056800002 33:0 34:0.000141 35:0 36:3.0000001e-06 37:0.002758 38:2.4999999e-05 39:0.00068 40:0.00065499998 41:0.00026100001 42:22.17844 43:21.886629 44:17.736029 #docid = 284113
-0.00010000000000000000479217360238593 1:14.261408 2:349 3:2 4:4 5:5 6:0.001959 7:0.000527 8:0.00036100001 9:1.4e-05 10:0.00041199999 11:7.1000002e-05 12:9.2000002e-05 13:12.835268 14:8e-06 15:-13.6815 16:0.015328 17:-12.3019 18:-8.5451202 19:-7.0474701 20:1.19692 21:-6.82269 22:-6.8222198 23:-1.37959 24:13.2336 25:-3.2176299 26:-1.37959 27:12.835267 28:3 29:0 30:2 31:0 32:3.4000001e-05 33:0 34:0.000141 35:0 36:3.0000001e-06 37:0.002662 38:3.7999998e-05 39:0.000439 40:0.00043499999 41:0.00021300001 42:14.375641 43:16.920288 44:13.84178 #docid = 286636
-0.00010000000000000000479217360238593 1:14.698709 2:47 3:5 4:7 5:4 6:0.00086700002 7:0 8:0.000348 9:1.4e-05 10:0.00041199999 11:7.1000002e-05 12:9.2000002e-05 13:13.228839 14:1e-06 15:-4.9284501 16:10.7974 17:-4.9633698 18:-4.63447 19:-4.5606599 20:6.71558 21:-4.9310098 22:-4.5606599 23:-3.8940799 24:6.3507199 25:-4.26437 26:-3.8940799 27:13.228838 28:1 29:1 30:1 31:0 32:1.1e-05 33:0.00041199999 34:7.1000002e-05 35:0 36:0 37:0.00112 38:0 39:0.00041899999 40:0.000397 41:0.000118 42:14.675482 43:14.324003 44:11.11334 #docid = 286955
0.00077159055257047142514087445519522 1:15.210758 2:97 3:0 4:4 5:5 6:0.000298 7:7.4000003e-05 8:0.00034200001 9:1.4e-05 10:0.00041199999 11:7.1000002e-05 12:9.2000002e-05 13:13.689683 14:0 15:-13.6815 16:0.015328 17:-12.3019 18:-8.5451202 19:-4.7248802 20:5.9511399 21:-4.96491 22:-4.6721702 23:-3.5476201 24:8.7167397 25:-4.1929102 26:-3.5476201 27:13.689682 28:7 29:0 30:1 31:0 32:7.9999998e-05 33:0 34:7.1000002e-05 35:0 36:0 37:0.000132 38:9.0000003e-06 39:0.00042299999 40:0.00046000001 41:0.00012899999 42:15.086366 43:17.197323 44:12.880512 #docid = 290177
-0.00021883314976966477941912325722029 1:16.650797 2:3060 3:9 4:6 5:5 6:0.001107 7:7.4000003e-05 8:0.00034200001 9:1.4e-05 10:0.00041199999 11:7.1000002e-05 12:9.2000002e-05 13:14.985717 14:0 15:-4.80269 16:13.7669 17:-4.4839401 18:-4.4105301 19:-4.3257399 20:8.3183603 21:-4.8779001 22:-4.3257399 23:-3.8273399 24:6.8130398 25:-4.2469802 26:-3.8273399 27:14.985717 28:68 29:2 30:1 31:0 32:0.00077300001 33:0.00082399999 34:7.1000002e-05 35:0 36:0 37:0.00050199998 38:9.0000003e-06 39:0.000497 40:0.00049900002 41:0.000141 42:16.4048 43:15.886353 44:10.455985 #docid = 292490
-0.00020000000000000000958434720477186 1:22.754354 2:610 3:1 4:3 5:4 6:0.00026999999 7:0.00017100001 8:0.000113 9:1.4e-05 10:0.00041199999 11:7.1000002e-05 12:9.2000002e-05 13:20.478918 14:0 15:-3.5360301 16:13.522 17:-4.8176599 18:-3.5360301 19:-7.0474701 20:1.19692 21:-6.82269 22:-6.8222198 23:-3.40381 24:9.61201 25:-4.1742201 26:-3.40381 27:20.478918 28:53 29:1 30:1 31:0 32:0.00060199999 33:0.00041199999 34:7.1000002e-05 35:0 36:0 37:0.00023600001 38:4.8000002e-05 39:0.00064400001 40:0.00067099999 41:0.00023400001 42:22.532839 43:22.497856 44:18.71715 #docid = 295307
-1.361440507996469762019842164591e-06 1:18.423225 2:407 3:22 4:2 5:5 6:0.0020989999 7:0.00046499999 8:0.000287 9:1.4e-05 10:0.00041199999 11:7.1000002e-05 12:9.2000002e-05 13:16.580904 14:3.0000001e-06 15:-4.7217999 16:13.0344 17:-4.5755 18:-4.5433402 19:-7.0474701 20:1.19692 21:-6.82269 22:-6.8222198 23:-5.9899802 24:2.8975501 25:-6.2234902 26:-5.9899802 27:16.580902 28:10 29:3 30:0 31:1 32:0.000114 33:0.001237 34:0 35:9.2000002e-05 36:0 37:0.00096500001 38:4.7000001e-05 39:0.00056700001 40:0.000527 41:0.00017 42:18.844585 43:17.83683 44:12.676375 #docid = 303782
-9.2709725396788111254769981783852e-05 1:20.987774 2:212 3:12 4:2 5:6 6:0.00036899999 7:6.5e-05 8:0.00037200001 9:1.4e-05 10:0.00041199999 11:7.1000002e-05 12:9.2000002e-05 13:18.888998 14:0 15:-4.8217702 16:10.0389 17:-5.01297 18:-4.7782502 19:-7.0474701 20:1.19692 21:-6.82269 22:-6.8222198 23:-3.2011099 24:10.7122 25:-4.15517 26:-3.2011099 27:18.888996 28:12 29:1 30:1 31:0 32:0.000136 33:0.00041199999 34:7.1000002e-05 35:0 36:0 37:0.00050700002 38:0.000132 39:0.00059499999 40:0.00060099998 41:0.000176 42:20.691317 43:20.60935 44:14.978341 #docid = 315866
-0.00010000000000000000479217360238593 1:21.17515 2:295 3:15 4:5 5:5 6:0.001027 7:0.000128 8:0.000351 9:1.4e-05 10:0.00041199999 11:7.1000002e-05 12:9.2000002e-05 13:19.057634 14:1e-06 15:-0.958794 16:24.822701 17:-2.2281201 18:-1.46237 19:-1.0972199 20:16.524799 21:-3.2543099 22:-1.0972199 23:-5.9899802 24:2.8975501 25:-6.2234902 26:-5.9899802 27:19.057634 28:11 29:8 30:0 31:0 32:0.00012500001 33:0.003298 34:0 35:0 36:0 37:0.001844 38:1.8000001e-05 39:0.000688 40:0.00061500003 41:0.00019000001 42:21.273439 43:21.64435 44:16.318419 #docid = 343274
-0.00010000000000000000479217360238593 1:15.611362 2:6121 3:421 4:1 5:6 6:0 7:0 8:0.00027399999 9:1.4e-05 10:0.00041199999 11:7.1000002e-05 12:9.2000002e-05 13:14.050226 14:0 15:-5.1471 16:14.0303 17:-4.9823999 18:-4.4960198 19:-7.0474701 20:1.19692 21:-6.82269 22:-6.8222198 23:-2.8545699 24:12.0969 25:-4.1357498 26:-2.8545699 27:14.050226 28:74 29:62 30:1 31:0 32:0.000841 33:0.025556 34:7.1000002e-05 35:0 36:0 37:0 38:0 39:0 40:0 41:0 42:0 43:0 44:0 #docid = 343427
-8.5701447783783168510134131690137e-05 1:14.857923 2:2908 3:3 4:2 5:6 6:0 7:0 8:0.000279 9:1.4e-05 10:0.00041199999 11:7.1000002e-05 12:9.2000002e-05 13:13.37213 14:0 15:-13.6815 16:0.015328 17:-12.3019 18:-8.5451202 19:-7.0474701 20:1.19692 21:-6.82269 22:-6.8222198 23:-5.9899802 24:2.8975501 25:-6.2234902 26:-5.9899802 27:13.37213 28:42 29:0 30:0 31:0 32:0.00047699999 33:0 34:0 35:0 36:0 37:0 38:0 39:0 40:0 41:0 42:0 43:0 44:0 #docid = 364742
-0.00010000000000000000479217360238593 1:18.088114 2:168 3:2 4:5 5:6 6:0.001143 7:0.000168 8:0.00027399999 9:1.4e-05 10:0.00041199999 11:7.1000002e-05 12:9.2000002e-05 13:16.279303 14:2e-06 15:-13.6815 16:0.015328 17:-12.3019 18:-8.5451202 19:-4.4939198 20:7.1764998 21:-4.91362 22:-4.4939198 23:-3.6591699 24:7.97404 25:-4.2112598 26:-3.6591699 27:16.279303 28:7 29:0 30:1 31:0 32:7.9999998e-05 33:0 34:7.1000002e-05 35:0 36:0 37:0.0016899999 38:1.9999999e-05 39:0.00055900001 40:0.00053199998 41:0.00016900001 42:18.839542 43:21.062492 44:14.65118 #docid = 426390
-0.00010000000000000000479217360238593 1:18.066084 2:189 3:1 4:5 5:7 6:0.0011399999 7:0.00014600001 8:0.00027399999 9:1.4e-05 10:0.00041199999 11:7.1000002e-05 12:9.2000002e-05 13:16.259476 14:2e-06 15:-13.6815 16:0.015328 17:-12.3019 18:-8.5451202 19:-4.4939198 20:7.1764998 21:-4.91362 22:-4.4939198 23:-3.6591699 24:7.97404 25:-4.2112598 26:-3.6591699 27:16.259476 28:8 29:0 30:1 31:0 32:9.1000002e-05 33:0 34:7.1000002e-05 35:0 36:0 37:0.001682 38:3.9999999e-05 39:0.000558 40:0.00053299998 41:0.00016700001 42:18.792425 43:19.691549 44:13.702141 #docid = 429880
-8.1586213413809005601251556072384e-05 1:16.432812 2:4624 3:2 4:5 5:6 6:0.0011399999 7:0.00014600001 8:0.00027399999 9:1.4e-05 10:0.00041199999 11:7.1000002e-05 12:9.2000002e-05 13:14.78953 14:2e-06 15:-13.6815 16:0.015328 17:-12.3019 18:-8.5451202 19:-4.4939198 20:7.1764998 21:-4.91362 22:-4.4939198 23:-3.6591699 24:7.97404 25:-4.2112598 26:-3.6591699 27:14.78953 28:84 29:0 30:1 31:0 32:0.000955 33:0 34:7.1000002e-05 35:0 36:0 37:0.001682 38:4.4e-05 39:0.00050800003 40:0.00049000001 41:0.00015399999 42:16.118908 43:15.45608 44:9.5351143 #docid = 434882
-0.00010000000000000000479217360238593 1:14.875863 2:163 3:3 4:2 5:8 6:0.000106 7:0.00027799999 8:0.00034500001 9:1.4e-05 10:0.00041199999 11:7.1000002e-05 12:9.2000002e-05 13:13.388277 14:0 15:-5.58494 16:9.3780403 17:-6.3372598 18:-5.58494 19:-7.0474701 20:1.19692 21:-6.82269 22:-6.8222198 23:-5.9899802 24:2.8975501 25:-6.2234902 26:-5.9899802 27:13.388276 28:7 29:1 30:0 31:0 32:7.9999998e-05 33:0.00041199999 34:0 35:0 36:0 37:7.5000004e-05 38:1.8000001e-05 39:0.000409 40:0.00044800001 41:0.000336 42:14.356618 43:15.234269 44:16.630976 #docid = 440240
-0.00010000000000000000479217360238593 1:14.782286 2:168 3:1 4:2 5:8 6:0.000106 7:0.00025799999 8:0.00034500001 9:1.4e-05 10:0.00041199999 11:7.1000002e-05 12:9.2000002e-05 13:13.304057 14:0 15:-13.6815 16:0.015328 17:-12.3019 18:-8.5451202 19:-7.0474701 20:1.19692 21:-6.82269 22:-6.8222198 23:-5.9899802 24:2.8975501 25:-6.2234902 26:-5.9899802 27:13.304057 28:8 29:0 30:0 31:0 32:9.1000002e-05 33:0 34:0 35:0 36:0 37:7.5000004e-05 38:1.8000001e-05 39:0.00040600001 40:0.00044500001 41:0.000325 42:14.262524 43:15.171675 44:16.377386 #docid = 440452
-0.00010000000000000000479217360238593 1:21.029045 2:134 3:2 4:2 5:8 6:0.000106 7:0.00027799999 8:0.00034500001 9:1.4e-05 10:0.00041199999 11:7.1000002e-05 12:9.2000002e-05 13:18.926142 14:0 15:-3.88258 16:13.1086 17:-4.83708 18:-3.88258 19:-7.0474701 20:1.19692 21:-6.82269 22:-6.8222198 23:-5.9899802 24:2.8975501 25:-6.2234902 26:-5.9899802 27:18.92614 28:10 29:1 30:0 31:0 32:0.000114 33:0.00041199999 34:0 35:0 36:0 37:7.5000004e-05 38:1.8000001e-05 39:0.00057799998 40:0.00061400002 41:0.00038400001 42:20.662468 43:20.855886 44:19.312675 #docid = 444695
-0.00010000000000000000479217360238593 1:17.580574 2:162 3:1 4:2 5:8 6:0.000106 7:0.00025799999 8:0.00034500001 9:1.4e-05 10:0.00041199999 11:7.1000002e-05 12:9.2000002e-05 13:15.822515 14:0 15:-13.6815 16:0.015328 17:-12.3019 18:-8.5451202 19:-7.0474701 20:1.19692 21:-6.82269 22:-6.8222198 23:-5.9899802 24:2.8975501 25:-6.2234902 26:-5.9899802 27:15.822516 28:8 29:0 30:0 31:0 32:9.1000002e-05 33:0 34:0 35:0 36:0 37:7.5000004e-05 38:1.8000001e-05 39:0.00048300001 40:0.00052100001 41:0.000348 42:17.063667 43:17.557924 44:17.187708 #docid = 444879
-0.00020000000000000000958434720477186 1:14.617701 2:177 3:2 4:2 5:8 6:0.000106 7:0.00027799999 8:0.00034500001 9:1.4e-05 10:0.00041199999 11:7.1000002e-05 12:9.2000002e-05 13:13.155931 14:0 15:-13.6815 16:0.015328 17:-12.3019 18:-8.5451202 19:-7.0474701 20:1.19692 21:-6.82269 22:-6.8222198 23:-5.9899802 24:2.8975501 25:-6.2234902 26:-5.9899802 27:13.155931 28:8 29:0 30:0 31:0 32:9.1000002e-05 33:0 34:0 35:0 36:0 37:7.5000004e-05 38:1.8000001e-05 39:0.00040200001 40:0.00044 41:0.00033400001 42:14.097161 43:14.976222 44:16.385551 #docid = 444985
